{
  "learner": {
    "attributes": {
      "best_iteration": "23",
      "best_score": "0.22003704161985127"
    },
    "feature_names": [],
    "feature_types": [],
    "gradient_booster": {
      "model": {
        "gbtree_model_param": {
          "num_parallel_tree": "1",
          "num_trees": "44"
        },
        "iteration_indptr": [
          0,
          1,
          2,
          3,
          4,
          5,
          6,
          7,
          8,
          9,
          10,
          11,
          12,
          13,
          14,
          15,
          16,
          17,
          18,
          19,
          20,
          21,
          22,
          23,
          24,
          25,
          26,
          27,
          28,
          29,
          30,
          31,
          32,
          33,
          34,
          35,
          36,
          37,
          38,
          39,
          40,
          41,
          42,
          43,
          44
        ],
        "tree_info": [
          0,
          0,
          0,
          0,
          0,
          0,
          0,
          0,
          0,
          0,
          0,
          0,
          0,
          0,
          0,
          0,
          0,
          0,
          0,
          0,
          0,
          0,
          0,
          0,
          0,
          0,
          0,
          0,
          0,
          0,
          0,
          0,
          0,
          0,
          0,
          0,
          0,
          0,
          0,
          0,
          0,
          0,
          0,
          0
        ],
        "trees": [
          {
            "base_weights": [
              -0.0016352718,
              0.050356936,
              -0.06689881,
              0.0036342784,
              -0.0032377392,
              0.0067966874,
              -0.09722595,
              0,
              -0.007688099
            ],
            "categories": [],
            "categories_nodes": [],
            "categories_segments": [],
            "categories_sizes": [],
            "default_left": [
              0,
              0,
              0,
              0,
              0,
              0,
              0,
              0,
              0
            ],
            "id": 0,
            "left_children": [
              1,
              3,
              5,
              -1,
              -1,
              -1,
              7,
              -1,
              -1
            ],
            "loss_changes": [
              0.4036567,
              0.17549796,
              0.35086298,
              0,
              0,
              0,
              0.26973385,
              0,
              0
            ],
            "parents": [
              2147483647,
              0,
              0,
              1,
              1,
              2,
              2,
              6,
              6
            ],
            "right_children": [
              2,
              4,
              6,
              -1,
              -1,
              -1,
              8,
              -1,
              -1
            ],
            "split_conditions": [
              8.317549,
              28,
              6,
              0.0036342784,
              -0.0032377392,
              0.0067966874,
              1,
              0,
              -0.007688099
            ],
            "split_indices": [
              28,
              9,
              7,
              0,
              0,
              0,
              1,
              0,
              0
            ],
            "split_type": [
              0,
              0,
              0,
              0,
              0,
              0,
              0,
              0,
              0
            ],
            "sum_hessian": [
              114,
              62,
              52,
              54,
              8,
              5,
              47,
              18,
              29
            ],
            "tree_param": {
              "num_deleted": "0",
              "num_feature": "37",
              "num_nodes": "9",
              "size_leaf_vector": "1"
            }
          },
          {
            "base_weights": [
              0.003879153,
              0.033566628,
              -0.10005861,
              0.06624671,
              -0.08795667,
              0.012386699,
              -0.014997417,
              0.0016309274,
              0.007216092,
              0.0011564305,
              -0.011320192,
              -0.0057437117,
              0.005465031
            ],
            "categories": [],
            "categories_nodes": [],
            "categories_segments": [],
            "categories_sizes": [],
            "default_left": [
              0,
              0,
              0,
              0,
              0,
              0,
              0,
              0,
              0,
              0,
              0,
              0,
              0
            ],
            "id": 1,
            "left_children": [
              1,
              3,
              5,
              7,
              9,
              11,
              -1,
              -1,
              -1,
              -1,
              -1,
              -1,
              -1
            ],
            "loss_changes": [
              0.32666898,
              0.35282278,
              0.5819063,
              0.1416089,
              0.32795787,
              0.22133063,
              0,
              0,
              0,
              0,
              0,
              0,
              0
            ],
            "parents": [
              2147483647,
              0,
              0,
              1,
              1,
              2,
              2,
              3,
              3,
              4,
              4,
              5,
              5
            ],
            "right_children": [
              2,
              4,
              6,
              8,
              10,
              12,
              -1,
              -1,
              -1,
              -1,
              -1,
              -1,
              -1
            ],
            "split_conditions": [
              25.896969,
              27,
              5.6664267,
              15,
              0.011931394,
              9.598263,
              -0.014997417,
              0.0016309274,
              0.007216092,
              0.0011564305,
              -0.011320192,
              -0.0057437117,
              0.005465031
            ],
            "split_indices": [
              28,
              9,
              24,
              9,
              34,
              27,
              0,
              0,
              0,
              0,
              0,
              0,
              0
            ],
            "split_type": [
              0,
              0,
              0,
              0,
              0,
              0,
              0,
              0,
              0,
              0,
              0,
              0,
              0
            ],
            "sum_hessian": [
              106,
              85,
              21,
              69,
              16,
              14,
              7,
              52,
              17,
              9,
              7,
              5,
              9
            ],
            "tree_param": {
              "num_deleted": "0",
              "num_feature": "37",
              "num_nodes": "13",
              "size_leaf_vector": "1"
            }
          },
          {
            "base_weights": [
              -0.0045126756,
              0.00267316,
              -0.07442467,
              -0.20560296,
              0,
              -0.015894469,
              -0.0016097985,
              0.0077069285,
              -0.0026067174
            ],
            "categories": [],
            "categories_nodes": [],
            "categories_segments": [],
            "categories_sizes": [],
            "default_left": [
              0,
              0,
              0,
              0,
              0,
              0,
              0,
              0,
              0
            ],
            "id": 2,
            "left_children": [
              1,
              -1,
              3,
              5,
              7,
              -1,
              -1,
              -1,
              -1
            ],
            "loss_changes": [
              0.43773723,
              0,
              0.48395482,
              0.25999588,
              0.287214,
              0,
              0,
              0,
              0
            ],
            "parents": [
              2147483647,
              0,
              0,
              2,
              2,
              3,
              3,
              4,
              4
            ],
            "right_children": [
              2,
              -1,
              4,
              6,
              8,
              -1,
              -1,
              -1,
              -1
            ],
            "split_conditions": [
              8.317549,
              0.00267316,
              14.525659,
              637,
              22.008602,
              -0.015894469,
              -0.0016097985,
              0.0077069285,
              -0.0026067174
            ],
            "split_indices": [
              28,
              0,
              28,
              4,
              28,
              0,
              0,
              0,
              0
            ],
            "split_type": [
              0,
              0,
              0,
              0,
              0,
              0,
              0,
              0,
              0
            ],
            "sum_hessian": [
              103,
              55,
              48,
              16,
              32,
              8,
              8,
              7,
              25
            ],
            "tree_param": {
              "num_deleted": "0",
              "num_feature": "37",
              "num_nodes": "9",
              "size_leaf_vector": "1"
            }
          },
          {
            "base_weights": [
              -0.00055837183,
              0.049638834,
              -0.07530308,
              0.0039505702,
              -0.05330393,
              0.05791343,
              -0.14336409,
              -0.0076723793,
              0.0012667874,
              -0.0019070198,
              0.006771143,
              -0.0088592125,
              0.00045688948
            ],
            "categories": [],
            "categories_nodes": [],
            "categories_segments": [],
            "categories_sizes": [],
            "default_left": [
              0,
              0,
              0,
              0,
              0,
              0,
              0,
              0,
              0,
              0,
              0,
              0,
              0
            ],
            "id": 3,
            "left_children": [
              1,
              3,
              5,
              -1,
              7,
              9,
              11,
              -1,
              -1,
              -1,
              -1,
              -1,
              -1
            ],
            "loss_changes": [
              0.4478379,
              0.2221996,
              0.47797123,
              0,
              0.15152678,
              0.15635297,
              0.21220714,
              0,
              0,
              0,
              0,
              0,
              0
            ],
            "parents": [
              2147483647,
              0,
              0,
              1,
              1,
              2,
              2,
              4,
              4,
              5,
              5,
              6,
              6
            ],
            "right_children": [
              2,
              4,
              6,
              -1,
              8,
              10,
              12,
              -1,
              -1,
              -1,
              -1,
              -1,
              -1
            ],
            "split_conditions": [
              8.317549,
              24,
              288,
              0.0039505702,
              1,
              5,
              4.4886365,
              -0.0076723793,
              0.0012667874,
              -0.0019070198,
              0.006771143,
              -0.0088592125,
              0.00045688948
            ],
            "split_indices": [
              28,
              9,
              4,
              0,
              30,
              9,
              26,
              0,
              0,
              0,
              0,
              0,
              0
            ],
            "split_type": [
              0,
              0,
              0,
              0,
              0,
              0,
              0,
              0,
              0,
              0,
              0,
              0,
              0
            ],
            "sum_hessian": [
              114,
              67,
              47,
              54,
              13,
              15,
              32,
              6,
              7,
              6,
              9,
              27,
              5
            ],
            "tree_param": {
              "num_deleted": "0",
              "num_feature": "37",
              "num_nodes": "13",
              "size_leaf_vector": "1"
            }
          },
          {
            "base_weights": [
              -0.00607277,
              0.041202936,
              -0.07371744,
              0.0036217477,
              -0.07755642,
              0.014034836,
              -0.12849352,
              0.00021586292,
              -0.011074687,
              -0.005518028,
              0.0048699332,
              -0.011084795,
              -0.00014635302
            ],
            "categories": [],
            "categories_nodes": [],
            "categories_segments": [],
            "categories_sizes": [],
            "default_left": [
              0,
              0,
              0,
              0,
              0,
              0,
              0,
              0,
              0,
              0,
              0,
              0,
              0
            ],
            "id": 4,
            "left_children": [
              1,
              3,
              5,
              -1,
              7,
              9,
              11,
              -1,
              -1,
              -1,
              -1,
              -1,
              -1
            ],
            "loss_changes": [
              0.3899357,
              0.26613882,
              0.27164146,
              0,
              0.21033326,
              0.22630706,
              0.33997965,
              0,
              0,
              0,
              0,
              0,
              0
            ],
            "parents": [
              2147483647,
              0,
              0,
              1,
              1,
              2,
              2,
              4,
              4,
              5,
              5,
              6,
              6
            ],
            "right_children": [
              2,
              4,
              6,
              -1,
              8,
              10,
              12,
              -1,
              -1,
              -1,
              -1,
              -1,
              -1
            ],
            "split_conditions": [
              8.317549,
              27,
              288,
              0.0036217477,
              157,
              1363,
              9769,
              0.00021586292,
              -0.011074687,
              -0.005518028,
              0.0048699332,
              -0.011084795,
              -0.00014635302
            ],
            "split_indices": [
              28,
              9,
              4,
              0,
              0,
              8,
              2,
              0,
              0,
              0,
              0,
              0,
              0
            ],
            "split_type": [
              0,
              0,
              0,
              0,
              0,
              0,
              0,
              0,
              0,
              0,
              0,
              0,
              0
            ],
            "sum_hessian": [
              116,
              67,
              49,
              55,
              12,
              18,
              31,
              8,
              4,
              6,
              12,
              16,
              15
            ],
            "tree_param": {
              "num_deleted": "0",
              "num_feature": "37",
              "num_nodes": "13",
              "size_leaf_vector": "1"
            }
          },
          {
            "base_weights": [
              -0.009776299,
              0.030445127,
              -0.07009767,
              0.0026135284,
              -0.03455136,
              -0.20343885,
              -0.008510488,
              -0.008755095,
              0.0018264176,
              -0.012977378,
              0,
              -0.0061322623,
              0.002295452
            ],
            "categories": [],
            "categories_nodes": [],
            "categories_segments": [],
            "categories_sizes": [],
            "default_left": [
              0,
              0,
              0,
              0,
              0,
              0,
              0,
              0,
              0,
              0,
              0,
              0,
              0
            ],
            "id": 5,
            "left_children": [
              1,
              3,
              5,
              -1,
              7,
              9,
              11,
              -1,
              -1,
              -1,
              -1,
              -1,
              -1
            ],
            "loss_changes": [
              0.30577037,
              0.10929341,
              0.3729649,
              0,
              0.21034206,
              0.18756872,
              0.26263234,
              0,
              0,
              0,
              0,
              0,
              0
            ],
            "parents": [
              2147483647,
              0,
              0,
              1,
              1,
              2,
              2,
              4,
              4,
              5,
              5,
              6,
              6
            ],
            "right_children": [
              2,
              4,
              6,
              -1,
              8,
              10,
              12,
              -1,
              -1,
              -1,
              -1,
              -1,
              -1
            ],
            "split_conditions": [
              8.254878,
              0.019662922,
              14.525659,
              0.0026135284,
              819,
              87,
              9.598263,
              -0.008755095,
              0.0018264176,
              -0.012977378,
              0,
              -0.0061322623,
              0.002295452
            ],
            "split_indices": [
              28,
              34,
              28,
              0,
              4,
              7,
              27,
              0,
              0,
              0,
              0,
              0,
              0
            ],
            "split_type": [
              0,
              0,
              0,
              0,
              0,
              0,
              0,
              0,
              0,
              0,
              0,
              0,
              0
            ],
            "sum_hessian": [
              119,
              70,
              49,
              55,
              15,
              13,
              36,
              5,
              10,
              10,
              3,
              12,
              24
            ],
            "tree_param": {
              "num_deleted": "0",
              "num_feature": "37",
              "num_nodes": "13",
              "size_leaf_vector": "1"
            }
          },
          {
            "base_weights": [
              0.0038708672,
              0.05028949,
              -0.07154122,
              0.081318036,
              -0.08002114,
              -0.116667114,
              0.0017579809,
              0.0014990472,
              0.006370611,
              0,
              -0.009835034,
              0.0026326221,
              -0.008374169
            ],
            "categories": [],
            "categories_nodes": [],
            "categories_segments": [],
            "categories_sizes": [],
            "default_left": [
              0,
              0,
              0,
              0,
              0,
              0,
              0,
              0,
              0,
              0,
              0,
              0,
              0
            ],
            "id": 6,
            "left_children": [
              1,
              3,
              5,
              7,
              9,
              11,
              -1,
              -1,
              -1,
              -1,
              -1,
              -1,
              -1
            ],
            "loss_changes": [
              0.40550563,
              0.3124816,
              0.23154914,
              0.10759464,
              0.14249957,
              0.3159369,
              0,
              0,
              0,
              0,
              0,
              0,
              0
            ],
            "parents": [
              2147483647,
              0,
              0,
              1,
              1,
              2,
              2,
              3,
              3,
              4,
              4,
              5,
              5
            ],
            "right_children": [
              2,
              4,
              6,
              8,
              10,
              12,
              -1,
              -1,
              -1,
              -1,
              -1,
              -1,
              -1
            ],
            "split_conditions": [
              6961,
              28,
              0.009852217,
              1160,
              140,
              0.0002972677,
              0.0017579809,
              0.0014990472,
              0.006370611,
              0,
              -0.009835034,
              0.0026326221,
              -0.008374169
            ],
            "split_indices": [
              2,
              9,
              34,
              2,
              0,
              34,
              0,
              0,
              0,
              0,
              0,
              0,
              0
            ],
            "split_type": [
              0,
              0,
              0,
              0,
              0,
              0,
              0,
              0,
              0,
              0,
              0,
              0,
              0
            ],
            "sum_hessian": [
              113,
              72,
              41,
              60,
              12,
              30,
              11,
              32,
              28,
              8,
              4,
              6,
              24
            ],
            "tree_param": {
              "num_deleted": "0",
              "num_feature": "37",
              "num_nodes": "13",
              "size_leaf_vector": "1"
            }
          },
          {
            "base_weights": [
              -0.004977742,
              0.0023025076,
              -0.028052894,
              -0.13605496,
              0.0005208043,
              -0.01305449,
              -0.0006677959,
              -0.0013372834,
              0.003850293
            ],
            "categories": [],
            "categories_nodes": [],
            "categories_segments": [],
            "categories_sizes": [],
            "default_left": [
              0,
              0,
              0,
              0,
              0,
              0,
              0,
              0,
              0
            ],
            "id": 7,
            "left_children": [
              1,
              -1,
              3,
              5,
              7,
              -1,
              -1,
              -1,
              -1
            ],
            "loss_changes": [
              0.12732916,
              0,
              0.27104402,
              0.21428645,
              0.14555627,
              0,
              0,
              0,
              0
            ],
            "parents": [
              2147483647,
              0,
              0,
              2,
              2,
              3,
              3,
              4,
              4
            ],
            "right_children": [
              2,
              -1,
              4,
              6,
              8,
              -1,
              -1,
              -1,
              -1
            ],
            "split_conditions": [
              1.9459101,
              0.0023025076,
              3.295837,
              1067,
              11.419881,
              -0.01305449,
              -0.0006677959,
              -0.0013372834,
              0.003850293
            ],
            "split_indices": [
              26,
              0,
              26,
              8,
              27,
              0,
              0,
              0,
              0
            ],
            "split_type": [
              0,
              0,
              0,
              0,
              0,
              0,
              0,
              0,
              0
            ],
            "sum_hessian": [
              107,
              30,
              77,
              16,
              61,
              6,
              10,
              44,
              17
            ],
            "tree_param": {
              "num_deleted": "0",
              "num_feature": "37",
              "num_nodes": "9",
              "size_leaf_vector": "1"
            }
          },
          {
            "base_weights": [
              -0.013997188,
              0.0028337676,
              -0.03895797,
              -0.14485915,
              -0.005212338,
              -0.010567636,
              0,
              -0.002361524,
              0.0026001122
            ],
            "categories": [],
            "categories_nodes": [],
            "categories_segments": [],
            "categories_sizes": [],
            "default_left": [
              0,
              0,
              0,
              0,
              0,
              0,
              0,
              0,
              0
            ],
            "id": 8,
            "left_children": [
              1,
              -1,
              3,
              5,
              7,
              -1,
              -1,
              -1,
              -1
            ],
            "loss_changes": [
              0.20550126,
              0,
              0.28653505,
              0.16102624,
              0.17464541,
              0,
              0,
              0,
              0
            ],
            "parents": [
              2147483647,
              0,
              0,
              2,
              2,
              3,
              3,
              4,
              4
            ],
            "right_children": [
              2,
              -1,
              4,
              6,
              8,
              -1,
              -1,
              -1,
              -1
            ],
            "split_conditions": [
              6,
              0.0028337676,
              29,
              1,
              637,
              -0.010567636,
              0,
              -0.002361524,
              0.0026001122
            ],
            "split_indices": [
              7,
              0,
              7,
              30,
              4,
              0,
              0,
              0,
              0
            ],
            "split_type": [
              0,
              0,
              0,
              0,
              0,
              0,
              0,
              0,
              0
            ],
            "sum_hessian": [
              114,
              27,
              87,
              18,
              69,
              11,
              7,
              42,
              27
            ],
            "tree_param": {
              "num_deleted": "0",
              "num_feature": "37",
              "num_nodes": "9",
              "size_leaf_vector": "1"
            }
          },
          {
            "base_weights": [
              -0.017160174,
              0.017409313,
              -0.07637369,
              0.0031589542,
              -0.111206226,
              -0.15787224,
              -0.0055623157,
              0,
              -0.012674794,
              0.0033777975,
              -0.010868308,
              0.0048829312,
              -0.004243468
            ],
            "categories": [],
            "categories_nodes": [],
            "categories_segments": [],
            "categories_sizes": [],
            "default_left": [
              0,
              0,
              0,
              0,
              0,
              0,
              0,
              0,
              0,
              0,
              0,
              0,
              0
            ],
            "id": 9,
            "left_children": [
              1,
              3,
              5,
              -1,
              7,
              9,
              11,
              -1,
              -1,
              -1,
              -1,
              -1,
              -1
            ],
            "loss_changes": [
              0.25599587,
              0.44006243,
              0.23102391,
              0,
              0.3433717,
              0.32756293,
              0.24323072,
              0,
              0,
              0,
              0,
              0,
              0
            ],
            "parents": [
              2147483647,
              0,
              0,
              1,
              1,
              2,
              2,
              4,
              4,
              5,
              5,
              6,
              6
            ],
            "right_children": [
              2,
              4,
              6,
              -1,
              8,
              10,
              12,
              -1,
              -1,
              -1,
              -1,
              -1,
              -1
            ],
            "split_conditions": [
              8.747988,
              26,
              1435,
              0.0031589542,
              1029,
              289,
              1987,
              0,
              -0.012674794,
              0.0033777975,
              -0.010868308,
              0.0048829312,
              -0.004243468
            ],
            "split_indices": [
              22,
              9,
              8,
              0,
              8,
              0,
              8,
              0,
              0,
              0,
              0,
              0,
              0
            ],
            "split_type": [
              0,
              0,
              0,
              0,
              0,
              0,
              0,
              0,
              0,
              0,
              0,
              0,
              0
            ],
            "sum_hessian": [
              116,
              72,
              44,
              55,
              17,
              18,
              26,
              10,
              7,
              3,
              15,
              10,
              16
            ],
            "tree_param": {
              "num_deleted": "0",
              "num_feature": "37",
              "num_nodes": "13",
              "size_leaf_vector": "1"
            }
          },
          {
            "base_weights": [
              -0.012171491,
              0.031221343,
              -0.074434526,
              0.05703982,
              -0.04146074,
              0.0063274684,
              -0.10480991,
              0.0008770916,
              0.005819101,
              -0.009801045,
              0.0008208289,
              -0.008008081,
              0.0026734746
            ],
            "categories": [],
            "categories_nodes": [],
            "categories_segments": [],
            "categories_sizes": [],
            "default_left": [
              0,
              0,
              0,
              0,
              0,
              0,
              0,
              0,
              0,
              0,
              0,
              0,
              0
            ],
            "id": 10,
            "left_children": [
              1,
              3,
              5,
              7,
              9,
              -1,
              11,
              -1,
              -1,
              -1,
              -1,
              -1,
              -1
            ],
            "loss_changes": [
              0.3456082,
              0.14295657,
              0.3457424,
              0.10039039,
              0.20337635,
              0,
              0.4589954,
              0,
              0,
              0,
              0,
              0,
              0
            ],
            "parents": [
              2147483647,
              0,
              0,
              1,
              1,
              2,
              2,
              3,
              3,
              4,
              4,
              6,
              6
            ],
            "right_children": [
              2,
              4,
              6,
              8,
              10,
              -1,
              12,
              -1,
              -1,
              -1,
              -1,
              -1,
              -1
            ],
            "split_conditions": [
              9.178572,
              0.024234693,
              6,
              1160,
              1,
              0.0063274684,
              88,
              0.0008770916,
              0.005819101,
              -0.009801045,
              0.0008208289,
              -0.008008081,
              0.0026734746
            ],
            "split_indices": [
              28,
              34,
              7,
              2,
              30,
              0,
              7,
              0,
              0,
              0,
              0,
              0,
              0
            ],
            "split_type": [
              0,
              0,
              0,
              0,
              0,
              0,
              0,
              0,
              0,
              0,
              0,
              0,
              0
            ],
            "sum_hessian": [
              121,
              70,
              51,
              54,
              16,
              5,
              46,
              36,
              18,
              4,
              12,
              35,
              11
            ],
            "tree_param": {
              "num_deleted": "0",
              "num_feature": "37",
              "num_nodes": "13",
              "size_leaf_vector": "1"
            }
          },
          {
            "base_weights": [
              0.0068655605,
              0.046216406,
              -0.043592654,
              0,
              0.089284696,
              0.041228738,
              -0.111237794,
              0.005976125,
              0,
              -0.0031520498,
              0.0065238974,
              -0.009257545,
              -0.00045798306
            ],
            "categories": [],
            "categories_nodes": [],
            "categories_segments": [],
            "categories_sizes": [],
            "default_left": [
              0,
              0,
              0,
              0,
              0,
              0,
              0,
              0,
              0,
              0,
              0,
              0,
              0
            ],
            "id": 11,
            "left_children": [
              1,
              3,
              5,
              -1,
              7,
              9,
              11,
              -1,
              -1,
              -1,
              -1,
              -1,
              -1
            ],
            "loss_changes": [
              0.22296724,
              0.14017433,
              0.29284868,
              0,
              0.10670045,
              0.22536413,
              0.16900355,
              0,
              0,
              0,
              0,
              0,
              0
            ],
            "parents": [
              2147483647,
              0,
              0,
              1,
              1,
              2,
              2,
              4,
              4,
              5,
              5,
              6,
              6
            ],
            "right_children": [
              2,
              4,
              6,
              -1,
              8,
              10,
              12,
              -1,
              -1,
              -1,
              -1,
              -1,
              -1
            ],
            "split_conditions": [
              9.178572,
              6.082219,
              5.7071104,
              0,
              97,
              10.661134,
              1,
              0.005976125,
              0,
              -0.0031520498,
              0.0065238974,
              -0.009257545,
              -0.00045798306
            ],
            "split_indices": [
              28,
              24,
              24,
              0,
              7,
              27,
              33,
              0,
              0,
              0,
              0,
              0,
              0
            ],
            "split_type": [
              0,
              0,
              0,
              0,
              0,
              0,
              0,
              0,
              0,
              0,
              0,
              0,
              0
            ],
            "sum_hessian": [
              108,
              63,
              45,
              30,
              33,
              19,
              26,
              25,
              8,
              8,
              11,
              13,
              13
            ],
            "tree_param": {
              "num_deleted": "0",
              "num_feature": "37",
              "num_nodes": "13",
              "size_leaf_vector": "1"
            }
          },
          {
            "base_weights": [
              0.0023863309,
              0.06746483,
              -0.018558567,
              0.00044434253,
              0.007103275,
              0.022839433,
              -0.09738884,
              -0.001027093,
              0.00487251,
              -0.008370648,
              0.00011362812
            ],
            "categories": [],
            "categories_nodes": [],
            "categories_segments": [],
            "categories_sizes": [],
            "default_left": [
              0,
              0,
              0,
              0,
              0,
              0,
              0,
              0,
              0,
              0,
              0
            ],
            "id": 12,
            "left_children": [
              1,
              3,
              5,
              -1,
              -1,
              7,
              9,
              -1,
              -1,
              -1,
              -1
            ],
            "loss_changes": [
              0.17040062,
              0.10275313,
              0.3032757,
              0,
              0,
              0.20387785,
              0.25710738,
              0,
              0,
              0,
              0
            ],
            "parents": [
              2147483647,
              0,
              0,
              1,
              1,
              2,
              2,
              5,
              5,
              6,
              6
            ],
            "right_children": [
              2,
              4,
              6,
              -1,
              -1,
              8,
              10,
              -1,
              -1,
              -1,
              -1
            ],
            "split_conditions": [
              0.0002972677,
              282,
              8546,
              0.00044434253,
              0.007103275,
              602,
              4.4886365,
              -0.001027093,
              0.00487251,
              -0.008370648,
              0.00011362812
            ],
            "split_indices": [
              34,
              8,
              2,
              0,
              0,
              4,
              26,
              0,
              0,
              0,
              0
            ],
            "split_type": [
              0,
              0,
              0,
              0,
              0,
              0,
              0,
              0,
              0,
              0,
              0
            ],
            "sum_hessian": [
              114,
              29,
              85,
              19,
              10,
              55,
              30,
              34,
              21,
              18,
              12
            ],
            "tree_param": {
              "num_deleted": "0",
              "num_feature": "37",
              "num_nodes": "11",
              "size_leaf_vector": "1"
            }
          },
          {
            "base_weights": [
              0.002507094,
              0.03791444,
              -0.04359111,
              0.0031654716,
              -0.05479614,
              -0.14235273,
              0.013300919,
              -0.007977547,
              0.0008317255,
              0,
              -0.011258612,
              0.0065799505,
              -0.0005939703
            ],
            "categories": [],
            "categories_nodes": [],
            "categories_segments": [],
            "categories_sizes": [],
            "default_left": [
              0,
              0,
              0,
              0,
              0,
              0,
              0,
              0,
              0,
              0,
              0,
              0,
              0
            ],
            "id": 13,
            "left_children": [
              1,
              3,
              5,
              -1,
              7,
              9,
              11,
              -1,
              -1,
              -1,
              -1,
              -1,
              -1
            ],
            "loss_changes": [
              0.18824266,
              0.16873899,
              0.29929712,
              0,
              0.13864921,
              0.22340879,
              0.11941287,
              0,
              0,
              0,
              0,
              0,
              0
            ],
            "parents": [
              2147483647,
              0,
              0,
              1,
              1,
              2,
              2,
              4,
              4,
              5,
              5,
              6,
              6
            ],
            "right_children": [
              2,
              4,
              6,
              -1,
              8,
              10,
              12,
              -1,
              -1,
              -1,
              -1,
              -1,
              -1
            ],
            "split_conditions": [
              6769,
              26,
              9769,
              0.0031654716,
              1,
              1,
              10700,
              -0.007977547,
              0.0008317255,
              0,
              -0.011258612,
              0.0065799505,
              -0.0005939703
            ],
            "split_indices": [
              2,
              9,
              2,
              0,
              1,
              1,
              2,
              0,
              0,
              0,
              0,
              0,
              0
            ],
            "split_type": [
              0,
              0,
              0,
              0,
              0,
              0,
              0,
              0,
              0,
              0,
              0,
              0,
              0
            ],
            "sum_hessian": [
              112,
              66,
              46,
              54,
              12,
              17,
              29,
              5,
              7,
              7,
              10,
              5,
              24
            ],
            "tree_param": {
              "num_deleted": "0",
              "num_feature": "37",
              "num_nodes": "13",
              "size_leaf_vector": "1"
            }
          },
          {
            "base_weights": [
              -0.009914411,
              0.02315436,
              -0.0601576,
              0.054517712,
              -0.10495204,
              0.069865786,
              -0.09790615,
              0.00044669016,
              0.0055008554,
              0,
              -0.009334664,
              -0.0015312503,
              0.0070103044,
              0.00018512229,
              -0.008029779
            ],
            "categories": [],
            "categories_nodes": [],
            "categories_segments": [],
            "categories_sizes": [],
            "default_left": [
              0,
              0,
              0,
              0,
              0,
              0,
              0,
              0,
              0,
              0,
              0,
              0,
              0,
              0,
              0
            ],
            "id": 14,
            "left_children": [
              1,
              3,
              5,
              7,
              9,
              11,
              13,
              -1,
              -1,
              -1,
              -1,
              -1,
              -1,
              -1,
              -1
            ],
            "loss_changes": [
              0.20291822,
              0.27858803,
              0.25979018,
              0.120977074,
              0.10078655,
              0.10825792,
              0.2873593,
              0,
              0,
              0,
              0,
              0,
              0,
              0,
              0
            ],
            "parents": [
              2147483647,
              0,
              0,
              1,
              1,
              2,
              2,
              3,
              3,
              4,
              4,
              5,
              5,
              6,
              6
            ],
            "right_children": [
              2,
              4,
              6,
              8,
              10,
              12,
              14,
              -1,
              -1,
              -1,
              -1,
              -1,
              -1,
              -1,
              -1
            ],
            "split_conditions": [
              9.178572,
              27,
              2.8332133,
              5.7807436,
              757,
              858,
              5.480639,
              0.00044669016,
              0.0055008554,
              0,
              -0.009334664,
              -0.0015312503,
              0.0070103044,
              0.00018512229,
              -0.008029779
            ],
            "split_indices": [
              28,
              9,
              26,
              23,
              2,
              8,
              24,
              0,
              0,
              0,
              0,
              0,
              0,
              0,
              0
            ],
            "split_type": [
              0,
              0,
              0,
              0,
              0,
              0,
              0,
              0,
              0,
              0,
              0,
              0,
              0,
              0,
              0
            ],
            "sum_hessian": [
              114,
              67,
              47,
              56,
              11,
              9,
              38,
              34,
              22,
              6,
              5,
              3,
              6,
              14,
              24
            ],
            "tree_param": {
              "num_deleted": "0",
              "num_feature": "37",
              "num_nodes": "15",
              "size_leaf_vector": "1"
            }
          },
          {
            "base_weights": [
              0,
              0.02535526,
              -0.04690522,
              0.061078053,
              -0.11710935,
              -0.15701815,
              0,
              0.0011258068,
              0.006418498,
              0,
              -0.009924775,
              -0.010829184,
              0
            ],
            "categories": [],
            "categories_nodes": [],
            "categories_segments": [],
            "categories_sizes": [],
            "default_left": [
              0,
              0,
              0,
              0,
              0,
              0,
              0,
              0,
              0,
              0,
              0,
              0,
              0
            ],
            "id": 15,
            "left_children": [
              1,
              3,
              5,
              7,
              9,
              11,
              -1,
              -1,
              -1,
              -1,
              -1,
              -1,
              -1
            ],
            "loss_changes": [
              0.13750646,
              0.3949704,
              0.23250714,
              0.13011593,
              0.14888515,
              0.10166532,
              0,
              0,
              0,
              0,
              0,
              0,
              0
            ],
            "parents": [
              2147483647,
              0,
              0,
              1,
              1,
              2,
              2,
              3,
              3,
              4,
              4,
              5,
              5
            ],
            "right_children": [
              2,
              4,
              6,
              8,
              10,
              12,
              -1,
              -1,
              -1,
              -1,
              -1,
              -1,
              -1
            ],
            "split_conditions": [
              8546,
              26,
              9769,
              1308,
              0.011931394,
              15,
              0,
              0.0011258068,
              0.006418498,
              0,
              -0.009924775,
              -0.010829184,
              0
            ],
            "split_indices": [
              2,
              9,
              2,
              8,
              34,
              9,
              0,
              0,
              0,
              0,
              0,
              0,
              0
            ],
            "split_type": [
              0,
              0,
              0,
              0,
              0,
              0,
              0,
              0,
              0,
              0,
              0,
              0,
              0
            ],
            "sum_hessian": [
              113,
              75,
              38,
              62,
              13,
              11,
              27,
              43,
              19,
              6,
              7,
              7,
              4
            ],
            "tree_param": {
              "num_deleted": "0",
              "num_feature": "37",
              "num_nodes": "13",
              "size_leaf_vector": "1"
            }
          },
          {
            "base_weights": [
              0,
              0.00080163917,
              -0.08537984,
              0.004421556,
              -0.14954378,
              0.0004932268,
              -0.011764
            ],
            "categories": [],
            "categories_nodes": [],
            "categories_segments": [],
            "categories_sizes": [],
            "default_left": [
              0,
              0,
              0,
              0,
              0,
              0,
              0
            ],
            "id": 16,
            "left_children": [
              1,
              -1,
              3,
              -1,
              5,
              -1,
              -1
            ],
            "loss_changes": [
              0.14731675,
              0,
              0.2282619,
              0,
              0.24106386,
              0,
              0
            ],
            "parents": [
              2147483647,
              0,
              0,
              2,
              2,
              4,
              4
            ],
            "right_children": [
              2,
              -1,
              4,
              -1,
              6,
              -1,
              -1
            ],
            "split_conditions": [
              16.659721,
              0.00080163917,
              164,
              0.004421556,
              208,
              0.0004932268,
              -0.011764
            ],
            "split_indices": [
              27,
              0,
              0,
              0,
              4,
              0,
              0
            ],
            "split_type": [
              0,
              0,
              0,
              0,
              0,
              0,
              0
            ],
            "sum_hessian": [
              104,
              89,
              15,
              3,
              12,
              4,
              8
            ],
            "tree_param": {
              "num_deleted": "0",
              "num_feature": "37",
              "num_nodes": "7",
              "size_leaf_vector": "1"
            }
          },
          {
            "base_weights": [
              0.0076127686
            ],
            "categories": [],
            "categories_nodes": [],
            "categories_segments": [],
            "categories_sizes": [],
            "default_left": [
              0
            ],
            "id": 17,
            "left_children": [
              -1
            ],
            "loss_changes": [
              0
            ],
            "parents": [
              2147483647
            ],
            "right_children": [
              -1
            ],
            "split_conditions": [
              0.00038063843
            ],
            "split_indices": [
              0
            ],
            "split_type": [
              0
            ],
            "sum_hessian": [
              111
            ],
            "tree_param": {
              "num_deleted": "0",
              "num_feature": "37",
              "num_nodes": "1",
              "size_leaf_vector": "1"
            }
          },
          {
            "base_weights": [
              0.0018138711,
              0.039864402,
              -0.05425806,
              0.0032842827,
              -0.0025119137,
              0.0049654054,
              -0.08416696,
              -0.0066763493,
              0.0016240452
            ],
            "categories": [],
            "categories_nodes": [],
            "categories_segments": [],
            "categories_sizes": [],
            "default_left": [
              0,
              0,
              0,
              0,
              0,
              0,
              0,
              0,
              0
            ],
            "id": 18,
            "left_children": [
              1,
              3,
              5,
              -1,
              -1,
              -1,
              7,
              -1,
              -1
            ],
            "loss_changes": [
              0.24040668,
              0.1725488,
              0.2157805,
              0,
              0,
              0,
              0.25343522,
              0,
              0
            ],
            "parents": [
              2147483647,
              0,
              0,
              1,
              1,
              2,
              2,
              6,
              6
            ],
            "right_children": [
              2,
              4,
              6,
              -1,
              -1,
              -1,
              8,
              -1,
              -1
            ],
            "split_conditions": [
              6961,
              26,
              0.0002972677,
              0.0032842827,
              -0.0025119137,
              0.0049654054,
              0.0099689495,
              -0.0066763493,
              0.0016240452
            ],
            "split_indices": [
              2,
              9,
              34,
              0,
              0,
              0,
              34,
              0,
              0
            ],
            "split_type": [
              0,
              0,
              0,
              0,
              0,
              0,
              0,
              0,
              0
            ],
            "sum_hessian": [
              110,
              68,
              42,
              55,
              13,
              5,
              37,
              27,
              10
            ],
            "tree_param": {
              "num_deleted": "0",
              "num_feature": "37",
              "num_nodes": "9",
              "size_leaf_vector": "1"
            }
          },
          {
            "base_weights": [
              0.001210746
            ],
            "categories": [],
            "categories_nodes": [],
            "categories_segments": [],
            "categories_sizes": [],
            "default_left": [
              0
            ],
            "id": 19,
            "left_children": [
              -1
            ],
            "loss_changes": [
              0
            ],
            "parents": [
              2147483647
            ],
            "right_children": [
              -1
            ],
            "split_conditions": [
              0.000060537302
            ],
            "split_indices": [
              0
            ],
            "split_type": [
              0
            ],
            "sum_hessian": [
              109
            ],
            "tree_param": {
              "num_deleted": "0",
              "num_feature": "37",
              "num_nodes": "1",
              "size_leaf_vector": "1"
            }
          },
          {
            "base_weights": [
              -0.007997865,
              0.0070178043,
              -0.11240758,
              -0.016459467,
              0.05875138,
              0.0018559892,
              -0.010265272,
              0.00017661462,
              -0.0046562366,
              0.0073901764,
              0.000049801078
            ],
            "categories": [],
            "categories_nodes": [],
            "categories_segments": [],
            "categories_sizes": [],
            "default_left": [
              0,
              0,
              0,
              0,
              0,
              0,
              0,
              0,
              0,
              0,
              0
            ],
            "id": 20,
            "left_children": [
              1,
              3,
              5,
              7,
              9,
              -1,
              -1,
              -1,
              -1,
              -1,
              -1
            ],
            "loss_changes": [
              0.199815,
              0.13063416,
              0.27113128,
              0.1212655,
              0.1448158,
              0,
              0,
              0,
              0,
              0,
              0
            ],
            "parents": [
              2147483647,
              0,
              0,
              1,
              1,
              2,
              2,
              3,
              3,
              4,
              4
            ],
            "right_children": [
              2,
              4,
              6,
              8,
              10,
              -1,
              -1,
              -1,
              -1,
              -1,
              -1
            ],
            "split_conditions": [
              32.879726,
              659,
              0.00029305462,
              433,
              773,
              0.0018559892,
              -0.010265272,
              0.00017661462,
              -0.0046562366,
              0.0073901764,
              0.000049801078
            ],
            "split_indices": [
              28,
              0,
              34,
              0,
              0,
              0,
              0,
              0,
              0,
              0,
              0
            ],
            "split_type": [
              0,
              0,
              0,
              0,
              0,
              0,
              0,
              0,
              0,
              0,
              0
            ],
            "sum_hessian": [
              111,
              97,
              14,
              65,
              32,
              5,
              9,
              51,
              14,
              10,
              22
            ],
            "tree_param": {
              "num_deleted": "0",
              "num_feature": "37",
              "num_nodes": "11",
              "size_leaf_vector": "1"
            }
          },
          {
            "base_weights": [
              -0.01122307,
              0.00080501783,
              -0.051353343,
              0.044023383,
              -0.09909808,
              -0.003673893,
              0.005605172,
              -0.0069804504,
              0.001111714
            ],
            "categories": [],
            "categories_nodes": [],
            "categories_segments": [],
            "categories_sizes": [],
            "default_left": [
              0,
              0,
              0,
              0,
              0,
              0,
              0,
              0,
              0
            ],
            "id": 21,
            "left_children": [
              1,
              -1,
              3,
              5,
              7,
              -1,
              -1,
              -1,
              -1
            ],
            "loss_changes": [
              0.12931883,
              0,
              0.23831955,
              0.15219122,
              0.19680288,
              0,
              0,
              0,
              0
            ],
            "parents": [
              2147483647,
              0,
              0,
              2,
              2,
              3,
              3,
              4,
              4
            ],
            "right_children": [
              2,
              -1,
              4,
              6,
              8,
              -1,
              -1,
              -1,
              -1
            ],
            "split_conditions": [
              9.178572,
              0.00080501783,
              22,
              1038,
              88,
              -0.003673893,
              0.005605172,
              -0.0069804504,
              0.001111714
            ],
            "split_indices": [
              28,
              0,
              7,
              8,
              7,
              0,
              0,
              0,
              0
            ],
            "split_type": [
              0,
              0,
              0,
              0,
              0,
              0,
              0,
              0,
              0
            ],
            "sum_hessian": [
              108,
              62,
              46,
              14,
              32,
              4,
              10,
              25,
              7
            ],
            "tree_param": {
              "num_deleted": "0",
              "num_feature": "37",
              "num_nodes": "9",
              "size_leaf_vector": "1"
            }
          },
          {
            "base_weights": [
              0.01673847
            ],
            "categories": [],
            "categories_nodes": [],
            "categories_segments": [],
            "categories_sizes": [],
            "default_left": [
              0
            ],
            "id": 22,
            "left_children": [
              -1
            ],
            "loss_changes": [
              0
            ],
            "parents": [
              2147483647
            ],
            "right_children": [
              -1
            ],
            "split_conditions": [
              0.00083692354
            ],
            "split_indices": [
              0
            ],
            "split_type": [
              0
            ],
            "sum_hessian": [
              113
            ],
            "tree_param": {
              "num_deleted": "0",
              "num_feature": "37",
              "num_nodes": "1",
              "size_leaf_vector": "1"
            }
          },
          {
            "base_weights": [
              0.005097054
            ],
            "categories": [],
            "categories_nodes": [],
            "categories_segments": [],
            "categories_sizes": [],
            "default_left": [
              0
            ],
            "id": 23,
            "left_children": [
              -1
            ],
            "loss_changes": [
              0
            ],
            "parents": [
              2147483647
            ],
            "right_children": [
              -1
            ],
            "split_conditions": [
              0.0002548527
            ],
            "split_indices": [
              0
            ],
            "split_type": [
              0
            ],
            "sum_hessian": [
              114
            ],
            "tree_param": {
              "num_deleted": "0",
              "num_feature": "37",
              "num_nodes": "1",
              "size_leaf_vector": "1"
            }
          },
          {
            "base_weights": [
              -0.0022495713,
              0.02076557,
              -0.042906817,
              0.053763933,
              -0.078613214,
              0,
              -0.124395534,
              0.0005143715,
              0.006049645,
              -0.00821807,
              0.0016971916,
              -0.0037348324,
              0.003843647,
              -0.009923388,
              0
            ],
            "categories": [],
            "categories_nodes": [],
            "categories_segments": [],
            "categories_sizes": [],
            "default_left": [
              0,
              0,
              0,
              0,
              0,
              0,
              0,
              0,
              0,
              0,
              0,
              0,
              0,
              0,
              0
            ],
            "id": 24,
            "left_children": [
              1,
              3,
              5,
              7,
              9,
              11,
              13,
              -1,
              -1,
              -1,
              -1,
              -1,
              -1,
              -1,
              -1
            ],
            "loss_changes": [
              0.112883694,
              0.23631617,
              0.13379474,
              0.13493581,
              0.20131817,
              0.20056336,
              0.13786559,
              0,
              0,
              0,
              0,
              0,
              0,
              0,
              0
            ],
            "parents": [
              2147483647,
              0,
              0,
              1,
              1,
              2,
              2,
              3,
              3,
              4,
              4,
              5,
              5,
              6,
              6
            ],
            "right_children": [
              2,
              4,
              6,
              8,
              10,
              12,
              14,
              -1,
              -1,
              -1,
              -1,
              -1,
              -1,
              -1,
              -1
            ],
            "split_conditions": [
              6961,
              26,
              16.227932,
              15,
              698,
              9.970233,
              32.893444,
              0.0005143715,
              0.006049645,
              -0.00821807,
              0.0016971916,
              -0.0037348324,
              0.003843647,
              -0.009923388,
              0
            ],
            "split_indices": [
              2,
              9,
              27,
              9,
              4,
              27,
              27,
              0,
              0,
              0,
              0,
              0,
              0,
              0,
              0
            ],
            "split_type": [
              0,
              0,
              0,
              0,
              0,
              0,
              0,
              0,
              0,
              0,
              0,
              0,
              0,
              0,
              0
            ],
            "sum_hessian": [
              112,
              69,
              43,
              54,
              15,
              31,
              12,
              36,
              18,
              9,
              6,
              17,
              14,
              7,
              5
            ],
            "tree_param": {
              "num_deleted": "0",
              "num_feature": "37",
              "num_nodes": "15",
              "size_leaf_vector": "1"
            }
          },
          {
            "base_weights": [
              0.00076731306
            ],
            "categories": [],
            "categories_nodes": [],
            "categories_segments": [],
            "categories_sizes": [],
            "default_left": [
              0
            ],
            "id": 25,
            "left_children": [
              -1
            ],
            "loss_changes": [
              0
            ],
            "parents": [
              2147483647
            ],
            "right_children": [
              -1
            ],
            "split_conditions": [
              0.000038365655
            ],
            "split_indices": [
              0
            ],
            "split_type": [
              0
            ],
            "sum_hessian": [
              110
            ],
            "tree_param": {
              "num_deleted": "0",
              "num_feature": "37",
              "num_nodes": "1",
              "size_leaf_vector": "1"
            }
          },
          {
            "base_weights": [
              -0.004697467,
              0.0024530056,
              -0.027239121,
              0,
              -0.104269624,
              -0.0010095135,
              0.0064807357,
              0,
              -0.011297034
            ],
            "categories": [],
            "categories_nodes": [],
            "categories_segments": [],
            "categories_sizes": [],
            "default_left": [
              0,
              0,
              0,
              0,
              0,
              0,
              0,
              0,
              0
            ],
            "id": 26,
            "left_children": [
              1,
              -1,
              3,
              5,
              7,
              -1,
              -1,
              -1,
              -1
            ],
            "loss_changes": [
              0.12918127,
              0,
              0.1580855,
              0.15722802,
              0.24199966,
              0,
              0,
              0,
              0
            ],
            "parents": [
              2147483647,
              0,
              0,
              2,
              2,
              3,
              3,
              4,
              4
            ],
            "right_children": [
              2,
              -1,
              4,
              6,
              8,
              -1,
              -1,
              -1,
              -1
            ],
            "split_conditions": [
              0.0002972677,
              0.0024530056,
              24.541529,
              14.525659,
              5.6312118,
              -0.0010095135,
              0.0064807357,
              0,
              -0.011297034
            ],
            "split_indices": [
              34,
              0,
              28,
              28,
              24,
              0,
              0,
              0,
              0
            ],
            "split_type": [
              0,
              0,
              0,
              0,
              0,
              0,
              0,
              0,
              0
            ],
            "sum_hessian": [
              106,
              28,
              78,
              60,
              18,
              54,
              6,
              11,
              7
            ],
            "tree_param": {
              "num_deleted": "0",
              "num_feature": "37",
              "num_nodes": "9",
              "size_leaf_vector": "1"
            }
          },
          {
            "base_weights": [
              0.003977713,
              0.024136802,
              -0.06252595,
              0,
              0.005584518,
              -0.11414241,
              0.00088636123,
              0.0011369665,
              -0.0043049413,
              0,
              -0.0076002823
            ],
            "categories": [],
            "categories_nodes": [],
            "categories_segments": [],
            "categories_sizes": [],
            "default_left": [
              0,
              0,
              0,
              0,
              0,
              0,
              0,
              0,
              0,
              0,
              0
            ],
            "id": 27,
            "left_children": [
              1,
              3,
              5,
              7,
              -1,
              9,
              -1,
              -1,
              -1,
              -1,
              -1
            ],
            "loss_changes": [
              0.14951564,
              0.19589686,
              0.12688953,
              0.14963275,
              0,
              0.10199565,
              0,
              0,
              0,
              0,
              0
            ],
            "parents": [
              2147483647,
              0,
              0,
              1,
              1,
              2,
              2,
              3,
              3,
              5,
              5
            ],
            "right_children": [
              2,
              4,
              6,
              8,
              -1,
              10,
              -1,
              -1,
              -1,
              -1,
              -1
            ],
            "split_conditions": [
              12.734234,
              9.970233,
              32.893444,
              10.133052,
              0.005584518,
              702,
              0.00088636123,
              0.0011369665,
              -0.0043049413,
              0,
              -0.0076002823
            ],
            "split_indices": [
              27,
              27,
              27,
              28,
              0,
              8,
              0,
              0,
              0,
              0,
              0
            ],
            "split_type": [
              0,
              0,
              0,
              0,
              0,
              0,
              0,
              0,
              0,
              0,
              0
            ],
            "sum_hessian": [
              113,
              90,
              23,
              72,
              18,
              15,
              8,
              58,
              14,
              3,
              12
            ],
            "tree_param": {
              "num_deleted": "0",
              "num_feature": "37",
              "num_nodes": "11",
              "size_leaf_vector": "1"
            }
          },
          {
            "base_weights": [
              0.0020639868
            ],
            "categories": [],
            "categories_nodes": [],
            "categories_segments": [],
            "categories_sizes": [],
            "default_left": [
              0
            ],
            "id": 28,
            "left_children": [
              -1
            ],
            "loss_changes": [
              0
            ],
            "parents": [
              2147483647
            ],
            "right_children": [
              -1
            ],
            "split_conditions": [
              0.000103199345
            ],
            "split_indices": [
              0
            ],
            "split_type": [
              0
            ],
            "sum_hessian": [
              111
            ],
            "tree_param": {
              "num_deleted": "0",
              "num_feature": "37",
              "num_nodes": "1",
              "size_leaf_vector": "1"
            }
          },
          {
            "base_weights": [
              0
            ],
            "categories": [],
            "categories_nodes": [],
            "categories_segments": [],
            "categories_sizes": [],
            "default_left": [
              0
            ],
            "id": 29,
            "left_children": [
              -1
            ],
            "loss_changes": [
              0
            ],
            "parents": [
              2147483647
            ],
            "right_children": [
              -1
            ],
            "split_conditions": [
              0
            ],
            "split_indices": [
              0
            ],
            "split_type": [
              0
            ],
            "sum_hessian": [
              118
            ],
            "tree_param": {
              "num_deleted": "0",
              "num_feature": "37",
              "num_nodes": "1",
              "size_leaf_vector": "1"
            }
          },
          {
            "base_weights": [
              0.0065171355,
              0.04736492,
              -0.017071217,
              0,
              0.0061669997,
              0.011364942,
              -0.011727648,
              0.001859319,
              -0.0070504234,
              -0.0076868604,
              0.0017173722
            ],
            "categories": [],
            "categories_nodes": [],
            "categories_segments": [],
            "categories_sizes": [],
            "default_left": [
              0,
              0,
              0,
              0,
              0,
              0,
              0,
              0,
              0,
              0,
              0
            ],
            "id": 30,
            "left_children": [
              1,
              3,
              5,
              7,
              -1,
              9,
              -1,
              -1,
              -1,
              -1,
              -1
            ],
            "loss_changes": [
              0.11655501,
              0.14244947,
              0.48287317,
              0.15663666,
              0,
              0.22573403,
              0,
              0,
              0,
              0,
              0
            ],
            "parents": [
              2147483647,
              0,
              0,
              1,
              1,
              2,
              2,
              3,
              3,
              5,
              5
            ],
            "right_children": [
              2,
              4,
              6,
              8,
              -1,
              10,
              -1,
              -1,
              -1,
              -1,
              -1
            ],
            "split_conditions": [
              5.7071104,
              10.661134,
              22.590061,
              5.521569,
              0.0061669997,
              6.082219,
              -0.011727648,
              0.001859319,
              -0.0070504234,
              -0.0076868604,
              0.0017173722
            ],
            "split_indices": [
              24,
              27,
              28,
              27,
              0,
              24,
              0,
              0,
              0,
              0,
              0
            ],
            "split_type": [
              0,
              0,
              0,
              0,
              0,
              0,
              0,
              0,
              0,
              0,
              0
            ],
            "sum_hessian": [
              111,
              43,
              68,
              29,
              14,
              61,
              7,
              25,
              4,
              5,
              56
            ],
            "tree_param": {
              "num_deleted": "0",
              "num_feature": "37",
              "num_nodes": "11",
              "size_leaf_vector": "1"
            }
          },
          {
            "base_weights": [
              0.0071626
            ],
            "categories": [],
            "categories_nodes": [],
            "categories_segments": [],
            "categories_sizes": [],
            "default_left": [
              0
            ],
            "id": 31,
            "left_children": [
              -1
            ],
            "loss_changes": [
              0
            ],
            "parents": [
              2147483647
            ],
            "right_children": [
              -1
            ],
            "split_conditions": [
              0.00035813
            ],
            "split_indices": [
              0
            ],
            "split_type": [
              0
            ],
            "sum_hessian": [
              116
            ],
            "tree_param": {
              "num_deleted": "0",
              "num_feature": "37",
              "num_nodes": "1",
              "size_leaf_vector": "1"
            }
          },
          {
            "base_weights": [
              0.010647032
            ],
            "categories": [],
            "categories_nodes": [],
            "categories_segments": [],
            "categories_sizes": [],
            "default_left": [
              0
            ],
            "id": 32,
            "left_children": [
              -1
            ],
            "loss_changes": [
              0
            ],
            "parents": [
              2147483647
            ],
            "right_children": [
              -1
            ],
            "split_conditions": [
              0.0005323516
            ],
            "split_indices": [
              0
            ],
            "split_type": [
              0
            ],
            "sum_hessian": [
              111
            ],
            "tree_param": {
              "num_deleted": "0",
              "num_feature": "37",
              "num_nodes": "1",
              "size_leaf_vector": "1"
            }
          },
          {
            "base_weights": [
              -0.008622008,
              0.0058009257,
              -0.115997106,
              -0.008813294,
              0.06684281,
              -0.009429231,
              0,
              0.00039517818,
              -0.006588635,
              -0.0061612595,
              0.006017547
            ],
            "categories": [],
            "categories_nodes": [],
            "categories_segments": [],
            "categories_sizes": [],
            "default_left": [
              0,
              0,
              0,
              0,
              0,
              0,
              0,
              0,
              0,
              0,
              0
            ],
            "id": 33,
            "left_children": [
              1,
              3,
              5,
              7,
              9,
              -1,
              -1,
              -1,
              -1,
              -1,
              -1
            ],
            "loss_changes": [
              0.19683538,
              0.1011,
              0.15381171,
              0.18924089,
              0.25282973,
              0,
              0,
              0,
              0,
              0,
              0
            ],
            "parents": [
              2147483647,
              0,
              0,
              1,
              1,
              2,
              2,
              3,
              3,
              4,
              4
            ],
            "right_children": [
              2,
              4,
              6,
              8,
              10,
              -1,
              -1,
              -1,
              -1,
              -1,
              -1
            ],
            "split_conditions": [
              16.659721,
              10.661134,
              14,
              21.985106,
              5.7807436,
              -0.009429231,
              0,
              0.00039517818,
              -0.006588635,
              -0.0061612595,
              0.006017547
            ],
            "split_indices": [
              27,
              27,
              9,
              28,
              23,
              0,
              0,
              0,
              0,
              0,
              0
            ],
            "split_type": [
              0,
              0,
              0,
              0,
              0,
              0,
              0,
              0,
              0,
              0,
              0
            ],
            "sum_hessian": [
              110,
              97,
              13,
              77,
              20,
              8,
              5,
              68,
              9,
              3,
              17
            ],
            "tree_param": {
              "num_deleted": "0",
              "num_feature": "37",
              "num_nodes": "11",
              "size_leaf_vector": "1"
            }
          },
          {
            "base_weights": [
              0.0016808986
            ],
            "categories": [],
            "categories_nodes": [],
            "categories_segments": [],
            "categories_sizes": [],
            "default_left": [
              0
            ],
            "id": 34,
            "left_children": [
              -1
            ],
            "loss_changes": [
              0
            ],
            "parents": [
              2147483647
            ],
            "right_children": [
              -1
            ],
            "split_conditions": [
              0.00008404493
            ],
            "split_indices": [
              0
            ],
            "split_type": [
              0
            ],
            "sum_hessian": [
              114
            ],
            "tree_param": {
              "num_deleted": "0",
              "num_feature": "37",
              "num_nodes": "1",
              "size_leaf_vector": "1"
            }
          },
          {
            "base_weights": [
              0
            ],
            "categories": [],
            "categories_nodes": [],
            "categories_segments": [],
            "categories_sizes": [],
            "default_left": [
              0
            ],
            "id": 35,
            "left_children": [
              -1
            ],
            "loss_changes": [
              0
            ],
            "parents": [
              2147483647
            ],
            "right_children": [
              -1
            ],
            "split_conditions": [
              0
            ],
            "split_indices": [
              0
            ],
            "split_type": [
              0
            ],
            "sum_hessian": [
              110
            ],
            "tree_param": {
              "num_deleted": "0",
              "num_feature": "37",
              "num_nodes": "1",
              "size_leaf_vector": "1"
            }
          },
          {
            "base_weights": [
              -0.0019082051
            ],
            "categories": [],
            "categories_nodes": [],
            "categories_segments": [],
            "categories_sizes": [],
            "default_left": [
              0
            ],
            "id": 36,
            "left_children": [
              -1
            ],
            "loss_changes": [
              0
            ],
            "parents": [
              2147483647
            ],
            "right_children": [
              -1
            ],
            "split_conditions": [
              -0.00009541026
            ],
            "split_indices": [
              0
            ],
            "split_type": [
              0
            ],
            "sum_hessian": [
              110
            ],
            "tree_param": {
              "num_deleted": "0",
              "num_feature": "37",
              "num_nodes": "1",
              "size_leaf_vector": "1"
            }
          },
          {
            "base_weights": [
              0.013408482
            ],
            "categories": [],
            "categories_nodes": [],
            "categories_segments": [],
            "categories_sizes": [],
            "default_left": [
              0
            ],
            "id": 37,
            "left_children": [
              -1
            ],
            "loss_changes": [
              0
            ],
            "parents": [
              2147483647
            ],
            "right_children": [
              -1
            ],
            "split_conditions": [
              0.00067042414
            ],
            "split_indices": [
              0
            ],
            "split_type": [
              0
            ],
            "sum_hessian": [
              107
            ],
            "tree_param": {
              "num_deleted": "0",
              "num_feature": "37",
              "num_nodes": "1",
              "size_leaf_vector": "1"
            }
          },
          {
            "base_weights": [
              0
            ],
            "categories": [],
            "categories_nodes": [],
            "categories_segments": [],
            "categories_sizes": [],
            "default_left": [
              0
            ],
            "id": 38,
            "left_children": [
              -1
            ],
            "loss_changes": [
              0
            ],
            "parents": [
              2147483647
            ],
            "right_children": [
              -1
            ],
            "split_conditions": [
              0
            ],
            "split_indices": [
              0
            ],
            "split_type": [
              0
            ],
            "sum_hessian": [
              114
            ],
            "tree_param": {
              "num_deleted": "0",
              "num_feature": "37",
              "num_nodes": "1",
              "size_leaf_vector": "1"
            }
          },
          {
            "base_weights": [
              0,
              -0.007766437,
              0.006152897,
              0.018716507,
              -0.050479516,
              0.0021561962,
              -0.003016384,
              0.0012268225,
              -0.005346836
            ],
            "categories": [],
            "categories_nodes": [],
            "categories_segments": [],
            "categories_sizes": [],
            "default_left": [
              0,
              0,
              0,
              0,
              0,
              0,
              0,
              0,
              0
            ],
            "id": 39,
            "left_children": [
              1,
              3,
              -1,
              5,
              7,
              -1,
              -1,
              -1,
              -1
            ],
            "loss_changes": [
              0.12753971,
              0.12814602,
              0,
              0.12523529,
              0.20807613,
              0,
              0,
              0,
              0
            ],
            "parents": [
              2147483647,
              0,
              0,
              1,
              1,
              3,
              3,
              4,
              4
            ],
            "right_children": [
              2,
              4,
              -1,
              6,
              8,
              -1,
              -1,
              -1,
              -1
            ],
            "split_conditions": [
              105157,
              9.178572,
              0.006152897,
              27,
              300,
              0.0021561962,
              -0.003016384,
              0.0012268225,
              -0.005346836
            ],
            "split_indices": [
              2,
              28,
              0,
              9,
              4,
              0,
              0,
              0,
              0
            ],
            "split_type": [
              0,
              0,
              0,
              0,
              0,
              0,
              0,
              0,
              0
            ],
            "sum_hessian": [
              110,
              104,
              6,
              62,
              42,
              50,
              12,
              17,
              25
            ],
            "tree_param": {
              "num_deleted": "0",
              "num_feature": "37",
              "num_nodes": "9",
              "size_leaf_vector": "1"
            }
          },
          {
            "base_weights": [
              -0.0037105326
            ],
            "categories": [],
            "categories_nodes": [],
            "categories_segments": [],
            "categories_sizes": [],
            "default_left": [
              0
            ],
            "id": 40,
            "left_children": [
              -1
            ],
            "loss_changes": [
              0
            ],
            "parents": [
              2147483647
            ],
            "right_children": [
              -1
            ],
            "split_conditions": [
              -0.00018552663
            ],
            "split_indices": [
              0
            ],
            "split_type": [
              0
            ],
            "sum_hessian": [
              113
            ],
            "tree_param": {
              "num_deleted": "0",
              "num_feature": "37",
              "num_nodes": "1",
              "size_leaf_vector": "1"
            }
          },
          {
            "base_weights": [
              0.009339498
            ],
            "categories": [],
            "categories_nodes": [],
            "categories_segments": [],
            "categories_sizes": [],
            "default_left": [
              0
            ],
            "id": 41,
            "left_children": [
              -1
            ],
            "loss_changes": [
              0
            ],
            "parents": [
              2147483647
            ],
            "right_children": [
              -1
            ],
            "split_conditions": [
              0.00046697492
            ],
            "split_indices": [
              0
            ],
            "split_type": [
              0
            ],
            "sum_hessian": [
              113
            ],
            "tree_param": {
              "num_deleted": "0",
              "num_feature": "37",
              "num_nodes": "1",
              "size_leaf_vector": "1"
            }
          },
          {
            "base_weights": [
              0,
              0.0020861551,
              -0.023519373,
              -0.008357864,
              0.0003469572
            ],
            "categories": [],
            "categories_nodes": [],
            "categories_segments": [],
            "categories_sizes": [],
            "default_left": [
              0,
              0,
              0,
              0,
              0
            ],
            "id": 42,
            "left_children": [
              1,
              -1,
              3,
              -1,
              -1
            ],
            "loss_changes": [
              0.11349507,
              0,
              0.3537383,
              0,
              0
            ],
            "parents": [
              2147483647,
              0,
              0,
              2,
              2
            ],
            "right_children": [
              2,
              -1,
              4,
              -1,
              -1
            ],
            "split_conditions": [
              5.6312118,
              0.0020861551,
              6.082219,
              -0.008357864,
              0.0003469572
            ],
            "split_indices": [
              24,
              0,
              24,
              0,
              0
            ],
            "split_type": [
              0,
              0,
              0,
              0,
              0
            ],
            "sum_hessian": [
              111,
              40,
              71,
              12,
              59
            ],
            "tree_param": {
              "num_deleted": "0",
              "num_feature": "37",
              "num_nodes": "5",
              "size_leaf_vector": "1"
            }
          },
          {
            "base_weights": [
              0
            ],
            "categories": [],
            "categories_nodes": [],
            "categories_segments": [],
            "categories_sizes": [],
            "default_left": [
              0
            ],
            "id": 43,
            "left_children": [
              -1
            ],
            "loss_changes": [
              0
            ],
            "parents": [
              2147483647
            ],
            "right_children": [
              -1
            ],
            "split_conditions": [
              0
            ],
            "split_indices": [
              0
            ],
            "split_type": [
              0
            ],
            "sum_hessian": [
              108
            ],
            "tree_param": {
              "num_deleted": "0",
              "num_feature": "37",
              "num_nodes": "1",
              "size_leaf_vector": "1"
            }
          }
        ]
      },
      "name": "gbtree"
    },
    "learner_model_param": {
      "base_score": "7.1553886E-1",
      "boost_from_average": "1",
      "num_class": "0",
      "num_feature": "37",
      "num_target": "1"
    },
    "objective": {
      "name": "reg:squarederror",
      "reg_loss_param": {
        "scale_pos_weight": "1"
      }
    }
  },
  "version": [
    2,
    1,
    4
  ],
  "metadata": {
    "model_type": "xgboost",
    "version": "improved-v1.0.0",
    "training_date": "2026-01-09T20-21-27",
    "training_size": 500,
    "features": 37,
    "metrics": {
      "r2_train": 0.40683412551879883,
      "r2_test": -0.016787409782409668,
      "r2": -0.016787409782409668,
      "r2_cv_mean": -0.015415775775909423,
      "r2_cv_std": 0.08250109601894662,
      "mae": 0.18061481416225433,
      "rmse": 0.22212633853770947
    },
    "top_features": [
      [
        "stars_per_file",
        0.29107871651649475
      ],
      [
        "openIssues",
        0.26411429047584534
      ],
      [
        "fileCount_log",
        0.26153451204299927
      ],
      [
        "stars_log",
        0.25599586963653564
      ],
      [
        "fileCount",
        0.2498813420534134
      ],
      [
