{"learner":{"attributes":{"best_iteration":"2","best_score":"0.11706685161555619"},"feature_names":[],"feature_types":[],"gradient_booster":{"model":{"gbtree_model_param":{"num_parallel_tree":"1","num_trees":"13"},"iteration_indptr":[0,1,2,3,4,5,6,7,8,9,10,11,12,13],"tree_info":[0,0,0,0,0,0,0,0,0,0,0,0,0],"trees":[{"base_weights":[3.7408874E-5,-7.894172E-3,2.9367933E-2,-1.4304499E-2,4.239714E-2,2.0379977E-2,1.1511759E-2,-9.992341E-3,-7.0313156E-2,6.1034754E-2,-6.1767767E-3,-0E0,3.5770953E-2,-5.9972843E-4,-3.1622162E-3,-1.176061E-2,-1.6326429E-3,7.0567555E-3,-1.3755044E-3,-0E0,-2.1836644E-3,1.4058017E-3,-4.5966282E-3,-0E0,4.0458636E-3],"categories":[],"categories_nodes":[],"categories_segments":[],"categories_sizes":[],"default_left":[0,0,0,0,0,0,0,0,0,0,0,0,0,0,0,0,0,0,0,0,0,0,0,0,0],"id":0,"left_children":[1,3,5,7,9,11,-1,13,15,17,19,21,23,-1,-1,-1,-1,-1,-1,-1,-1,-1,-1,-1,-1],"loss_changes":[7.845126E-2,8.046949E-2,3.880787E-2,4.6343986E-2,3.09471E-2,2.4650754E-2,0E0,1.4661858E-2,2.0747885E-2,2.2465795E-2,2.8133087E-3,2.2208642E-2,9.9189095E-3,0E0,0E0,0E0,0E0,0E0,0E0,0E0,0E0,0E0,0E0,0E0,0E0],"parents":[2147483647,0,0,1,1,2,2,3,3,4,4,5,5,7,7,8,8,9,9,10,10,11,11,12,12],"right_children":[2,4,6,8,10,12,-1,14,16,18,20,22,24,-1,-1,-1,-1,-1,-1,-1,-1,-1,-1,-1,-1],"split_conditions":[5E0,7.4169E4,2.91E2,1E0,1.37031E5,1E0,1.1511759E-2,2.5691E4,2E0,1.2368E4,1.03220575E-1,1.37E2,1.4E1,-5.9972843E-4,-3.1622162E-3,-1.176061E-2,-1.6326429E-3,7.0567555E-3,-1.3755044E-3,-0E0,-2.1836644E-3,1.4058017E-3,-4.5966282E-3,-0E0,4.0458636E-3],"split_indices":[11,37,35,11,37,22,0,37,12,33,3,11,35,0,0,0,0,0,0,0,0,0,0,0,0],"split_type":[0,0,0,0,0,0,0,0,0,0,0,0,0,0,0,0,0,0,0,0,0,0,0,0,0],"sum_hessian":[3.25E2,2.54E2,7.1E1,2.28E2,2.6E1,6.7E1,4E0,2.15E2,1.3E1,2E1,6E0,2.7E1,4E1,1.87E2,2.8E1,5E0,8E0,1.9E1,1E0,1E0,5E0,2E1,7E0,3E0,3.7E1],"tree_param":{"num_deleted":"0","num_feature":"45","num_nodes":"25","size_leaf_vector":"1"}},{"base_weights":[-7.9570437E-4,-8.539377E-3,2.7281174E-2,-3.0569825E-3,-6.681948E-2,1.5111075E-2,1.0828643E-2,-8.287342E-3,3.7197825E-2,-2.048524E-2,-1.988363E-2,-1.6625347E-2,3.1115526E-2,-3.1709243E-4,-3.800304E-3,4.8636277E-3,-2.6973698E-3,-0E0,-2.8545388E-3,-2.1933017E-3,-0E0,4.0118787E-3,-0E0],"categories":[],"categories_nodes":[],"categories_segments":[],"categories_sizes":[],"default_left":[0,0,0,0,0,0,0,0,0,0,0,0,0,0,0,0,0,0,0,0,0,0,0],"id":1,"left_children":[1,3,5,7,9,11,-1,13,15,-1,17,19,21,-1,-1,-1,-1,-1,-1,-1,-1,-1,-1],"loss_changes":[6.881004E-2,7.498095E-2,5.1750094E-2,4.7786847E-2,1.0422976E-1,3.34623E-2,0E0,2.831398E-2,2.2851687E-2,0E0,5.71123E-3,3.5097147E-3,1.3412692E-2,0E0,0E0,0E0,0E0,0E0,0E0,0E0,0E0,0E0,0E0],"parents":[2147483647,0,0,1,1,2,2,3,3,4,4,5,5,7,7,8,8,10,10,11,11,12,12],"right_children":[2,4,6,8,10,12,-1,14,16,-1,18,20,22,-1,-1,-1,-1,-1,-1,-1,-1,-1,-1],"split_conditions":[8E0,1E0,2.68E2,7.4169E4,1E0,1E0,1.0828643E-2,2.4868E4,2.09821E5,-2.048524E-2,1.6E1,2.9266E4,7.75E1,-3.1709243E-4,-3.800304E-3,4.8636277E-3,-2.6973698E-3,-0E0,-2.8545388E-3,-2.1933017E-3,-0E0,4.0118787E-3,-0E0],"split_indices":[11,11,35,37,2,21,0,37,37,0,2,2,5,0,0,0,0,0,0,0,0,0,0],"split_type":[0,0,0,0,0,0,0,0,0,0,0,0,0,0,0,0,0,0,0,0,0,0,0],"sum_hessian":[3.22E2,2.56E2,6.6E1,2.37E2,1.9E1,6E1,6E0,2.13E2,2.4E1,3E0,1.6E1,1.8E1,4.2E1,1.86E2,2.7E1,2.2E1,2E0,2E0,1.4E1,1.7E1,1E0,3.3E1,9E0],"tree_param":{"num_deleted":"0","num_feature":"45","num_nodes":"23","size_leaf_vector":"1"}},{"base_weights":[-0E0,-1.7270494E-2,1.6991073E-2,-1.9265948E-2,3.6104962E-2,3.2787453E-2,5.5781445E-3,-1.4627029E-3,-1.8853826E-2,6.4592133E-3,-0E0,3.6248823E-3,-1.2525122E-3,-2.5565246E-2,1.7049901E-2,-0E0,-3.182758E-3,6.1726575E-3,9.563581E-4],"categories":[],"categories_nodes":[],"categories_segments":[],"categories_sizes":[],"default_left":[0,0,0,0,0,0,0,0,0,0,0,0,0,0,0,0,0,0,0],"id":2,"left_children":[1,3,5,7,9,11,13,-1,-1,-1,-1,-1,-1,15,17,-1,-1,-1,-1],"loss_changes":[9.363073E-2,1.6454063E-2,2.4463948E-2,9.922224E-2,8.736445E-3,1.2856126E-2,3.4636058E-2,0E0,0E0,0E0,0E0,0E0,0E0,4.75364E-3,1.6903052E-2,0E0,0E0,0E0,0E0],"parents":[2147483647,0,0,1,1,2,2,3,3,4,4,5,5,6,6,13,13,14,14],"right_children":[2,4,6,8,10,12,14,-1,-1,-1,-1,-1,-1,16,18,-1,-1,-1,-1],"split_conditions":[3E0,8E0,8.6951385E1,1E0,7.5E1,2E0,1.72E2,-1.4627029E-3,-1.8853826E-2,6.4592133E-3,-0E0,3.6248823E-3,-1.2525122E-3,1.1E1,9.586522E1,-0E0,-3.182758E-3,6.1726575E-3,9.563581E-4],"split_indices":[41,11,5,11,5,33,35,0,0,0,0,0,0,35,5,0,0,0,0],"split_type":[0,0,0,0,0,0,0,0,0,0,0,0,0,0,0,0,0,0,0],"sum_hessian":[3.16E2,1.59E2,1.57E2,1.56E2,3E0,6.1E1,9.6E1,1.54E2,2E0,2E0,1E0,5.9E1,2E0,2.3E1,7.3E1,4E0,1.9E1,7E0,6.6E1],"tree_param":{"num_deleted":"0","num_feature":"45","num_nodes":"19","size_leaf_vector":"1"}},{"base_weights":[-4.008591E-3,-1.2107343E-2,2.4576638E-2,-1.757027E-2,1.1644222E-2,3.0366054E-2,-5.0807656E-3,-1.2383533E-2,-4.9848523E-2,-1.8139975E-2,2.2978941E-2,6.206031E-2,1.6425237E-2,-1.0503152E-3,-4.4084443E-3,-1.6171856E-2,-9.762834E-4,-0E0,-3.8786822E-3,4.073264E-3,-0E0,7.449355E-3,-0E0,-3.1516168E-4,2.704871E-3],"categories":[],"categories_nodes":[],"categories_segments":[],"categories_sizes":[],"default_left":[0,0,0,0,0,0,0,0,0,0,0,0,0,0,0,0,0,0,0,0,0,0,0,0,0],"id":3,"left_children":[1,3,5,7,9,11,-1,13,15,17,19,21,23,-1,-1,-1,-1,-1,-1,-1,-1,-1,-1,-1,-1],"loss_changes":[7.756374E-2,3.560844E-2,3.1911325E-2,2.9934116E-2,1.7144939E-2,2.1330558E-2,0E0,5.5004135E-3,1.03804275E-1,7.498955E-3,1.7529644E-2,2.0310849E-2,1.3436223E-2,0E0,0E0,0E0,0E0,0E0,0E0,0E0,0E0,0E0,0E0,0E0,0E0],"parents":[2147483647,0,0,1,1,2,2,3,3,4,4,5,5,7,7,8,8,9,9,10,10,11,11,12,12],"right_children":[2,4,6,8,10,12,-1,14,16,18,20,22,24,-1,-1,-1,-1,-1,-1,-1,-1,-1,-1,-1,-1],"split_conditions":[8E0,6.172975E1,2.66E2,2E0,1.656E3,1.2E1,-5.0807656E-3,6E-1,9.638364E0,7.28E2,5.88145E-1,4E1,1E0,-1.0503152E-3,-4.4084443E-3,-1.6171856E-2,-9.762834E-4,-0E0,-3.8786822E-3,4.073264E-3,-0E0,7.449355E-3,-0E0,-3.1516168E-4,2.704871E-3],"split_indices":[11,14,11,33,16,41,0,3,14,16,3,11,22,0,0,0,0,0,0,0,0,0,0,0,0],"split_type":[0,0,0,0,0,0,0,0,0,0,0,0,0,0,0,0,0,0,0,0,0,0,0,0,0],"sum_hessian":[3.37E2,2.66E2,7.1E1,2.2E2,4.6E1,6.8E1,3E0,1.94E2,2.6E1,1E1,3.6E1,1.7E1,5.1E1,1.88E2,6E0,5E0,2.1E1,4E0,6E0,2.1E1,1.5E1,1.5E1,2E0,1.5E1,3.6E1],"tree_param":{"num_deleted":"0","num_feature":"45","num_nodes":"25","size_leaf_vector":"1"}},{"base_weights":[-1.2164895E-4,-1.6867929E-3,4.4151284E-2,3.221006E-4,-2.9812811E-2,4.9634343E-3,-0E0,-2.0052663E-3,6.367478E-2,-7.1244106E-2,-0E0,2.14748E-4,-2.4896222E-3,8.254962E-3,-0E0,-0E0,-8.521981E-3,-1.8295413E-3,1.1312793E-3],"categories":[],"categories_nodes":[],"categories_segments":[],"categories_sizes":[],"default_left":[0,0,0,0,0,0,0,0,0,0,0,0,0,0,0,0,0,0,0],"id":4,"left_children":[1,3,5,7,9,-1,-1,11,13,15,17,-1,-1,-1,-1,-1,-1,-1,-1],"loss_changes":[1.9459706E-2,2.1750448E-2,2.4216324E-3,5.184524E-2,3.570632E-2,0E0,0E0,3.0635519E-2,2.0870633E-2,1.0622121E-2,3.1059901E-3,0E0,0E0,0E0,0E0,0E0,0E0,0E0,0E0],"parents":[2147483647,0,0,1,1,2,2,3,3,4,4,7,7,8,8,9,9,10,10],"right_children":[2,4,6,8,10,-1,-1,12,14,16,18,-1,-1,-1,-1,-1,-1,-1,-1],"split_conditions":[4.5762E4,1.0282E4,8.621613E2,7.462E3,2.71E3,4.9634343E-3,-0E0,7.95E2,2.039E3,2.33E2,3.55E3,2.14748E-4,-2.4896222E-3,8.254962E-3,-0E0,-0E0,-8.521981E-3,-1.8295413E-3,1.1312793E-3],"split_indices":[15,16,14,16,2,0,0,15,2,15,35,0,0,0,0,0,0,0,0],"split_type":[0,0,0,0,0,0,0,0,0,0,0,0,0,0,0,0,0,0,0],"sum_hessian":[3.39E2,3.31E2,8E0,3.07E2,2.4E1,7E0,1E0,2.96E2,1.1E1,1E1,1.4E1,2.48E2,4.8E1,9E0,2E0,2E0,8E0,3E0,1.1E1],"tree_param":{"num_deleted":"0","num_feature":"45","num_nodes":"19","size_leaf_vector":"1"}},{"base_weights":[1.8100677E-3,-5.2182144E-3,2.8808415E-2,-1.5246284E-2,1.1306064E-2,1.784952E-2,1.0834346E-2,-1.0540835E-2,-1.3620873E-1,-2.37885E-2,1.6351135E-2,-1.8902627E-3,3.6383625E-2,-1.0967682E-3,-0E0,-1.654458E-2,-0E0,-3.2027361E-3,-0E0,3.5388823E-4,4.6044528E-3,7.933901E-4,-4.82477E-3,-0E0,4.141004E-3],"categories":[],"categories_nodes":[],"categories_segments":[],"categories_sizes":[],"default_left":[0,0,0,0,0,0,0,0,0,0,0,0,0,0,0,0,0,0,0,0,0,0,0,0,0],"id":5,"left_children":[1,3,5,7,9,11,-1,13,15,17,19,21,23,-1,-1,-1,-1,-1,-1,-1,-1,-1,-1,-1,-1],"loss_changes":[6.7195065E-2,4.5144815E-2,4.854366E-2,8.078625E-2,1.7279591E-2,2.8247992E-2,0E0,8.1604905E-4,2.1134913E-2,3.802768E-3,2.8846553E-2,1.8951392E-2,9.518985E-3,0E0,0E0,0E0,0E0,0E0,0E0,0E0,0E0,0E0,0E0,0E0,0E0],"parents":[2147483647,0,0,1,1,2,2,3,3,4,4,5,5,7,7,8,8,9,9,10,10,11,11,12,12],"right_children":[2,4,6,8,10,12,-1,14,16,18,20,22,24,-1,-1,-1,-1,-1,-1,-1,-1,-1,-1,-1,-1],"split_conditions":[8E0,1.1E2,2.91E2,1.8E2,1E0,1E0,1.0834346E-2,2E0,1E0,7.595022E-1,3.037032E1,1.37E2,1.4E1,-1.0967682E-3,-0E0,-1.654458E-2,-0E0,-3.2027361E-3,-0E0,3.5388823E-4,4.6044528E-3,7.933901E-4,-4.82477E-3,-0E0,4.141004E-3],"split_indices":[11,41,35,16,26,22,0,11,2,3,39,11,35,0,0,0,0,0,0,0,0,0,0,0,0],"split_type":[0,0,0,0,0,0,0,0,0,0,0,0,0,0,0,0,0,0,0,0,0,0,0,0,0],"sum_hessian":[3.39E2,2.67E2,7.2E1,1.7E2,9.7E1,6.6E1,6E0,1.66E2,4E0,9E0,8.8E1,3E1,3.6E1,1.6E2,6E0,3E0,1E0,8E0,1E0,6.5E1,2.3E1,2.4E1,6E0,3E0,3.3E1],"tree_param":{"num_deleted":"0","num_feature":"45","num_nodes":"25","size_leaf_vector":"1"}},{"base_weights":[3.7264172E-3,6.4398046E-3,-2.1898393E-2,3.4236968E-3,6.1431713E-2,-8.9034684E-2,-5.325545E-4,-8.620765E-4,2.0130308E-2,7.344508E-2,-0E0,-0E0,-1.0100267E-2,-2.3251032E-2,1.7510774E-2,2.0831705E-4,-2.754416E-3,1.1504133E-3,8.820956E-3,8.324353E-3,-0E0,-3.7999288E-3,-0E0,3.6741667E-3,-2.4289473E-4],"categories":[],"categories_nodes":[],"categories_segments":[],"categories_sizes":[],"default_left":[0,0,0,0,0,0,0,0,0,0,0,0,0,0,0,0,0,0,0,0,0,0,0,0,0],"id":6,"left_children":[1,3,5,7,9,11,13,15,17,19,-1,-1,-1,21,23,-1,-1,-1,-1,-1,-1,-1,-1,-1,-1],"loss_changes":[2.095005E-2,4.2045195E-2,3.0418787E-2,2.2180064E-2,1.64802E-2,2.3074672E-3,1.081779E-2,2.0038819E-2,2.5210446E-2,1.226183E-2,0E0,0E0,0E0,6.419243E-3,7.9749115E-3,0E0,0E0,0E0,0E0,0E0,0E0,0E0,0E0,0E0,0E0],"parents":[2147483647,0,0,1,1,2,2,3,3,4,4,5,5,6,6,7,7,8,8,9,9,13,13,14,14],"right_children":[2,4,6,8,10,12,14,16,18,20,-1,-1,-1,22,24,-1,-1,-1,-1,-1,-1,-1,-1,-1,-1],"split_conditions":[1.3344E4,7.462E3,4.66E2,6E0,7.5632274E-1,2.33E2,3.2792E4,5.7E1,2.91E2,5.582E3,-0E0,-0E0,-1.0100267E-2,6.4E-1,1.31844E5,2.0831705E-4,-2.754416E-3,1.1504133E-3,8.820956E-3,8.324353E-3,-0E0,-3.7999288E-3,-0E0,3.6741667E-3,-2.4289473E-4],"split_indices":[16,16,2,11,3,15,16,33,35,35,0,0,0,3,37,0,0,0,0,0,0,0,0,0,0],"split_type":[0,0,0,0,0,0,0,0,0,0,0,0,0,0,0,0,0,0,0,0,0,0,0,0,0],"sum_hessian":[3.19E2,2.93E2,2.6E1,2.81E2,1.2E1,4E0,2.2E1,2.2E2,6.1E1,1.1E1,1E0,1E0,3E0,1.2E1,1E1,1.96E2,2.4E1,5.7E1,4E0,1E1,1E0,8E0,4E0,7E0,3E0],"tree_param":{"num_deleted":"0","num_feature":"45","num_nodes":"25","size_leaf_vector":"1"}},{"base_weights":[-0E0,-4.8580775E-3,1.8091654E-2,-8.647492E-3,2.49107E-2,1.0179889E-2,6.9181174E-3,-1.1135601E-2,2.0082196E-2,3.4017462E-2,-2.3543162E-3,2.7000891E-2,-0E0,-4.752424E-4,-3.9357045E-3,4.825138E-3,-3.1233814E-3,-1.3935499E-4,4.5353947E-3,3.8856026E-3,-0E0,-5.871526E-4,1.1880983E-3],"categories":[],"categories_nodes":[],"categories_segments":[],"categories_sizes":[],"default_left":[0,0,0,0,0,0,0,0,0,0,0,0,0,0,0,0,0,0,0,0,0,0,0],"id":7,"left_children":[1,3,5,7,9,11,-1,13,15,17,-1,19,21,-1,-1,-1,-1,-1,-1,-1,-1,-1,-1],"loss_changes":[2.9364858E-2,2.8759668E-2,1.9504199E-2,1.6632348E-2,1.4383338E-2,8.990388E-3,0E0,3.593062E-2,2.7813612E-2,1.4727473E-2,0E0,1.0746803E-2,3.6661588E-3,0E0,0E0,0E0,0E0,0E0,0E0,0E0,0E0,0E0,0E0],"parents":[2147483647,0,0,1,1,2,2,3,3,4,4,5,5,7,7,8,8,9,9,11,11,12,12],"right_children":[2,4,6,8,10,12,-1,14,16,18,-1,20,22,-1,-1,-1,-1,-1,-1,-1,-1,-1,-1],"split_conditions":[5E0,7.4169E4,2.72E2,6.7717063E-1,2.09821E5,1.3E1,6.9181174E-3,9.6044334E1,8.4076434E-1,1.9331278E1,-2.3543162E-3,8.6950134E1,6.0183066E-1,-4.752424E-4,-3.9357045E-3,4.825138E-3,-3.1233814E-3,-1.3935499E-4,4.5353947E-3,3.8856026E-3,-0E0,-5.871526E-4,1.1880983E-3],"split_indices":[11,37,35,3,37,11,0,5,3,14,0,5,3,0,0,0,0,0,0,0,0,0,0],"split_type":[0,0,0,0,0,0,0,0,0,0,0,0,0,0,0,0,0,0,0,0,0,0,0],"sum_hessian":[3.34E2,2.65E2,6.9E1,2.39E2,2.6E1,6.3E1,6E0,2.24E2,1.5E1,2.4E1,2E0,2E1,4.3E1,1.87E2,3.7E1,1.1E1,4E0,4E0,2E1,1.6E1,4E0,2.5E1,1.8E1],"tree_param":{"num_deleted":"0","num_feature":"45","num_nodes":"23","size_leaf_vector":"1"}},{"base_weights":[-6.729649E-4,-6.263817E-3,1.6998088E-2,-3.2034754E-3,-4.7677893E-2,8.5414715E-2,9.0231905E-3,-6.3198344E-3,2.3659982E-2,-0E0,-1.413662E-2,-0E0,9.301943E-3,-6.792774E-3,2.4625722E-2,-2.7829362E-4,-2.2778856E-3,3.5391531E-3,-4.0715863E-4,1.8092974E-3,-8.133947E-4,2.0911808E-4,-2.0808778E-3,1.2616324E-3,4.6468396E-3],"categories":[],"categories_nodes":[],"categories_segments":[],"categories_sizes":[],"default_left":[0,0,0,0,0,0,0,0,0,0,0,0,0,0,0,0,0,0,0,0,0,0,0,0,0],"id":8,"left_children":[1,3,5,7,9,11,13,15,17,19,-1,-1,-1,21,23,-1,-1,-1,-1,-1,-1,-1,-1,-1,-1],"loss_changes":[3.2133628E-2,2.757211E-2,3.1139731E-2,1.9042596E-2,7.4679896E-2,1.674965E-4,1.9678202E-2,1.0417748E-2,1.0668166E-2,2.296664E-3,0E0,0E0,0E0,6.108369E-3,3.5736728E-3,0E0,0E0,0E0,0E0,0E0,0E0,0E0,0E0,0E0,0E0],"parents":[2147483647,0,0,1,1,2,2,3,3,4,4,5,5,6,6,7,7,8,8,9,9,13,13,14,14],"right_children":[2,4,6,8,10,12,14,16,18,20,-1,-1,-1,22,24,-1,-1,-1,-1,-1,-1,-1,-1,-1,-1],"split_conditions":[8E0,1E0,7.5E1,8.591E4,2E0,1E0,1E0,2.5691E4,1.37031E5,8.6950134E1,-1.413662E-2,-0E0,9.301943E-3,2E1,6.4850366E-1,-2.7829362E-4,-2.2778856E-3,3.5391531E-3,-4.0715863E-4,1.8092974E-3,-8.133947E-4,2.0911808E-4,-2.0808778E-3,1.2616324E-3,4.6468396E-3],"split_indices":[11,11,5,37,33,25,22,37,37,5,0,0,0,15,3,0,0,0,0,0,0,0,0,0,0],"split_type":[0,0,0,0,0,0,0,0,0,0,0,0,0,0,0,0,0,0,0,0,0,0,0,0,0],"sum_hessian":[3.33E2,2.58E2,7.5E1,2.44E2,1.4E1,5E0,7E1,2.23E2,2.1E1,1E1,4E0,1E0,4E0,3.2E1,3.8E1,1.9E2,3.3E1,1.7E1,4E0,4E0,6E0,1.6E1,1.6E1,2.9E1,9E0],"tree_param":{"num_deleted":"0","num_feature":"45","num_nodes":"25","size_leaf_vector":"1"}},{"base_weights":[-4.233194E-3,-1.6460335E-2,8.019125E-3,-1.9860506E-2,4.1283056E-2,1.5950872E-2,-0E0,-1.5681669E-3,-1.4284915E-2,7.969043E-3,-1.9166237E-3,9.402685E-3,4.3392483E-2,-4.8418543E-3,5.474687E-3,3.5426614E-3,9.884586E-5,8.216991E-3,-1.7239196E-3,-8.847049E-5,2.7629326E-3],"categories":[],"categories_nodes":[],"categories_segments":[],"categories_sizes":[],"default_left":[0,0,0,0,0,0,0,0,0,0,0,0,0,0,0,0,0,0,0,0,0],"id":9,"left_children":[1,3,5,7,9,11,13,-1,-1,-1,-1,15,17,-1,19,-1,-1,-1,-1,-1,-1],"loss_changes":[5.1603273E-2,3.315213E-2,1.1619948E-2,6.635932E-2,2.807791E-2,9.831592E-3,2.4414388E-2,0E0,0E0,0E0,0E0,1.2838293E-2,4.0358283E-2,0E0,1.2784765E-2,0E0,0E0,0E0,0E0,0E0,0E0],"parents":[2147483647,0,0,1,1,2,2,3,3,4,4,5,5,6,6,11,11,12,12,14,14],"right_children":[2,4,6,8,10,12,14,-1,-1,-1,-1,16,18,-1,20,-1,-1,-1,-1,-1,-1],"split_conditions":[3E0,8E0,7.95E2,1E0,7.5E1,1.067E3,1.476E3,-1.5681669E-3,-1.4284915E-2,7.969043E-3,-1.9166237E-3,1.5E1,1.1933E4,-4.8418543E-3,7.4169E4,3.5426614E-3,9.884586E-5,8.216991E-3,-1.7239196E-3,-8.847049E-5,2.7629326E-3],"split_indices":[41,11,41,11,8,16,41,0,0,0,0,35,16,0,37,0,0,0,0,0,0],"split_type":[0,0,0,0,0,0,0,0,0,0,0,0,0,0,0,0,0,0,0,0,0],"sum_hessian":[3.36E2,1.72E2,1.64E2,1.65E2,7E0,8.6E1,7.8E1,1.62E2,3E0,5E0,2E0,7.4E1,1.2E1,8E0,7E1,1.4E1,6E1,8E0,4E0,5.2E1,1.8E1],"tree_param":{"num_deleted":"0","num_feature":"45","num_nodes":"21","size_leaf_vector":"1"}},{"base_weights":[1.4299195E-3,-3.5750904E-4,1.4113307E-2,2.788478E-3,-1.6238457E-2,-0E0,2.9842556E-2,-0E0,1.9884707E-2,-4.376065E-2,9.533916E-3,2.7978956E-3,-8.450904E-3,-0E0,3.9527804E-2,1.7131143E-4,-3.7256174E-3,6.102407E-3,4.503226E-4,-4.6687904E-3,-0E0,2.558501E-3,-3.284308E-3,-2.511921E-3,7.798235E-4,4.6659736E-3,-0E0],"categories":[],"categories_nodes":[],"categories_segments":[],"categories_sizes":[],"default_left":[0,0,0,0,0,0,0,0,0,0,0,0,0,0,0,0,0,0,0,0,0,0,0,0,0,0,0],"id":10,"left_children":[1,3,5,7,9,11,13,15,17,19,21,-1,23,-1,25,-1,-1,-1,-1,-1,-1,-1,-1,-1,-1,-1,-1],"loss_changes":[9.193188E-3,1.6226428E-2,1.3740639E-2,1.1747994E-2,4.2706005E-2,4.3467768E-3,5.304957E-3,1.3780503E-2,1.4866121E-2,5.3660683E-3,1.924005E-2,0E0,8.119952E-3,0E0,7.0173815E-3,0E0,0E0,0E0,0E0,0E0,0E0,0E0,0E0,0E0,0E0,0E0,0E0],"parents":[2147483647,0,0,1,1,2,2,3,3,4,4,5,5,6,6,7,7,8,8,9,9,10,10,12,12,14,14],"right_children":[2,4,6,8,10,12,14,16,18,20,22,-1,24,-1,26,-1,-1,-1,-1,-1,-1,-1,-1,-1,-1,-1,-1],"split_conditions":[1.4E1,6.021611E-1,1E0,1.656E3,6.7717063E-1,7.5E1,1.1E1,6.4E2,2.5691E4,5.4342E4,8.405512E-1,2.7978956E-3,6.01E2,-0E0,7.580639E-1,1.7131143E-4,-3.7256174E-3,6.102407E-3,4.503226E-4,-4.6687904E-3,-0E0,2.558501E-3,-3.284308E-3,-2.511921E-3,7.798235E-4,4.6659736E-3,-0E0],"split_indices":[11,3,22,16,3,5,2,16,37,16,3,0,41,0,3,0,0,0,0,0,0,0,0,0,0,0,0],"split_type":[0,0,0,0,0,0,0,0,0,0,0,0,0,0,0,0,0,0,0,0,0,0,0,0,0,0,0],"sum_hessian":[3.43E2,2.95E2,4.8E1,2.42E2,5.3E1,2.3E1,2.5E1,2.09E2,3.3E1,2.7E1,2.6E1,2E0,2.1E1,8E0,1.7E1,2.01E2,8E0,6E0,2.7E1,2.6E1,1E0,2.1E1,5E0,1.3E1,8E0,1.5E1,2E0],"tree_param":{"num_deleted":"0","num_feature":"45","num_nodes":"27","size_leaf_vector":"1"}},{"base_weights":[-5.5945455E-3,-1.5571686E-2,4.0564146E-3,-1.8900026E-2,3.63006E-2,1.6996225E-2,-1.5620315E-3,-1.4676687E-3,-1.3350208E-2,7.181227E-2,-1.6635628E-3,2.149805E-2,-5.1318994E-3,-1.008999E-2,1.6048504E-2,7.890143E-3,-0E0,2.714833E-3,-0E0,-7.62732E-4,-0E0,-1.2011406E-4,-2.8093944E-3,3.745038E-3,-0E0],"categories":[],"categories_nodes":[],"categories_segments":[],"categories_sizes":[],"default_left":[0,0,0,0,0,0,0,0,0,0,0,0,0,0,0,0,0,0,0,0,0,0,0,0,0],"id":11,"left_children":[1,3,5,7,9,11,13,-1,-1,15,-1,17,19,21,23,-1,-1,-1,-1,-1,-1,-1,-1,-1,-1],"loss_changes":[3.2010607E-2,2.7344465E-2,1.310645E-2,5.7505604E-2,2.3288392E-2,7.13161E-3,1.5641415E-2,0E0,0E0,7.1938336E-4,0E0,6.6976976E-3,9.060551E-5,9.26251E-3,1.22237345E-2,0E0,0E0,0E0,0E0,0E0,0E0,0E0,0E0,0E0,0E0],"parents":[2147483647,0,0,1,1,2,2,3,3,4,4,5,5,6,6,9,9,11,11,12,12,13,13,14,14],"right_children":[2,4,6,8,10,12,14,-1,-1,16,-1,18,20,22,24,-1,-1,-1,-1,-1,-1,-1,-1,-1,-1],"split_conditions":[3E0,8E0,4.89011E-1,1E0,7.5E1,1.1050971E1,6.7717063E-1,-1.4676687E-3,-1.3350208E-2,8.08E2,-1.6635628E-3,1E1,4.216366E-1,2.689E3,4.22E2,7.890143E-3,-0E0,2.714833E-3,-0E0,-7.62732E-4,-0E0,-1.2011406E-4,-2.8093944E-3,3.745038E-3,-0E0],"split_indices":[41,11,3,11,5,38,3,0,0,16,0,11,3,35,2,0,0,0,0,0,0,0,0,0,0],"split_type":[0,0,0,0,0,0,0,0,0,0,0,0,0,0,0,0,0,0,0,0,0,0,0,0,0],"sum_hessian":[3.18E2,1.61E2,1.57E2,1.54E2,7E0,5.2E1,1.05E2,1.51E2,3E0,5E0,2E0,4.7E1,5E0,7.5E1,3E1,4E0,1E0,3.8E1,9E0,3E0,2E0,5.5E1,2E1,1.3E1,1.7E1],"tree_param":{"num_deleted":"0","num_feature":"45","num_nodes":"25","size_leaf_vector":"1"}},{"base_weights":[2.9823869E-3,-8.041511E-4,2.0777777E-2,1.9341072E-3,-4.1046586E-2,-1.2864525E-3,3.275824E-2,-4.9847807E-4,1.1640159E-2,-1.1432164E-2,-4.6218955E-3,-1.5348548E-2,4.5021675E-3,4.2698244E-3,-0E0,1.4519747E-4,-4.025155E-3,4.399524E-3,-0E0,2.6562577E-3,-1.9600622E-3,-0E0,-2.7062981E-3,-1.1569363E-3,2.743513E-3],"categories":[],"categories_nodes":[],"categories_segments":[],"categories_sizes":[],"default_left":[0,0,0,0,0,0,0,0,0,0,0,0,0,0,0,0,0,0,0,0,0,0,0,0,0],"id":12,"left_children":[1,3,5,7,9,11,13,15,17,-1,19,21,-1,-1,23,-1,-1,-1,-1,-1,-1,-1,-1,-1,-1],"loss_changes":[2.4225099E-2,3.3617467E-2,1.9731615E-2,7.037377E-3,3.9358985E-2,1.1418596E-2,1.074896E-2,1.8970935E-2,2.4010725E-2,0E0,7.3248763E-3,4.796869E-3,0E0,0E0,6.030188E-3,0E0,0E0,0E0,0E0,0E0,0E0,0E0,0E0,0E0,0E0],"parents":[2147483647,0,0,1,1,2,2,3,3,4,4,5,5,6,6,7,7,8,8,10,10,11,11,14,14],"right_children":[2,4,6,8,10,12,14,16,18,-1,20,22,-1,-1,24,-1,-1,-1,-1,-1,-1,-1,-1,-1,-1],"split_conditions":[8E0,1E0,1E0,1.699E3,2.5E-1,2.72E2,7.75E1,2.813E3,3.3766E4,-1.1432164E-2,1.6E1,8.2E1,4.5021675E-3,4.2698244E-3,6.4850366E-1,1.4519747E-4,-4.025155E-3,4.399524E-3,-0E0,2.6562577E-3,-1.9600622E-3,-0E0,-2.7062981E-3,-1.1569363E-3,2.743513E-3],"split_indices":[11,11,21,16,3,35,5,41,37,0,2,11,0,0,3,0,0,0,0,0,0,0,0,0,0],"split_type":[0,0,0,0,0,0,0,0,0,0,0,0,0,0,0,0,0,0,0,0,0,0,0,0,0],"sum_hessian":[3.28E2,2.67E2,6.1E1,2.49E2,1.8E1,1.9E1,4.2E1,1.92E2,5.7E1,4E0,1.4E1,1.7E1,2E0,3E1,1.2E1,1.82E2,1E1,1.5E1,4.2E1,2E0,1.2E1,6E0,1.1E1,7E0,5E0],"tree_param":{"num_deleted":"0","num_feature":"45","num_nodes":"25","size_leaf_vector":"1"}}]},"name":"gbtree"},"learner_model_param":{"base_score":"7.3438764E-1","boost_from_average":"1","num_class":"0","num_feature":"45","num_target":"1"},"objective":{"name":"reg:squarederror","reg_loss_param":{"scale_pos_weight":"1"}}},"version":[2,1,4]}