{"learner":{"attributes":{"best_iteration":"23","best_score":"0.22003704161985127"},"feature_names":[],"feature_types":[],"gradient_booster":{"model":{"gbtree_model_param":{"num_parallel_tree":"1","num_trees":"44"},"iteration_indptr":[0,1,2,3,4,5,6,7,8,9,10,11,12,13,14,15,16,17,18,19,20,21,22,23,24,25,26,27,28,29,30,31,32,33,34,35,36,37,38,39,40,41,42,43,44],"tree_info":[0,0,0,0,0,0,0,0,0,0,0,0,0,0,0,0,0,0,0,0,0,0,0,0,0,0,0,0,0,0,0,0,0,0,0,0,0,0,0,0,0,0,0,0],"trees":[{"base_weights":[-1.6352718E-3,5.0356936E-2,-6.689881E-2,3.6342784E-3,-3.2377392E-3,6.7966874E-3,-9.722595E-2,-0E0,-7.688099E-3],"categories":[],"categories_nodes":[],"categories_segments":[],"categories_sizes":[],"default_left":[0,0,0,0,0,0,0,0,0],"id":0,"left_children":[1,3,5,-1,-1,-1,7,-1,-1],"loss_changes":[4.036567E-1,1.7549796E-1,3.5086298E-1,0E0,0E0,0E0,2.6973385E-1,0E0,0E0],"parents":[2147483647,0,0,1,1,2,2,6,6],"right_children":[2,4,6,-1,-1,-1,8,-1,-1],"split_conditions":[8.317549E0,2.8E1,6E0,3.6342784E-3,-3.2377392E-3,6.7966874E-3,1E0,-0E0,-7.688099E-3],"split_indices":[28,9,7,0,0,0,1,0,0],"split_type":[0,0,0,0,0,0,0,0,0],"sum_hessian":[1.14E2,6.2E1,5.2E1,5.4E1,8E0,5E0,4.7E1,1.8E1,2.9E1],"tree_param":{"num_deleted":"0","num_feature":"37","num_nodes":"9","size_leaf_vector":"1"}},{"base_weights":[3.879153E-3,3.3566628E-2,-1.0005861E-1,6.624671E-2,-8.795667E-2,1.2386699E-2,-1.4997417E-2,1.6309274E-3,7.216092E-3,1.1564305E-3,-1.1320192E-2,-5.7437117E-3,5.465031E-3],"categories":[],"categories_nodes":[],"categories_segments":[],"categories_sizes":[],"default_left":[0,0,0,0,0,0,0,0,0,0,0,0,0],"id":1,"left_children":[1,3,5,7,9,11,-1,-1,-1,-1,-1,-1,-1],"loss_changes":[3.2666898E-1,3.5282278E-1,5.819063E-1,1.416089E-1,3.2795787E-1,2.2133063E-1,0E0,0E0,0E0,0E0,0E0,0E0,0E0],"parents":[2147483647,0,0,1,1,2,2,3,3,4,4,5,5],"right_children":[2,4,6,8,10,12,-1,-1,-1,-1,-1,-1,-1],"split_conditions":[2.5896969E1,2.7E1,5.6664267E0,1.5E1,1.1931394E-2,9.598263E0,-1.4997417E-2,1.6309274E-3,7.216092E-3,1.1564305E-3,-1.1320192E-2,-5.7437117E-3,5.465031E-3],"split_indices":[28,9,24,9,34,27,0,0,0,0,0,0,0],"split_type":[0,0,0,0,0,0,0,0,0,0,0,0,0],"sum_hessian":[1.06E2,8.5E1,2.1E1,6.9E1,1.6E1,1.4E1,7E0,5.2E1,1.7E1,9E0,7E0,5E0,9E0],"tree_param":{"num_deleted":"0","num_feature":"37","num_nodes":"13","size_leaf_vector":"1"}},{"base_weights":[-4.5126756E-3,2.67316E-3,-7.442467E-2,-2.0560296E-1,-0E0,-1.5894469E-2,-1.6097985E-3,7.7069285E-3,-2.6067174E-3],"categories":[],"categories_nodes":[],"categories_segments":[],"categories_sizes":[],"default_left":[0,0,0,0,0,0,0,0,0],"id":2,"left_children":[1,-1,3,5,7,-1,-1,-1,-1],"loss_changes":[4.3773723E-1,0E0,4.8395482E-1,2.5999588E-1,2.87214E-1,0E0,0E0,0E0,0E0],"parents":[2147483647,0,0,2,2,3,3,4,4],"right_children":[2,-1,4,6,8,-1,-1,-1,-1],"split_conditions":[8.317549E0,2.67316E-3,1.4525659E1,6.37E2,2.2008602E1,-1.5894469E-2,-1.6097985E-3,7.7069285E-3,-2.6067174E-3],"split_indices":[28,0,28,4,28,0,0,0,0],"split_type":[0,0,0,0,0,0,0,0,0],"sum_hessian":[1.03E2,5.5E1,4.8E1,1.6E1,3.2E1,8E0,8E0,7E0,2.5E1],"tree_param":{"num_deleted":"0","num_feature":"37","num_nodes":"9","size_leaf_vector":"1"}},{"base_weights":[-5.5837183E-4,4.9638834E-2,-7.530308E-2,3.9505702E-3,-5.330393E-2,5.791343E-2,-1.4336409E-1,-7.6723793E-3,1.2667874E-3,-1.9070198E-3,6.771143E-3,-8.8592125E-3,4.5688948E-4],"categories":[],"categories_nodes":[],"categories_segments":[],"categories_sizes":[],"default_left":[0,0,0,0,0,0,0,0,0,0,0,0,0],"id":3,"left_children":[1,3,5,-1,7,9,11,-1,-1,-1,-1,-1,-1],"loss_changes":[4.478379E-1,2.221996E-1,4.7797123E-1,0E0,1.5152678E-1,1.5635297E-1,2.1220714E-1,0E0,0E0,0E0,0E0,0E0,0E0],"parents":[2147483647,0,0,1,1,2,2,4,4,5,5,6,6],"right_children":[2,4,6,-1,8,10,12,-1,-1,-1,-1,-1,-1],"split_conditions":[8.317549E0,2.4E1,2.88E2,3.9505702E-3,1E0,5E0,4.4886365E0,-7.6723793E-3,1.2667874E-3,-1.9070198E-3,6.771143E-3,-8.8592125E-3,4.5688948E-4],"split_indices":[28,9,4,0,30,9,26,0,0,0,0,0,0],"split_type":[0,0,0,0,0,0,0,0,0,0,0,0,0],"sum_hessian":[1.14E2,6.7E1,4.7E1,5.4E1,1.3E1,1.5E1,3.2E1,6E0,7E0,6E0,9E0,2.7E1,5E0],"tree_param":{"num_deleted":"0","num_feature":"37","num_nodes":"13","size_leaf_vector":"1"}},{"base_weights":[-6.07277E-3,4.1202936E-2,-7.371744E-2,3.6217477E-3,-7.755642E-2,1.4034836E-2,-1.2849352E-1,2.1586292E-4,-1.1074687E-2,-5.518028E-3,4.8699332E-3,-1.1084795E-2,-1.4635302E-4],"categories":[],"categories_nodes":[],"categories_segments":[],"categories_sizes":[],"default_left":[0,0,0,0,0,0,0,0,0,0,0,0,0],"id":4,"left_children":[1,3,5,-1,7,9,11,-1,-1,-1,-1,-1,-1],"loss_changes":[3.899357E-1,2.6613882E-1,2.7164146E-1,0E0,2.1033326E-1,2.2630706E-1,3.3997965E-1,0E0,0E0,0E0,0E0,0E0,0E0],"parents":[2147483647,0,0,1,1,2,2,4,4,5,5,6,6],"right_children":[2,4,6,-1,8,10,12,-1,-1,-1,-1,-1,-1],"split_conditions":[8.317549E0,2.7E1,2.88E2,3.6217477E-3,1.57E2,1.363E3,9.769E3,2.1586292E-4,-1.1074687E-2,-5.518028E-3,4.8699332E-3,-1.1084795E-2,-1.4635302E-4],"split_indices":[28,9,4,0,0,8,2,0,0,0,0,0,0],"split_type":[0,0,0,0,0,0,0,0,0,0,0,0,0],"sum_hessian":[1.16E2,6.7E1,4.9E1,5.5E1,1.2E1,1.8E1,3.1E1,8E0,4E0,6E0,1.2E1,1.6E1,1.5E1],"tree_param":{"num_deleted":"0","num_feature":"37","num_nodes":"13","size_leaf_vector":"1"}},{"base_weights":[-9.776299E-3,3.0445127E-2,-7.009767E-2,2.6135284E-3,-3.455136E-2,-2.0343885E-1,-8.510488E-3,-8.755095E-3,1.8264176E-3,-1.2977378E-2,-0E0,-6.1322623E-3,2.295452E-3],"categories":[],"categories_nodes":[],"categories_segments":[],"categories_sizes":[],"default_left":[0,0,0,0,0,0,0,0,0,0,0,0,0],"id":5,"left_children":[1,3,5,-1,7,9,11,-1,-1,-1,-1,-1,-1],"loss_changes":[3.0577037E-1,1.0929341E-1,3.729649E-1,0E0,2.1034206E-1,1.8756872E-1,2.6263234E-1,0E0,0E0,0E0,0E0,0E0,0E0],"parents":[2147483647,0,0,1,1,2,2,4,4,5,5,6,6],"right_children":[2,4,6,-1,8,10,12,-1,-1,-1,-1,-1,-1],"split_conditions":[8.254878E0,1.9662922E-2,1.4525659E1,2.6135284E-3,8.19E2,8.7E1,9.598263E0,-8.755095E-3,1.8264176E-3,-1.2977378E-2,-0E0,-6.1322623E-3,2.295452E-3],"split_indices":[28,34,28,0,4,7,27,0,0,0,0,0,0],"split_type":[0,0,0,0,0,0,0,0,0,0,0,0,0],"sum_hessian":[1.19E2,7E1,4.9E1,5.5E1,1.5E1,1.3E1,3.6E1,5E0,1E1,1E1,3E0,1.2E1,2.4E1],"tree_param":{"num_deleted":"0","num_feature":"37","num_nodes":"13","size_leaf_vector":"1"}},{"base_weights":[3.8708672E-3,5.028949E-2,-7.154122E-2,8.1318036E-2,-8.002114E-2,-1.16667114E-1,1.7579809E-3,1.4990472E-3,6.370611E-3,-0E0,-9.835034E-3,2.6326221E-3,-8.374169E-3],"categories":[],"categories_nodes":[],"categories_segments":[],"categories_sizes":[],"default_left":[0,0,0,0,0,0,0,0,0,0,0,0,0],"id":6,"left_children":[1,3,5,7,9,11,-1,-1,-1,-1,-1,-1,-1],"loss_changes":[4.0550563E-1,3.124816E-1,2.3154914E-1,1.0759464E-1,1.4249957E-1,3.159369E-1,0E0,0E0,0E0,0E0,0E0,0E0,0E0],"parents":[2147483647,0,0,1,1,2,2,3,3,4,4,5,5],"right_children":[2,4,6,8,10,12,-1,-1,-1,-1,-1,-1,-1],"split_conditions":[6.961E3,2.8E1,9.852217E-3,1.16E3,1.4E2,2.972677E-4,1.7579809E-3,1.4990472E-3,6.370611E-3,-0E0,-9.835034E-3,2.6326221E-3,-8.374169E-3],"split_indices":[2,9,34,2,0,34,0,0,0,0,0,0,0],"split_type":[0,0,0,0,0,0,0,0,0,0,0,0,0],"sum_hessian":[1.13E2,7.2E1,4.1E1,6E1,1.2E1,3E1,1.1E1,3.2E1,2.8E1,8E0,4E0,6E0,2.4E1],"tree_param":{"num_deleted":"0","num_feature":"37","num_nodes":"13","size_leaf_vector":"1"}},{"base_weights":[-4.977742E-3,2.3025076E-3,-2.8052894E-2,-1.3605496E-1,5.208043E-4,-1.305449E-2,-6.677959E-4,-1.3372834E-3,3.850293E-3],"categories":[],"categories_nodes":[],"categories_segments":[],"categories_sizes":[],"default_left":[0,0,0,0,0,0,0,0,0],"id":7,"left_children":[1,-1,3,5,7,-1,-1,-1,-1],"loss_changes":[1.2732916E-1,0E0,2.7104402E-1,2.1428645E-1,1.4555627E-1,0E0,0E0,0E0,0E0],"parents":[2147483647,0,0,2,2,3,3,4,4],"right_children":[2,-1,4,6,8,-1,-1,-1,-1],"split_conditions":[1.9459101E0,2.3025076E-3,3.295837E0,1.067E3,1.1419881E1,-1.305449E-2,-6.677959E-4,-1.3372834E-3,3.850293E-3],"split_indices":[26,0,26,8,27,0,0,0,0],"split_type":[0,0,0,0,0,0,0,0,0],"sum_hessian":[1.07E2,3E1,7.7E1,1.6E1,6.1E1,6E0,1E1,4.4E1,1.7E1],"tree_param":{"num_deleted":"0","num_feature":"37","num_nodes":"9","size_leaf_vector":"1"}},{"base_weights":[-1.3997188E-2,2.8337676E-3,-3.895797E-2,-1.4485915E-1,-5.212338E-3,-1.0567636E-2,-0E0,-2.361524E-3,2.6001122E-3],"categories":[],"categories_nodes":[],"categories_segments":[],"categories_sizes":[],"default_left":[0,0,0,0,0,0,0,0,0],"id":8,"left_children":[1,-1,3,5,7,-1,-1,-1,-1],"loss_changes":[2.0550126E-1,0E0,2.8653505E-1,1.6102624E-1,1.7464541E-1,0E0,0E0,0E0,0E0],"parents":[2147483647,0,0,2,2,3,3,4,4],"right_children":[2,-1,4,6,8,-1,-1,-1,-1],"split_conditions":[6E0,2.8337676E-3,2.9E1,1E0,6.37E2,-1.0567636E-2,-0E0,-2.361524E-3,2.6001122E-3],"split_indices":[7,0,7,30,4,0,0,0,0],"split_type":[0,0,0,0,0,0,0,0,0],"sum_hessian":[1.14E2,2.7E1,8.7E1,1.8E1,6.9E1,1.1E1,7E0,4.2E1,2.7E1],"tree_param":{"num_deleted":"0","num_feature":"37","num_nodes":"9","size_leaf_vector":"1"}},{"base_weights":[-1.7160174E-2,1.7409313E-2,-7.637369E-2,3.1589542E-3,-1.11206226E-1,-1.5787224E-1,-5.5623157E-3,-0E0,-1.2674794E-2,3.3777975E-3,-1.0868308E-2,4.8829312E-3,-4.243468E-3],"categories":[],"categories_nodes":[],"categories_segments":[],"categories_sizes":[],"default_left":[0,0,0,0,0,0,0,0,0,0,0,0,0],"id":9,"left_children":[1,3,5,-1,7,9,11,-1,-1,-1,-1,-1,-1],"loss_changes":[2.5599587E-1,4.4006243E-1,2.3102391E-1,0E0,3.433717E-1,3.2756293E-1,2.4323072E-1,0E0,0E0,0E0,0E0,0E0,0E0],"parents":[2147483647,0,0,1,1,2,2,4,4,5,5,6,6],"right_children":[2,4,6,-1,8,10,12,-1,-1,-1,-1,-1,-1],"split_conditions":[8.747988E0,2.6E1,1.435E3,3.1589542E-3,1.029E3,2.89E2,1.987E3,-0E0,-1.2674794E-2,3.3777975E-3,-1.0868308E-2,4.8829312E-3,-4.243468E-3],"split_indices":[22,9,8,0,8,0,8,0,0,0,0,0,0],"split_type":[0,0,0,0,0,0,0,0,0,0,0,0,0],"sum_hessian":[1.16E2,7.2E1,4.4E1,5.5E1,1.7E1,1.8E1,2.6E1,1E1,7E0,3E0,1.5E1,1E1,1.6E1],"tree_param":{"num_deleted":"0","num_feature":"37","num_nodes":"13","size_leaf_vector":"1"}},{"base_weights":[-1.2171491E-2,3.1221343E-2,-7.4434526E-2,5.703982E-2,-4.146074E-2,6.3274684E-3,-1.0480991E-1,8.770916E-4,5.819101E-3,-9.801045E-3,8.208289E-4,-8.008081E-3,2.6734746E-3],"categories":[],"categories_nodes":[],"categories_segments":[],"categories_sizes":[],"default_left":[0,0,0,0,0,0,0,0,0,0,0,0,0],"id":10,"left_children":[1,3,5,7,9,-1,11,-1,-1,-1,-1,-1,-1],"loss_changes":[3.456082E-1,1.4295657E-1,3.457424E-1,1.0039039E-1,2.0337635E-1,0E0,4.589954E-1,0E0,0E0,0E0,0E0,0E0,0E0],"parents":[2147483647,0,0,1,1,2,2,3,3,4,4,6,6],"right_children":[2,4,6,8,10,-1,12,-1,-1,-1,-1,-1,-1],"split_conditions":[9.178572E0,2.4234693E-2,6E0,1.16E3,1E0,6.3274684E-3,8.8E1,8.770916E-4,5.819101E-3,-9.801045E-3,8.208289E-4,-8.008081E-3,2.6734746E-3],"split_indices":[28,34,7,2,30,0,7,0,0,0,0,0,0],"split_type":[0,0,0,0,0,0,0,0,0,0,0,0,0],"sum_hessian":[1.21E2,7E1,5.1E1,5.4E1,1.6E1,5E0,4.6E1,3.6E1,1.8E1,4E0,1.2E1,3.5E1,1.1E1],"tree_param":{"num_deleted":"0","num_feature":"37","num_nodes":"13","size_leaf_vector":"1"}},{"base_weights":[6.8655605E-3,4.6216406E-2,-4.3592654E-2,-0E0,8.9284696E-2,4.1228738E-2,-1.11237794E-1,5.976125E-3,-0E0,-3.1520498E-3,6.5238974E-3,-9.257545E-3,-4.5798306E-4],"categories":[],"categories_nodes":[],"categories_segments":[],"categories_sizes":[],"default_left":[0,0,0,0,0,0,0,0,0,0,0,0,0],"id":11,"left_children":[1,3,5,-1,7,9,11,-1,-1,-1,-1,-1,-1],"loss_changes":[2.2296724E-1,1.4017433E-1,2.9284868E-1,0E0,1.0670045E-1,2.2536413E-1,1.6900355E-1,0E0,0E0,0E0,0E0,0E0,0E0],"parents":[2147483647,0,0,1,1,2,2,4,4,5,5,6,6],"right_children":[2,4,6,-1,8,10,12,-1,-1,-1,-1,-1,-1],"split_conditions":[9.178572E0,6.082219E0,5.7071104E0,-0E0,9.7E1,1.0661134E1,1E0,5.976125E-3,-0E0,-3.1520498E-3,6.5238974E-3,-9.257545E-3,-4.5798306E-4],"split_indices":[28,24,24,0,7,27,33,0,0,0,0,0,0],"split_type":[0,0,0,0,0,0,0,0,0,0,0,0,0],"sum_hessian":[1.08E2,6.3E1,4.5E1,3E1,3.3E1,1.9E1,2.6E1,2.5E1,8E0,8E0,1.1E1,1.3E1,1.3E1],"tree_param":{"num_deleted":"0","num_feature":"37","num_nodes":"13","size_leaf_vector":"1"}},{"base_weights":[2.3863309E-3,6.746483E-2,-1.8558567E-2,4.4434253E-4,7.103275E-3,2.2839433E-2,-9.738884E-2,-1.027093E-3,4.87251E-3,-8.370648E-3,1.1362812E-4],"categories":[],"categories_nodes":[],"categories_segments":[],"categories_sizes":[],"default_left":[0,0,0,0,0,0,0,0,0,0,0],"id":12,"left_children":[1,3,5,-1,-1,7,9,-1,-1,-1,-1],"loss_changes":[1.7040062E-1,1.0275313E-1,3.032757E-1,0E0,0E0,2.0387785E-1,2.5710738E-1,0E0,0E0,0E0,0E0],"parents":[2147483647,0,0,1,1,2,2,5,5,6,6],"right_children":[2,4,6,-1,-1,8,10,-1,-1,-1,-1],"split_conditions":[2.972677E-4,2.82E2,8.546E3,4.4434253E-4,7.103275E-3,6.02E2,4.4886365E0,-1.027093E-3,4.87251E-3,-8.370648E-3,1.1362812E-4],"split_indices":[34,8,2,0,0,4,26,0,0,0,0],"split_type":[0,0,0,0,0,0,0,0,0,0,0],"sum_hessian":[1.14E2,2.9E1,8.5E1,1.9E1,1E1,5.5E1,3E1,3.4E1,2.1E1,1.8E1,1.2E1],"tree_param":{"num_deleted":"0","num_feature":"37","num_nodes":"11","size_leaf_vector":"1"}},{"base_weights":[2.507094E-3,3.791444E-2,-4.359111E-2,3.1654716E-3,-5.479614E-2,-1.4235273E-1,1.3300919E-2,-7.977547E-3,8.317255E-4,-0E0,-1.1258612E-2,6.5799505E-3,-5.939703E-4],"categories":[],"categories_nodes":[],"categories_segments":[],"categories_sizes":[],"default_left":[0,0,0,0,0,0,0,0,0,0,0,0,0],"id":13,"left_children":[1,3,5,-1,7,9,11,-1,-1,-1,-1,-1,-1],"loss_changes":[1.8824266E-1,1.6873899E-1,2.9929712E-1,0E0,1.3864921E-1,2.2340879E-1,1.1941287E-1,0E0,0E0,0E0,0E0,0E0,0E0],"parents":[2147483647,0,0,1,1,2,2,4,4,5,5,6,6],"right_children":[2,4,6,-1,8,10,12,-1,-1,-1,-1,-1,-1],"split_conditions":[6.769E3,2.6E1,9.769E3,3.1654716E-3,1E0,1E0,1.07E4,-7.977547E-3,8.317255E-4,-0E0,-1.1258612E-2,6.5799505E-3,-5.939703E-4],"split_indices":[2,9,2,0,1,1,2,0,0,0,0,0,0],"split_type":[0,0,0,0,0,0,0,0,0,0,0,0,0],"sum_hessian":[1.12E2,6.6E1,4.6E1,5.4E1,1.2E1,1.7E1,2.9E1,5E0,7E0,7E0,1E1,5E0,2.4E1],"tree_param":{"num_deleted":"0","num_feature":"37","num_nodes":"13","size_leaf_vector":"1"}},{"base_weights":[-9.914411E-3,2.315436E-2,-6.01576E-2,5.4517712E-2,-1.0495204E-1,6.9865786E-2,-9.790615E-2,4.4669016E-4,5.5008554E-3,-0E0,-9.334664E-3,-1.5312503E-3,7.0103044E-3,1.8512229E-4,-8.029779E-3],"categories":[],"categories_nodes":[],"categories_segments":[],"categories_sizes":[],"default_left":[0,0,0,0,0,0,0,0,0,0,0,0,0,0,0],"id":14,"left_children":[1,3,5,7,9,11,13,-1,-1,-1,-1,-1,-1,-1,-1],"loss_changes":[2.0291822E-1,2.7858803E-1,2.5979018E-1,1.20977074E-1,1.0078655E-1,1.0825792E-1,2.873593E-1,0E0,0E0,0E0,0E0,0E0,0E0,0E0,0E0],"parents":[2147483647,0,0,1,1,2,2,3,3,4,4,5,5,6,6],"right_children":[2,4,6,8,10,12,14,-1,-1,-1,-1,-1,-1,-1,-1],"split_conditions":[9.178572E0,2.7E1,2.8332133E0,5.7807436E0,7.57E2,8.58E2,5.480639E0,4.4669016E-4,5.5008554E-3,-0E0,-9.334664E-3,-1.5312503E-3,7.0103044E-3,1.8512229E-4,-8.029779E-3],"split_indices":[28,9,26,23,2,8,24,0,0,0,0,0,0,0,0],"split_type":[0,0,0,0,0,0,0,0,0,0,0,0,0,0,0],"sum_hessian":[1.14E2,6.7E1,4.7E1,5.6E1,1.1E1,9E0,3.8E1,3.4E1,2.2E1,6E0,5E0,3E0,6E0,1.4E1,2.4E1],"tree_param":{"num_deleted":"0","num_feature":"37","num_nodes":"15","size_leaf_vector":"1"}},{"base_weights":[-0E0,2.535526E-2,-4.690522E-2,6.1078053E-2,-1.1710935E-1,-1.5701815E-1,-0E0,1.1258068E-3,6.418498E-3,-0E0,-9.924775E-3,-1.0829184E-2,-0E0],"categories":[],"categories_nodes":[],"categories_segments":[],"categories_sizes":[],"default_left":[0,0,0,0,0,0,0,0,0,0,0,0,0],"id":15,"left_children":[1,3,5,7,9,11,-1,-1,-1,-1,-1,-1,-1],"loss_changes":[1.3750646E-1,3.949704E-1,2.3250714E-1,1.3011593E-1,1.4888515E-1,1.0166532E-1,0E0,0E0,0E0,0E0,0E0,0E0,0E0],"parents":[2147483647,0,0,1,1,2,2,3,3,4,4,5,5],"right_children":[2,4,6,8,10,12,-1,-1,-1,-1,-1,-1,-1],"split_conditions":[8.546E3,2.6E1,9.769E3,1.308E3,1.1931394E-2,1.5E1,-0E0,1.1258068E-3,6.418498E-3,-0E0,-9.924775E-3,-1.0829184E-2,-0E0],"split_indices":[2,9,2,8,34,9,0,0,0,0,0,0,0],"split_type":[0,0,0,0,0,0,0,0,0,0,0,0,0],"sum_hessian":[1.13E2,7.5E1,3.8E1,6.2E1,1.3E1,1.1E1,2.7E1,4.3E1,1.9E1,6E0,7E0,7E0,4E0],"tree_param":{"num_deleted":"0","num_feature":"37","num_nodes":"13","size_leaf_vector":"1"}},{"base_weights":[-0E0,8.0163917E-4,-8.537984E-2,4.421556E-3,-1.4954378E-1,4.932268E-4,-1.1764E-2],"categories":[],"categories_nodes":[],"categories_segments":[],"categories_sizes":[],"default_left":[0,0,0,0,0,0,0],"id":16,"left_children":[1,-1,3,-1,5,-1,-1],"loss_changes":[1.4731675E-1,0E0,2.282619E-1,0E0,2.4106386E-1,0E0,0E0],"parents":[2147483647,0,0,2,2,4,4],"right_children":[2,-1,4,-1,6,-1,-1],"split_conditions":[1.6659721E1,8.0163917E-4,1.64E2,4.421556E-3,2.08E2,4.932268E-4,-1.1764E-2],"split_indices":[27,0,0,0,4,0,0],"split_type":[0,0,0,0,0,0,0],"sum_hessian":[1.04E2,8.9E1,1.5E1,3E0,1.2E1,4E0,8E0],"tree_param":{"num_deleted":"0","num_feature":"37","num_nodes":"7","size_leaf_vector":"1"}},{"base_weights":[7.6127686E-3],"categories":[],"categories_nodes":[],"categories_segments":[],"categories_sizes":[],"default_left":[0],"id":17,"left_children":[-1],"loss_changes":[0E0],"parents":[2147483647],"right_children":[-1],"split_conditions":[3.8063843E-4],"split_indices":[0],"split_type":[0],"sum_hessian":[1.11E2],"tree_param":{"num_deleted":"0","num_feature":"37","num_nodes":"1","size_leaf_vector":"1"}},{"base_weights":[1.8138711E-3,3.9864402E-2,-5.425806E-2,3.2842827E-3,-2.5119137E-3,4.9654054E-3,-8.416696E-2,-6.6763493E-3,1.6240452E-3],"categories":[],"categories_nodes":[],"categories_segments":[],"categories_sizes":[],"default_left":[0,0,0,0,0,0,0,0,0],"id":18,"left_children":[1,3,5,-1,-1,-1,7,-1,-1],"loss_changes":[2.4040668E-1,1.725488E-1,2.157805E-1,0E0,0E0,0E0,2.5343522E-1,0E0,0E0],"parents":[2147483647,0,0,1,1,2,2,6,6],"right_children":[2,4,6,-1,-1,-1,8,-1,-1],"split_conditions":[6.961E3,2.6E1,2.972677E-4,3.2842827E-3,-2.5119137E-3,4.9654054E-3,9.9689495E-3,-6.6763493E-3,1.6240452E-3],"split_indices":[2,9,34,0,0,0,34,0,0],"split_type":[0,0,0,0,0,0,0,0,0],"sum_hessian":[1.1E2,6.8E1,4.2E1,5.5E1,1.3E1,5E0,3.7E1,2.7E1,1E1],"tree_param":{"num_deleted":"0","num_feature":"37","num_nodes":"9","size_leaf_vector":"1"}},{"base_weights":[1.210746E-3],"categories":[],"categories_nodes":[],"categories_segments":[],"categories_sizes":[],"default_left":[0],"id":19,"left_children":[-1],"loss_changes":[0E0],"parents":[2147483647],"right_children":[-1],"split_conditions":[6.0537302E-5],"split_indices":[0],"split_type":[0],"sum_hessian":[1.09E2],"tree_param":{"num_deleted":"0","num_feature":"37","num_nodes":"1","size_leaf_vector":"1"}},{"base_weights":[-7.997865E-3,7.0178043E-3,-1.1240758E-1,-1.6459467E-2,5.875138E-2,1.8559892E-3,-1.0265272E-2,1.7661462E-4,-4.6562366E-3,7.3901764E-3,4.9801078E-5],"categories":[],"categories_nodes":[],"categories_segments":[],"categories_sizes":[],"default_left":[0,0,0,0,0,0,0,0,0,0,0],"id":20,"left_children":[1,3,5,7,9,-1,-1,-1,-1,-1,-1],"loss_changes":[1.99815E-1,1.3063416E-1,2.7113128E-1,1.212655E-1,1.448158E-1,0E0,0E0,0E0,0E0,0E0,0E0],"parents":[2147483647,0,0,1,1,2,2,3,3,4,4],"right_children":[2,4,6,8,10,-1,-1,-1,-1,-1,-1],"split_conditions":[3.2879726E1,6.59E2,2.9305462E-4,4.33E2,7.73E2,1.8559892E-3,-1.0265272E-2,1.7661462E-4,-4.6562366E-3,7.3901764E-3,4.9801078E-5],"split_indices":[28,0,34,0,0,0,0,0,0,0,0],"split_type":[0,0,0,0,0,0,0,0,0,0,0],"sum_hessian":[1.11E2,9.7E1,1.4E1,6.5E1,3.2E1,5E0,9E0,5.1E1,1.4E1,1E1,2.2E1],"tree_param":{"num_deleted":"0","num_feature":"37","num_nodes":"11","size_leaf_vector":"1"}},{"base_weights":[-1.122307E-2,8.0501783E-4,-5.1353343E-2,4.4023383E-2,-9.909808E-2,-3.673893E-3,5.605172E-3,-6.9804504E-3,1.111714E-3],"categories":[],"categories_nodes":[],"categories_segments":[],"categories_sizes":[],"default_left":[0,0,0,0,0,0,0,0,0],"id":21,"left_children":[1,-1,3,5,7,-1,-1,-1,-1],"loss_changes":[1.2931883E-1,0E0,2.3831955E-1,1.5219122E-1,1.9680288E-1,0E0,0E0,0E0,0E0],"parents":[2147483647,0,0,2,2,3,3,4,4],"right_children":[2,-1,4,6,8,-1,-1,-1,-1],"split_conditions":[9.178572E0,8.0501783E-4,2.2E1,1.038E3,8.8E1,-3.673893E-3,5.605172E-3,-6.9804504E-3,1.111714E-3],"split_indices":[28,0,7,8,7,0,0,0,0],"split_type":[0,0,0,0,0,0,0,0,0],"sum_hessian":[1.08E2,6.2E1,4.6E1,1.4E1,3.2E1,4E0,1E1,2.5E1,7E0],"tree_param":{"num_deleted":"0","num_feature":"37","num_nodes":"9","size_leaf_vector":"1"}},{"base_weights":[1.673847E-2],"categories":[],"categories_nodes":[],"categories_segments":[],"categories_sizes":[],"default_left":[0],"id":22,"left_children":[-1],"loss_changes":[0E0],"parents":[2147483647],"right_children":[-1],"split_conditions":[8.3692354E-4],"split_indices":[0],"split_type":[0],"sum_hessian":[1.13E2],"tree_param":{"num_deleted":"0","num_feature":"37","num_nodes":"1","size_leaf_vector":"1"}},{"base_weights":[5.097054E-3],"categories":[],"categories_nodes":[],"categories_segments":[],"categories_sizes":[],"default_left":[0],"id":23,"left_children":[-1],"loss_changes":[0E0],"parents":[2147483647],"right_children":[-1],"split_conditions":[2.548527E-4],"split_indices":[0],"split_type":[0],"sum_hessian":[1.14E2],"tree_param":{"num_deleted":"0","num_feature":"37","num_nodes":"1","size_leaf_vector":"1"}},{"base_weights":[-2.2495713E-3,2.076557E-2,-4.2906817E-2,5.3763933E-2,-7.8613214E-2,-0E0,-1.24395534E-1,5.143715E-4,6.049645E-3,-8.21807E-3,1.6971916E-3,-3.7348324E-3,3.843647E-3,-9.923388E-3,-0E0],"categories":[],"categories_nodes":[],"categories_segments":[],"categories_sizes":[],"default_left":[0,0,0,0,0,0,0,0,0,0,0,0,0,0,0],"id":24,"left_children":[1,3,5,7,9,11,13,-1,-1,-1,-1,-1,-1,-1,-1],"loss_changes":[1.12883694E-1,2.3631617E-1,1.3379474E-1,1.3493581E-1,2.0131817E-1,2.0056336E-1,1.3786559E-1,0E0,0E0,0E0,0E0,0E0,0E0,0E0,0E0],"parents":[2147483647,0,0,1,1,2,2,3,3,4,4,5,5,6,6],"right_children":[2,4,6,8,10,12,14,-1,-1,-1,-1,-1,-1,-1,-1],"split_conditions":[6.961E3,2.6E1,1.6227932E1,1.5E1,6.98E2,9.970233E0,3.2893444E1,5.143715E-4,6.049645E-3,-8.21807E-3,1.6971916E-3,-3.7348324E-3,3.843647E-3,-9.923388E-3,-0E0],"split_indices":[2,9,27,9,4,27,27,0,0,0,0,0,0,0,0],"split_type":[0,0,0,0,0,0,0,0,0,0,0,0,0,0,0],"sum_hessian":[1.12E2,6.9E1,4.3E1,5.4E1,1.5E1,3.1E1,1.2E1,3.6E1,1.8E1,9E0,6E0,1.7E1,1.4E1,7E0,5E0],"tree_param":{"num_deleted":"0","num_feature":"37","num_nodes":"15","size_leaf_vector":"1"}},{"base_weights":[7.6731306E-4],"categories":[],"categories_nodes":[],"categories_segments":[],"categories_sizes":[],"default_left":[0],"id":25,"left_children":[-1],"loss_changes":[0E0],"parents":[2147483647],"right_children":[-1],"split_conditions":[3.8365655E-5],"split_indices":[0],"split_type":[0],"sum_hessian":[1.1E2],"tree_param":{"num_deleted":"0","num_feature":"37","num_nodes":"1","size_leaf_vector":"1"}},{"base_weights":[-4.697467E-3,2.4530056E-3,-2.7239121E-2,-0E0,-1.04269624E-1,-1.0095135E-3,6.4807357E-3,-0E0,-1.1297034E-2],"categories":[],"categories_nodes":[],"categories_segments":[],"categories_sizes":[],"default_left":[0,0,0,0,0,0,0,0,0],"id":26,"left_children":[1,-1,3,5,7,-1,-1,-1,-1],"loss_changes":[1.2918127E-1,0E0,1.580855E-1,1.5722802E-1,2.4199966E-1,0E0,0E0,0E0,0E0],"parents":[2147483647,0,0,2,2,3,3,4,4],"right_children":[2,-1,4,6,8,-1,-1,-1,-1],"split_conditions":[2.972677E-4,2.4530056E-3,2.4541529E1,1.4525659E1,5.6312118E0,-1.0095135E-3,6.4807357E-3,-0E0,-1.1297034E-2],"split_indices":[34,0,28,28,24,0,0,0,0],"split_type":[0,0,0,0,0,0,0,0,0],"sum_hessian":[1.06E2,2.8E1,7.8E1,6E1,1.8E1,5.4E1,6E0,1.1E1,7E0],"tree_param":{"num_deleted":"0","num_feature":"37","num_nodes":"9","size_leaf_vector":"1"}},{"base_weights":[3.977713E-3,2.4136802E-2,-6.252595E-2,-0E0,5.584518E-3,-1.1414241E-1,8.8636123E-4,1.1369665E-3,-4.3049413E-3,-0E0,-7.6002823E-3],"categories":[],"categories_nodes":[],"categories_segments":[],"categories_sizes":[],"default_left":[0,0,0,0,0,0,0,0,0,0,0],"id":27,"left_children":[1,3,5,7,-1,9,-1,-1,-1,-1,-1],"loss_changes":[1.4951564E-1,1.9589686E-1,1.2688953E-1,1.4963275E-1,0E0,1.0199565E-1,0E0,0E0,0E0,0E0,0E0],"parents":[2147483647,0,0,1,1,2,2,3,3,5,5],"right_children":[2,4,6,8,-1,10,-1,-1,-1,-1,-1],"split_conditions":[1.2734234E1,9.970233E0,3.2893444E1,1.0133052E1,5.584518E-3,7.02E2,8.8636123E-4,1.1369665E-3,-4.3049413E-3,-0E0,-7.6002823E-3],"split_indices":[27,27,27,28,0,8,0,0,0,0,0],"split_type":[0,0,0,0,0,0,0,0,0,0,0],"sum_hessian":[1.13E2,9E1,2.3E1,7.2E1,1.8E1,1.5E1,8E0,5.8E1,1.4E1,3E0,1.2E1],"tree_param":{"num_deleted":"0","num_feature":"37","num_nodes":"11","size_leaf_vector":"1"}},{"base_weights":[2.0639868E-3],"categories":[],"categories_nodes":[],"categories_segments":[],"categories_sizes":[],"default_left":[0],"id":28,"left_children":[-1],"loss_changes":[0E0],"parents":[2147483647],"right_children":[-1],"split_conditions":[1.03199345E-4],"split_indices":[0],"split_type":[0],"sum_hessian":[1.11E2],"tree_param":{"num_deleted":"0","num_feature":"37","num_nodes":"1","size_leaf_vector":"1"}},{"base_weights":[-0E0],"categories":[],"categories_nodes":[],"categories_segments":[],"categories_sizes":[],"default_left":[0],"id":29,"left_children":[-1],"loss_changes":[0E0],"parents":[2147483647],"right_children":[-1],"split_conditions":[-0E0],"split_indices":[0],"split_type":[0],"sum_hessian":[1.18E2],"tree_param":{"num_deleted":"0","num_feature":"37","num_nodes":"1","size_leaf_vector":"1"}},{"base_weights":[6.5171355E-3,4.736492E-2,-1.7071217E-2,-0E0,6.1669997E-3,1.1364942E-2,-1.1727648E-2,1.859319E-3,-7.0504234E-3,-7.6868604E-3,1.7173722E-3],"categories":[],"categories_nodes":[],"categories_segments":[],"categories_sizes":[],"default_left":[0,0,0,0,0,0,0,0,0,0,0],"id":30,"left_children":[1,3,5,7,-1,9,-1,-1,-1,-1,-1],"loss_changes":[1.1655501E-1,1.4244947E-1,4.8287317E-1,1.5663666E-1,0E0,2.2573403E-1,0E0,0E0,0E0,0E0,0E0],"parents":[2147483647,0,0,1,1,2,2,3,3,5,5],"right_children":[2,4,6,8,-1,10,-1,-1,-1,-1,-1],"split_conditions":[5.7071104E0,1.0661134E1,2.2590061E1,5.521569E0,6.1669997E-3,6.082219E0,-1.1727648E-2,1.859319E-3,-7.0504234E-3,-7.6868604E-3,1.7173722E-3],"split_indices":[24,27,28,27,0,24,0,0,0,0,0],"split_type":[0,0,0,0,0,0,0,0,0,0,0],"sum_hessian":[1.11E2,4.3E1,6.8E1,2.9E1,1.4E1,6.1E1,7E0,2.5E1,4E0,5E0,5.6E1],"tree_param":{"num_deleted":"0","num_feature":"37","num_nodes":"11","size_leaf_vector":"1"}},{"base_weights":[7.1626E-3],"categories":[],"categories_nodes":[],"categories_segments":[],"categories_sizes":[],"default_left":[0],"id":31,"left_children":[-1],"loss_changes":[0E0],"parents":[2147483647],"right_children":[-1],"split_conditions":[3.5813E-4],"split_indices":[0],"split_type":[0],"sum_hessian":[1.16E2],"tree_param":{"num_deleted":"0","num_feature":"37","num_nodes":"1","size_leaf_vector":"1"}},{"base_weights":[1.0647032E-2],"categories":[],"categories_nodes":[],"categories_segments":[],"categories_sizes":[],"default_left":[0],"id":32,"left_children":[-1],"loss_changes":[0E0],"parents":[2147483647],"right_children":[-1],"split_conditions":[5.323516E-4],"split_indices":[0],"split_type":[0],"sum_hessian":[1.11E2],"tree_param":{"num_deleted":"0","num_feature":"37","num_nodes":"1","size_leaf_vector":"1"}},{"base_weights":[-8.622008E-3,5.8009257E-3,-1.15997106E-1,-8.813294E-3,6.684281E-2,-9.429231E-3,-0E0,3.9517818E-4,-6.588635E-3,-6.1612595E-3,6.017547E-3],"categories":[],"categories_nodes":[],"categories_segments":[],"categories_sizes":[],"default_left":[0,0,0,0,0,0,0,0,0,0,0],"id":33,"left_children":[1,3,5,7,9,-1,-1,-1,-1,-1,-1],"loss_changes":[1.9683538E-1,1.011E-1,1.5381171E-1,1.8924089E-1,2.5282973E-1,0E0,0E0,0E0,0E0,0E0,0E0],"parents":[2147483647,0,0,1,1,2,2,3,3,4,4],"right_children":[2,4,6,8,10,-1,-1,-1,-1,-1,-1],"split_conditions":[1.6659721E1,1.0661134E1,1.4E1,2.1985106E1,5.7807436E0,-9.429231E-3,-0E0,3.9517818E-4,-6.588635E-3,-6.1612595E-3,6.017547E-3],"split_indices":[27,27,9,28,23,0,0,0,0,0,0],"split_type":[0,0,0,0,0,0,0,0,0,0,0],"sum_hessian":[1.1E2,9.7E1,1.3E1,7.7E1,2E1,8E0,5E0,6.8E1,9E0,3E0,1.7E1],"tree_param":{"num_deleted":"0","num_feature":"37","num_nodes":"11","size_leaf_vector":"1"}},{"base_weights":[1.6808986E-3],"categories":[],"categories_nodes":[],"categories_segments":[],"categories_sizes":[],"default_left":[0],"id":34,"left_children":[-1],"loss_changes":[0E0],"parents":[2147483647],"right_children":[-1],"split_conditions":[8.404493E-5],"split_indices":[0],"split_type":[0],"sum_hessian":[1.14E2],"tree_param":{"num_deleted":"0","num_feature":"37","num_nodes":"1","size_leaf_vector":"1"}},{"base_weights":[-0E0],"categories":[],"categories_nodes":[],"categories_segments":[],"categories_sizes":[],"default_left":[0],"id":35,"left_children":[-1],"loss_changes":[0E0],"parents":[2147483647],"right_children":[-1],"split_conditions":[-0E0],"split_indices":[0],"split_type":[0],"sum_hessian":[1.1E2],"tree_param":{"num_deleted":"0","num_feature":"37","num_nodes":"1","size_leaf_vector":"1"}},{"base_weights":[-1.9082051E-3],"categories":[],"categories_nodes":[],"categories_segments":[],"categories_sizes":[],"default_left":[0],"id":36,"left_children":[-1],"loss_changes":[0E0],"parents":[2147483647],"right_children":[-1],"split_conditions":[-9.541026E-5],"split_indices":[0],"split_type":[0],"sum_hessian":[1.1E2],"tree_param":{"num_deleted":"0","num_feature":"37","num_nodes":"1","size_leaf_vector":"1"}},{"base_weights":[1.3408482E-2],"categories":[],"categories_nodes":[],"categories_segments":[],"categories_sizes":[],"default_left":[0],"id":37,"left_children":[-1],"loss_changes":[0E0],"parents":[2147483647],"right_children":[-1],"split_conditions":[6.7042414E-4],"split_indices":[0],"split_type":[0],"sum_hessian":[1.07E2],"tree_param":{"num_deleted":"0","num_feature":"37","num_nodes":"1","size_leaf_vector":"1"}},{"base_weights":[-0E0],"categories":[],"categories_nodes":[],"categories_segments":[],"categories_sizes":[],"default_left":[0],"id":38,"left_children":[-1],"loss_changes":[0E0],"parents":[2147483647],"right_children":[-1],"split_conditions":[-0E0],"split_indices":[0],"split_type":[0],"sum_hessian":[1.14E2],"tree_param":{"num_deleted":"0","num_feature":"37","num_nodes":"1","size_leaf_vector":"1"}},{"base_weights":[-0E0,-7.766437E-3,6.152897E-3,1.8716507E-2,-5.0479516E-2,2.1561962E-3,-3.016384E-3,1.2268225E-3,-5.346836E-3],"categories":[],"categories_nodes":[],"categories_segments":[],"categories_sizes":[],"default_left":[0,0,0,0,0,0,0,0,0],"id":39,"left_children":[1,3,-1,5,7,-1,-1,-1,-1],"loss_changes":[1.2753971E-1,1.2814602E-1,0E0,1.2523529E-1,2.0807613E-1,0E0,0E0,0E0,0E0],"parents":[2147483647,0,0,1,1,3,3,4,4],"right_children":[2,4,-1,6,8,-1,-1,-1,-1],"split_conditions":[1.05157E5,9.178572E0,6.152897E-3,2.7E1,3E2,2.1561962E-3,-3.016384E-3,1.2268225E-3,-5.346836E-3],"split_indices":[2,28,0,9,4,0,0,0,0],"split_type":[0,0,0,0,0,0,0,0,0],"sum_hessian":[1.1E2,1.04E2,6E0,6.2E1,4.2E1,5E1,1.2E1,1.7E1,2.5E1],"tree_param":{"num_deleted":"0","num_feature":"37","num_nodes":"9","size_leaf_vector":"1"}},{"base_weights":[-3.7105326E-3],"categories":[],"categories_nodes":[],"categories_segments":[],"categories_sizes":[],"default_left":[0],"id":40,"left_children":[-1],"loss_changes":[0E0],"parents":[2147483647],"right_children":[-1],"split_conditions":[-1.8552663E-4],"split_indices":[0],"split_type":[0],"sum_hessian":[1.13E2],"tree_param":{"num_deleted":"0","num_feature":"37","num_nodes":"1","size_leaf_vector":"1"}},{"base_weights":[9.339498E-3],"categories":[],"categories_nodes":[],"categories_segments":[],"categories_sizes":[],"default_left":[0],"id":41,"left_children":[-1],"loss_changes":[0E0],"parents":[2147483647],"right_children":[-1],"split_conditions":[4.6697492E-4],"split_indices":[0],"split_type":[0],"sum_hessian":[1.13E2],"tree_param":{"num_deleted":"0","num_feature":"37","num_nodes":"1","size_leaf_vector":"1"}},{"base_weights":[-0E0,2.0861551E-3,-2.3519373E-2,-8.357864E-3,3.469572E-4],"categories":[],"categories_nodes":[],"categories_segments":[],"categories_sizes":[],"default_left":[0,0,0,0,0],"id":42,"left_children":[1,-1,3,-1,-1],"loss_changes":[1.1349507E-1,0E0,3.537383E-1,0E0,0E0],"parents":[2147483647,0,0,2,2],"right_children":[2,-1,4,-1,-1],"split_conditions":[5.6312118E0,2.0861551E-3,6.082219E0,-8.357864E-3,3.469572E-4],"split_indices":[24,0,24,0,0],"split_type":[0,0,0,0,0],"sum_hessian":[1.11E2,4E1,7.1E1,1.2E1,5.9E1],"tree_param":{"num_deleted":"0","num_feature":"37","num_nodes":"5","size_leaf_vector":"1"}},{"base_weights":[-0E0],"categories":[],"categories_nodes":[],"categories_segments":[],"categories_sizes":[],"default_left":[0],"id":43,"left_children":[-1],"loss_changes":[0E0],"parents":[2147483647],"right_children":[-1],"split_conditions":[-0E0],"split_indices":[0],"split_type":[0],"sum_hessian":[1.08E2],"tree_param":{"num_deleted":"0","num_feature":"37","num_nodes":"1","size_leaf_vector":"1"}}]},"name":"gbtree"},"learner_model_param":{"base_score":"7.1553886E-1","boost_from_average":"1","num_class":"0","num_feature":"37","num_target":"1"},"objective":{"name":"reg:squarederror","reg_loss_param":{"scale_pos_weight":"1"}}},"version":[2,1,4]}