{"learner":{"attributes":{"best_iteration":"99","best_score":"0.00588814645299141"},"feature_names":[],"feature_types":[],"gradient_booster":{"model":{"gbtree_model_param":{"num_parallel_tree":"1","num_trees":"100"},"iteration_indptr":[0,1,2,3,4,5,6,7,8,9,10,11,12,13,14,15,16,17,18,19,20,21,22,23,24,25,26,27,28,29,30,31,32,33,34,35,36,37,38,39,40,41,42,43,44,45,46,47,48,49,50,51,52,53,54,55,56,57,58,59,60,61,62,63,64,65,66,67,68,69,70,71,72,73,74,75,76,77,78,79,80,81,82,83,84,85,86,87,88,89,90,91,92,93,94,95,96,97,98,99,100],"tree_info":[0,0,0,0,0,0,0,0,0,0,0,0,0,0,0,0,0,0,0,0,0,0,0,0,0,0,0,0,0,0,0,0,0,0,0,0,0,0,0,0,0,0,0,0,0,0,0,0,0,0,0,0,0,0,0,0,0,0,0,0,0,0,0,0,0,0,0,0,0,0,0,0,0,0,0,0,0,0,0,0,0,0,0,0,0,0,0,0,0,0,0,0,0,0,0,0,0,0,0,0],"trees":[{"base_weights":[-3.6028044E-3,-3.795414E-1,1.7573504E-1,-6.651955E-2,-2.5097516E-1,3.8286056E-2,2.3395142E-1,-3.2822022E-1,-1.8707107E-1,-4.975674E-2,9.494337E-2,1.7940703E-1,2.6325828E-1,-3.736205E-2,-2.9197901E-2,-2.2245203E-1,-1.5126042E-1,-8.393038E-2,-2.221005E-2,4.340707E-2,1.09488755E-1,1.6202044E-1,2.2500193E-2,2.0084767E-1,2.7013317E-1,-2.6497144E-2,-2.0015523E-2,-1.7259698E-1,-1.2751788E-2,-1.3532214E-2,-6.933389E-2,-8.57719E-2,-1.2242952E-2,-6.9310307E-3,4.8250873E-2,5.244153E-2,1.16350785E-1,1.2188726E-1,1.7003833E-1,1.366356E-1,2.1044057E-2,2.5039774E-1,2.925293E-2,-1.7421853E-2,-4.413822E-3,-8.132605E-3,-5.6994576E-3,-9.167961E-3,-1.6301245E-3,-3.2905128E-3,5.88956E-4,-2.7427278E-3,1.5875557E-3,1.221478E-4,5.0515197E-3,5.485364E-3,4.5118036E-4,2.7059277E-3,1.174331E-2,1.0118212E-2,1.501545E-2,1.4949377E-2,1.807375E-2,4.0607722E-3,1.427934E-2,2.2934457E-2,2.6666854E-2],"categories":[],"categories_nodes":[],"categories_segments":[],"categories_sizes":[],"default_left":[0,0,0,0,0,0,0,0,0,0,0,0,0,0,0,0,0,0,0,0,0,0,0,0,0,0,0,0,0,0,0,0,0,0,0,0,0,0,0,0,0,0,0,0,0,0,0,0,0,0,0,0,0,0,0,0,0,0,0,0,0,0,0,0,0,0,0],"id":0,"left_children":[1,3,5,-1,7,9,11,13,15,17,19,21,23,-1,-1,25,27,29,31,33,35,37,-1,39,41,-1,-1,43,-1,-1,45,47,49,51,53,55,57,59,61,63,-1,65,-1,-1,-1,-1,-1,-1,-1,-1,-1,-1,-1,-1,-1,-1,-1,-1,-1,-1,-1,-1,-1,-1,-1,-1,-1],"loss_changes":[1.1272555E2,1.9664803E1,9.049061E0,0E0,1.7847652E0,1.6907587E0,1.2235985E0,1.6732979E-1,2.2862434E-1,1.2333819E-1,1.4966822E-1,1.8630409E-1,1.6671371E-1,0E0,0E0,4.366541E-2,3.168893E-2,3.487581E-2,4.646444E-2,1.1794329E-2,5.6532025E-2,4.5884132E-2,0E0,5.125284E-3,1.3051224E-1,0E0,0E0,3.350377E-3,0E0,0E0,2.467662E-3,2.6096404E-3,2.4921168E-2,2.7726705E-3,4.5173615E-3,1.9491315E-3,1.0545373E-2,7.047653E-3,1.034832E-2,1.1467934E-4,0E0,2.516365E-2,0E0,0E0,0E0,0E0,0E0,0E0,0E0,0E0,0E0,0E0,0E0,0E0,0E0,0E0,0E0,0E0,0E0,0E0,0E0,0E0,0E0,0E0,0E0,0E0,0E0],"parents":[2147483647,0,0,1,1,2,2,4,4,5,5,6,6,7,7,8,8,9,9,10,10,11,11,12,12,15,15,16,16,17,17,18,18,19,19,20,20,21,21,23,23,24,24,27,27,30,30,31,31,32,32,33,33,34,34,35,35,36,36,37,37,38,38,39,39,41,41],"right_children":[2,4,6,-1,8,10,12,14,16,18,20,22,24,-1,-1,26,28,30,32,34,36,38,-1,40,42,-1,-1,44,-1,-1,46,48,50,52,54,56,58,60,62,64,-1,66,-1,-1,-1,-1,-1,-1,-1,-1,-1,-1,-1,-1,-1,-1,-1,-1,-1,-1,-1,-1,-1,-1,-1,-1,-1],"split_conditions":[1.97E2,1E0,7.956E3,-6.651955E-2,3.7E1,1.032E3,1.9995E4,1.2E1,8.3E1,4.19E2,1.877E3,8E-1,1E0,-3.736205E-2,-2.9197901E-2,1E0,5E0,1E0,1E0,1E0,1E0,1E0,2.2500193E-2,2.48E4,3.8799E4,-2.6497144E-2,-2.0015523E-2,1.89E2,-1.2751788E-2,-1.3532214E-2,2.68E2,9.8515934E-1,5.97E2,4E0,1E0,1E0,1.3E1,2.4E-3,1.1645E4,9E0,2.1044057E-2,8E-1,2.925293E-2,-1.7421853E-2,-4.413822E-3,-8.132605E-3,-5.6994576E-3,-9.167961E-3,-1.6301245E-3,-3.2905128E-3,5.88956E-4,-2.7427278E-3,1.5875557E-3,1.221478E-4,5.0515197E-3,5.485364E-3,4.5118036E-4,2.7059277E-3,1.174331E-2,1.0118212E-2,1.501545E-2,1.4949377E-2,1.807375E-2,4.0607722E-3,1.427934E-2,2.2934457E-2,2.6666854E-2],"split_indices":[57,33,57,0,57,57,57,57,57,57,57,5,17,0,0,17,41,17,17,25,17,17,0,57,57,0,0,57,0,0,57,0,57,3,17,1,13,7,57,13,0,5,0,0,0,0,0,0,0,0,0,0,0,0,0,0,0,0,0,0,0,0,0,0,0,0,0],"split_type":[0,0,0,0,0,0,0,0,0,0,0,0,0,0,0,0,0,0,0,0,0,0,0,0,0,0,0,0,0,0,0,0,0,0,0,0,0,0,0,0,0,0,0,0,0,0,0,0,0,0,0,0,0,0,0,0,0,0,0,0,0,0,0,0,0,0,0],"sum_hessian":[1.67E3,5.39E2,1.131E3,1.66E2,3.73E2,3.37E2,7.94E2,1.67E2,2.06E2,1.32E2,2.05E2,2.8E2,5.14E2,7E1,9.7E1,1.01E2,1.05E2,5.8E1,7.4E1,4.6E1,1.59E2,2.06E2,7.4E1,5.4E1,4.6E2,3.1E1,7E1,5.2E1,5.3E1,1.1E1,4.7E1,9E0,6.5E1,4E0,4.2E1,1.8E1,1.41E2,3.7E1,1.69E2,9E0,4.5E1,2.51E2,2.09E2,5.1E1,1E0,2.1E1,2.6E1,8E0,1E0,3E1,3.5E1,2E0,2E0,2E0,4E1,1.7E1,1E0,2E0,1.39E2,2.4E1,1.3E1,6.3E1,1.06E2,1E0,8E0,1.16E2,1.35E2],"tree_param":{"num_deleted":"0","num_feature":"65","num_nodes":"67","size_leaf_vector":"1"}},{"base_weights":[2.8421863E-3,-3.3006036E-1,1.6263288E-1,-5.9508395E-1,-2.1389611E-1,1.7965382E-2,1.9898093E-1,-5.9809536E-2,-2.3410555E-2,-2.70658E-1,-1.4959718E-1,-4.1312333E-2,6.0171526E-2,1.5573388E-1,2.2103466E-1,-2.9778352E-1,-1.923064E-1,-1.9757517E-1,-8.3476E-2,-1.0137654E-1,1.0305697E-2,4.34474E-2,1.11599326E-1,1.307408E-1,2.0849475E-1,1.0774024E-1,2.2378843E-1,-3.3065796E-2,-2.55212E-1,-2.3180677E-2,-1.5790594E-1,-2.4183677E-1,-1.604676E-1,-1.3436605E-1,-4.813414E-2,3.880489E-3,-1.0553902E-1,-1.722852E-2,5.177185E-2,1.022604E-1,5.4161707E-3,2.2731244E-3,1.1373277E-1,1.4068143E-1,7.48534E-2,1.4790279E-2,2.1777494E-2,1.1450692E-1,3.120005E-4,2.1071368E-1,2.4917698E-2,-2.5685934E-2,-7.2420686E-3,-1.6104644E-2,-3.0275017E-3,-2.444253E-2,-6.3970597E-3,-1.9104801E-2,-1.2668373E-2,-1.3677359E-2,-3.1069906E-3,-7.262341E-3,-4.6445793E-4,-1.3807398E-2,-7.6590884E-3,-5.6961826E-3,-5.8684556E-4,2.9808308E-3,7.2950916E-3,4.8784763E-3,1.08505925E-2,-5.820202E-3,4.3451684E-3,9.562233E-3,1.37967905E-2,9.596236E-3,1.4542169E-2,-6.6018947E-3,1.20737925E-2,1.6729207E-3,1.2029611E-2,1.9396702E-2,2.4439692E-2],"categories":[],"categories_nodes":[],"categories_segments":[],"categories_sizes":[],"default_left":[0,0,0,0,0,0,0,0,0,0,0,0,0,0,0,0,0,0,0,0,0,0,0,0,0,0,0,0,0,0,0,0,0,0,0,0,0,0,0,0,0,0,0,0,0,0,0,0,0,0,0,0,0,0,0,0,0,0,0,0,0,0,0,0,0,0,0,0,0,0,0,0,0,0,0,0,0,0,0,0,0,0,0],"id":1,"left_children":[1,3,5,7,9,11,13,-1,-1,15,17,19,21,23,25,27,29,31,33,35,37,39,41,43,45,47,49,-1,51,-1,53,55,57,59,61,-1,63,65,67,69,71,-1,73,75,77,-1,-1,79,-1,81,-1,-1,-1,-1,-1,-1,-1,-1,-1,-1,-1,-1,-1,-1,-1,-1,-1,-1,-1,-1,-1,-1,-1,-1,-1,-1,-1,-1,-1,-1,-1,-1,-1],"loss_changes":[8.856972E1,1.6497295E1,5.9121017E0,3.826523E-2,1.3354588E0,5.704135E-1,8.230095E-1,0E0,0E0,3.6567497E-1,5.5135965E-1,2.955824E-1,1.0954261E-1,3.7756872E-1,1.608963E-1,1.1994171E-1,3.6773205E-2,1.3036442E-1,1.3202071E-1,2.976948E-2,6.0262334E-2,2.2759269E-1,3.4817457E-3,1.066916E-1,2.2334099E-2,1.0969654E-2,1.3936234E-1,0E0,1.87397E-3,0E0,7.950723E-3,5.0826073E-3,3.675151E-2,3.4598112E-3,4.971899E-2,0E0,2.992332E-2,1.4109656E-2,7.593967E-3,8.065909E-3,1.5497325E-1,0E0,4.1341782E-4,2.3777246E-2,2.2774225E-1,0E0,0E0,6.4783394E-3,0E0,1.714592E-1,0E0,0E0,0E0,0E0,0E0,0E0,0E0,0E0,0E0,0E0,0E0,0E0,0E0,0E0,0E0,0E0,0E0,0E0,0E0,0E0,0E0,0E0,0E0,0E0,0E0,0E0,0E0,0E0,0E0,0E0,0E0,0E0,0E0],"parents":[2147483647,0,0,1,1,2,2,3,3,4,4,5,5,6,6,9,9,10,10,11,11,12,12,13,13,14,14,15,15,16,16,17,17,18,18,19,19,20,20,21,21,22,22,23,23,24,24,25,25,26,26,28,28,30,30,31,31,32,32,33,33,34,34,36,36,37,37,38,38,39,39,40,40,42,42,43,43,44,44,47,47,49,49],"right_children":[2,4,6,8,10,12,14,-1,-1,16,18,20,22,24,26,28,30,32,34,36,38,40,42,44,46,48,50,-1,52,-1,54,56,58,60,62,-1,64,66,68,70,72,-1,74,76,78,-1,-1,80,-1,82,-1,-1,-1,-1,-1,-1,-1,-1,-1,-1,-1,-1,-1,-1,-1,-1,-1,-1,-1,-1,-1,-1,-1,-1,-1,-1,-1,-1,-1,-1,-1,-1,-1],"split_conditions":[5.5E1,2.2657754E-4,4.38E2,1E0,9E0,1.3E2,1.626E3,-5.9809536E-2,-2.3410555E-2,1.1029915E1,6.424635E0,5.3981557E0,2.832E3,1.336E4,1E0,1E0,1E0,1E0,1E0,1E0,1.2475421E1,1E0,4E0,1E0,1E0,4.852E3,6.203E3,-3.3065796E-2,1.0539216E1,-2.3180677E-2,1.9917356E0,1.4801562E2,2.5588236E0,6.066754E-1,1.85553E1,3.880489E-3,2.2666667E0,1E0,1.692E3,1E0,3.6666667E0,2.2731244E-3,5.089E3,1E0,1.33E0,1.4790279E-2,2.1777494E-2,4E0,3.120005E-4,2.2352E4,2.4917698E-2,-2.5685934E-2,-7.2420686E-3,-1.6104644E-2,-3.0275017E-3,-2.444253E-2,-6.3970597E-3,-1.9104801E-2,-1.2668373E-2,-1.3677359E-2,-3.1069906E-3,-7.262341E-3,-4.6445793E-4,-1.3807398E-2,-7.6590884E-3,-5.6961826E-3,-5.8684556E-4,2.9808308E-3,7.2950916E-3,4.8784763E-3,1.08505925E-2,-5.820202E-3,4.3451684E-3,9.562233E-3,1.37967905E-2,9.596236E-3,1.4542169E-2,-6.6018947E-3,1.20737925E-2,1.6729207E-3,1.2029611E-2,1.9396702E-2,2.4439692E-2],"split_indices":[14,59,14,3,14,14,14,0,0,58,58,58,62,62,25,30,30,30,30,33,58,33,49,33,60,3,14,0,58,0,59,12,58,4,58,0,58,30,62,30,58,0,62,30,58,0,0,41,0,62,0,0,0,0,0,0,0,0,0,0,0,0,0,0,0,0,0,0,0,0,0,0,0,0,0,0,0,0,0,0,0,0,0],"split_type":[0,0,0,0,0,0,0,0,0,0,0,0,0,0,0,0,0,0,0,0,0,0,0,0,0,0,0,0,0,0,0,0,0,0,0,0,0,0,0,0,0,0,0,0,0,0,0,0,0,0,0,0,0,0,0,0,0,0,0,0,0,0,0,0,0,0,0,0,0,0,0,0,0,0,0,0,0,0,0,0,0,0,0],"sum_hessian":[1.663E3,5.39E2,1.124E3,1.63E2,3.76E2,2.26E2,8.98E2,1.61E2,2E0,1.98E2,1.78E2,9.4E1,1.32E2,3.06E2,5.92E2,1.45E2,5.3E1,1.02E2,7.6E1,4.3E1,5.1E1,1.01E2,3.1E1,2.1E2,9.6E1,1.5E1,5.77E2,7.8E1,6.7E1,2.2E1,3.1E1,4.4E1,5.8E1,3E1,4.6E1,1E0,4.2E1,3.1E1,2E1,3.9E1,6.2E1,1E0,3E1,1.77E2,3.3E1,1.5E1,8.1E1,1.4E1,1E0,3.87E2,1.9E2,6.6E1,1E0,3E1,1E0,4.3E1,1E0,2.8E1,3E1,2.9E1,1E0,2.9E1,1.7E1,1.8E1,2.4E1,6E0,2.5E1,1.1E1,9E0,5E0,3.4E1,2.3E1,3.9E1,2E1,1E1,1.9E1,1.58E2,8E0,2.5E1,1E0,1.3E1,2.63E2,1.24E2],"tree_param":{"num_deleted":"0","num_feature":"65","num_nodes":"83","size_leaf_vector":"1"}},{"base_weights":[-5.5676354E-3,-3.0888197E-1,1.4664708E-1,-5.3971738E-2,-2.0358573E-1,4.3649297E-2,1.9498521E-1,-2.6947498E-1,-1.4541912E-1,-3.795317E-2,8.340557E-2,1.5314136E-1,2.1597815E-1,-3.222133E-2,-2.3896421E-1,-1.8139346E-1,-1.19752824E-1,-1.0288034E-1,-2.3355003E-2,4.4240274E-2,9.584885E-2,1.3803291E-1,1.8588236E-2,1.5948549E-2,2.2182715E-1,-2.6898352E-2,-2.1037068E-2,-2.0753887E-2,-1.5224566E-2,-1.3960095E-2,-8.624528E-2,-1.0649896E-2,-1.5253961E-3,-3.9245933E-2,4.220042E-3,2.6313858E-2,5.2758593E-2,4.746732E-2,1.03033945E-1,9.542387E-2,1.4346501E-1,2.0935734E-1,2.4990415E-2,-1.1567674E-2,-7.839902E-3,-6.2020016E-3,-3.3564349E-3,-2.851634E-3,9.2032255E-4,-1.3781816E-3,2.9007734E-3,1.5262564E-3,5.4372908E-3,1.5045445E-3,5.4820515E-3,9.411859E-3,1.1488893E-2,3.5371482E-3,9.94588E-3,1.3373471E-2,1.5872493E-2,1.9982109E-2,2.2997268E-2],"categories":[],"categories_nodes":[],"categories_segments":[],"categories_sizes":[],"default_left":[0,0,0,0,0,0,0,0,0,0,0,0,0,0,0,0,0,0,0,0,0,0,0,0,0,0,0,0,0,0,0,0,0,0,0,0,0,0,0,0,0,0,0,0,0,0,0,0,0,0,0,0,0,0,0,0,0,0,0,0,0,0,0],"id":2,"left_children":[1,3,5,-1,7,9,11,13,15,17,19,21,23,-1,25,27,29,31,33,35,37,39,-1,-1,41,-1,-1,-1,-1,-1,43,-1,-1,45,47,49,51,53,55,57,59,61,-1,-1,-1,-1,-1,-1,-1,-1,-1,-1,-1,-1,-1,-1,-1,-1,-1,-1,-1,-1,-1],"loss_changes":[7.613165E1,1.3282787E1,5.4581223E0,0E0,1.4171839E0,1.1451273E0,6.231117E-1,2.0781136E-1,1.6663647E-1,1.0754405E-1,1.11260295E-1,9.949255E-2,1.2818336E-1,0E0,4.298258E-2,3.1656027E-2,6.909752E-2,5.034283E-3,4.2232156E-2,7.6211914E-3,5.7334304E-2,2.7277708E-2,0E0,0E0,1.0383034E-1,0E0,0E0,0E0,0E0,0E0,2.015531E-3,0E0,0E0,5.8113113E-3,6.135173E-3,2.6680464E-3,1.5308037E-3,5.135309E-3,5.568981E-3,2.055034E-3,1.7876625E-3,1.5973091E-2,0E0,0E0,0E0,0E0,0E0,0E0,0E0,0E0,0E0,0E0,0E0,0E0,0E0,0E0,0E0,0E0,0E0,0E0,0E0,0E0,0E0],"parents":[2147483647,0,0,1,1,2,2,4,4,5,5,6,6,7,7,8,8,9,9,10,10,11,11,12,12,14,14,15,15,16,16,17,17,18,18,19,19,20,20,21,21,24,24,30,30,33,33,34,34,35,35,36,36,37,37,38,38,39,39,40,40,41,41],"right_children":[2,4,6,-1,8,10,12,14,16,18,20,22,24,-1,26,28,30,32,34,36,38,40,-1,-1,42,-1,-1,-1,-1,-1,44,-1,-1,46,48,50,52,54,56,58,60,62,-1,-1,-1,-1,-1,-1,-1,-1,-1,-1,-1,-1,-1,-1,-1,-1,-1,-1,-1,-1,-1],"split_conditions":[2.31E2,1E0,9.788E3,-5.3971738E-2,3.9E1,1.032E3,2.0481E4,1E1,1E0,1E0,2.446E3,8E-1,1E0,-3.222133E-2,1E0,8.3E1,1.14E2,9.927878E-1,5.97E2,1.273E3,1E0,1E0,1.8588236E-2,1.5948549E-2,5.1295E4,-2.6898352E-2,-2.1037068E-2,-2.0753887E-2,-1.5224566E-2,-1.3960095E-2,1E0,-1.0649896E-2,-1.5253961E-3,1E0,1E0,1.3E1,1E0,1E0,6.743E3,4E0,1.5916E4,2.9449E4,2.4990415E-2,-1.1567674E-2,-7.839902E-3,-6.2020016E-3,-3.3564349E-3,-2.851634E-3,9.2032255E-4,-1.3781816E-3,2.9007734E-3,1.5262564E-3,5.4372908E-3,1.5045445E-3,5.4820515E-3,9.411859E-3,1.1488893E-2,3.5371482E-3,9.94588E-3,1.3373471E-2,1.5872493E-2,1.9982109E-2,2.2997268E-2],"split_indices":[57,33,57,0,57,57,57,57,30,17,57,5,17,0,30,57,57,0,57,57,17,30,0,0,57,0,0,0,0,0,17,0,0,30,30,13,17,30,57,41,57,62,0,0,0,0,0,0,0,0,0,0,0,0,0,0,0,0,0,0,0,0,0],"split_type":[0,0,0,0,0,0,0,0,0,0,0,0,0,0,0,0,0,0,0,0,0,0,0,0,0,0,0,0,0,0,0,0,0,0,0,0,0,0,0,0,0,0,0,0,0,0,0,0,0,0,0,0,0,0,0,0,0,0,0,0,0,0,0],"sum_hessian":[1.647E3,5.5E2,1.097E3,1.71E2,3.79E2,3.51E2,7.46E2,1.76E2,2.03E2,1.15E2,2.36E2,2.52E2,4.94E2,6.1E1,1.15E2,8.2E1,1.21E2,2E1,9.5E1,5.8E1,1.78E2,1.76E2,7.6E1,4.9E1,4.45E2,5.2E1,6.3E1,4E1,4.2E1,7.4E1,4.7E1,1.9E1,1E0,6E1,3.5E1,2E1,3.8E1,2.4E1,1.54E2,2.2E1,1.54E2,3.14E2,1.31E2,7E0,4E1,1E1,5E1,4E0,3.1E1,1E0,1.9E1,2E0,3.6E1,5E0,1.9E1,9.3E1,6.1E1,2E0,2E1,1E2,5.4E1,2.22E2,9.2E1],"tree_param":{"num_deleted":"0","num_feature":"65","num_nodes":"63","size_leaf_vector":"1"}},{"base_weights":[-8.7243784E-4,-2.7260095E-1,1.3571656E-1,-4.8599176E-2,-1.8206897E-1,3.9705716E-2,1.7581214E-1,-2.447746E-1,-1.2941241E-1,-2.8639738E-2,7.9873E-2,1.4449626E-1,2.0080677E-1,-2.815241E-1,-2.1149193E-1,-1.6425844E-1,-1.0475051E-1,-7.547487E-2,-1.3548223E-2,4.9539503E-2,8.738678E-2,1.265061E-1,1.7406665E-2,1.9351988E-1,2.3837695E-2,-3.0628745E-2,-2.368273E-2,-2.3652008E-2,-1.8625515E-2,-1.838802E-2,-1.3026306E-2,-1.2567799E-1,-7.624389E-2,-9.713676E-3,-4.7337208E-2,-4.132363E-2,-9.305752E-5,3.8156196E-2,5.7435747E-2,4.305626E-2,9.2453174E-2,9.114916E-2,1.3189612E-1,1.3728442E-2,1.9699371E-1,-1.3856912E-2,-1.0643639E-2,-1.0555503E-2,-7.015109E-3,-4.986175E-3,-5.9968233E-4,-1.18967E-3,-4.190797E-3,-3.5437555E-3,3.4429433E-4,3.9530713E-3,5.332947E-4,2.203703E-3,5.9652133E-3,1.4211786E-3,4.980067E-3,8.77359E-3,1.1702815E-2,6.118327E-3,1.03351055E-2,1.1579663E-2,1.4093448E-2,1.5363708E-2,1.9944083E-2],"categories":[],"categories_nodes":[],"categories_segments":[],"categories_sizes":[],"default_left":[0,0,0,0,0,0,0,0,0,0,0,0,0,0,0,0,0,0,0,0,0,0,0,0,0,0,0,0,0,0,0,0,0,0,0,0,0,0,0,0,0,0,0,0,0,0,0,0,0,0,0,0,0,0,0,0,0,0,0,0,0,0,0,0,0,0,0,0,0],"id":3,"left_children":[1,3,5,-1,7,9,11,13,15,17,19,21,23,25,27,29,31,33,35,37,39,41,-1,43,-1,-1,-1,-1,-1,-1,-1,45,47,-1,49,51,53,55,57,59,61,63,65,-1,67,-1,-1,-1,-1,-1,-1,-1,-1,-1,-1,-1,-1,-1,-1,-1,-1,-1,-1,-1,-1,-1,-1,-1,-1],"loss_changes":[6.279867E1,1.0845894E1,4.3276806E0,0E0,1.2857666E0,9.164563E-1,5.9247017E-1,1.6184425E-1,1.7099571E-1,8.6622275E-2,4.353392E-2,1.6736269E-1,7.405472E-2,1.9330502E-2,1.8478394E-2,3.5414457E-2,6.856871E-2,1.3687253E-2,3.549981E-2,1.7634258E-3,3.3526897E-2,3.0857086E-2,0E0,4.5822144E-2,0E0,0E0,0E0,0E0,0E0,0E0,0E0,3.606677E-3,2.9532611E-3,0E0,1.2664646E-3,3.4492463E-5,8.24559E-3,7.3662214E-4,5.6841224E-4,2.98848E-3,7.0055723E-3,5.7427585E-3,1.17640495E-2,0E0,6.386757E-3,0E0,0E0,0E0,0E0,0E0,0E0,0E0,0E0,0E0,0E0,0E0,0E0,0E0,0E0,0E0,0E0,0E0,0E0,0E0,0E0,0E0,0E0,0E0,0E0],"parents":[2147483647,0,0,1,1,2,2,4,4,5,5,6,6,7,7,8,8,9,9,10,10,11,11,12,12,13,13,14,14,15,15,16,16,17,17,18,18,19,19,20,20,21,21,23,23,31,31,32,32,34,34,35,35,36,36,37,37,38,38,39,39,40,40,41,41,42,42,44,44],"right_children":[2,4,6,-1,8,10,12,14,16,18,20,22,24,26,28,30,32,34,36,38,40,42,-1,44,-1,-1,-1,-1,-1,-1,-1,46,48,-1,50,52,54,56,58,60,62,64,66,-1,68,-1,-1,-1,-1,-1,-1,-1,-1,-1,-1,-1,-1,-1,-1,-1,-1,-1,-1,-1,-1,-1,-1,-1,-1],"split_conditions":[2.52E2,1E0,9.512E3,-4.8599176E-2,3.9E1,1.159E3,2.48E4,1.2E1,1E0,1E0,2.773E3,1E0,7.7457E4,1E0,1E0,1.03E2,1.14E2,1E0,3.98E2,1.713E3,1E0,1E0,1.7406665E-2,1E0,2.3837695E-2,-3.0628745E-2,-2.368273E-2,-2.3652008E-2,-1.8625515E-2,-1.838802E-2,-1.3026306E-2,7.3E1,1E0,-9.713676E-3,2.65E2,1E0,1E0,1.8538622E0,1E0,1E0,5.502E3,1E0,1.3477E4,1.3728442E-2,1E0,-1.3856912E-2,-1.0643639E-2,-1.0555503E-2,-7.015109E-3,-4.986175E-3,-5.9968233E-4,-1.18967E-3,-4.190797E-3,-3.5437555E-3,3.4429433E-4,3.9530713E-3,5.332947E-4,2.203703E-3,5.9652133E-3,1.4211786E-3,4.980067E-3,8.77359E-3,1.1702815E-2,6.118327E-3,1.03351055E-2,1.1579663E-2,1.4093448E-2,1.5363708E-2,1.9944083E-2],"split_indices":[57,33,57,0,57,57,57,57,30,30,57,60,57,30,30,57,57,17,57,57,17,30,0,30,0,0,0,0,0,0,0,57,17,0,14,20,17,15,17,30,62,17,57,0,17,0,0,0,0,0,0,0,0,0,0,0,0,0,0,0,0,0,0,0,0,0,0,0,0],"split_type":[0,0,0,0,0,0,0,0,0,0,0,0,0,0,0,0,0,0,0,0,0,0,0,0,0,0,0,0,0,0,0,0,0,0,0,0,0,0,0,0,0,0,0,0,0,0,0,0,0,0,0,0,0,0,0,0,0,0,0,0,0,0,0,0,0,0,0,0,0],"sum_hessian":[1.69E3,5.65E2,1.125E3,1.67E2,3.98E2,3.32E2,7.93E2,1.8E2,2.18E2,1.23E2,2.09E2,3.55E2,4.38E2,8.2E1,9.8E1,8.8E1,1.3E2,2.9E1,9.4E1,4.3E1,1.66E2,2.24E2,1.31E2,3.72E2,6.6E1,4.9E1,3.3E1,4.5E1,5.3E1,5.3E1,3.5E1,7.3E1,5.7E1,1.5E1,1.4E1,3E1,6.4E1,2E1,2.3E1,1.8E1,1.48E2,3.2E1,1.92E2,2.4E1,3.48E2,4E1,3.3E1,7E0,5E1,1.3E1,1E0,1E0,2.9E1,5E0,5.9E1,1.9E1,1E0,2E0,2.1E1,4E0,1.4E1,1.28E2,2E1,1.1E1,2.1E1,7.4E1,1.18E2,2.2E1,3.26E2],"tree_param":{"num_deleted":"0","num_feature":"65","num_nodes":"69","size_leaf_vector":"1"}},{"base_weights":[1.956748E-3,-2.450714E-1,1.2109691E-1,-4.3760147E-2,-1.6249315E-1,4.7168683E-2,1.6185512E-1,-2.1780226E-1,-1.1540422E-1,-2.2019902E-2,7.764088E-2,1.3766614E-1,1.8028057E-1,-2.5330687E-2,-1.8990871E-1,-1.4015728E-1,-8.648509E-2,-7.667048E-2,-1.2620553E-2,6.6742375E-2,9.6005514E-2,1.19726226E-1,1.597484E-2,1.3479269E-1,1.84699E-1,-2.2347929E-2,-1.735111E-2,-1.762425E-2,-1.2646033E-1,-1.3006982E-2,-7.715365E-2,-8.202795E-3,-2.254051E-3,-3.2580126E-2,9.117073E-3,3.158032E-2,7.251122E-2,6.1826427E-2,1.0118781E-1,9.3010366E-2,1.2622054E-2,9.298413E-3,1.4393117E-1,1.7396855E-1,2.0543156E-2,-1.514252E-2,-1.1395063E-2,-1.0043346E-2,-6.928289E-3,-3.9622267E-3,-2.0753478E-3,-5.6978845E-4,1.9336817E-3,1.2431418E-3,3.6459465E-3,4.279395E-3,7.743971E-3,3.0686825E-3,6.6651963E-3,2.6733398E-3,1.0174271E-2,7.6629906E-3,1.1987668E-2,6.9737034E-3,1.4938992E-2,1.6408084E-2,1.8900272E-2],"categories":[],"categories_nodes":[],"categories_segments":[],"categories_sizes":[],"default_left":[0,0,0,0,0,0,0,0,0,0,0,0,0,0,0,0,0,0,0,0,0,0,0,0,0,0,0,0,0,0,0,0,0,0,0,0,0,0,0,0,0,0,0,0,0,0,0,0,0,0,0,0,0,0,0,0,0,0,0,0,0,0,0,0,0,0,0],"id":4,"left_children":[1,3,5,-1,7,9,11,13,15,17,19,21,23,-1,25,27,29,31,33,35,37,39,-1,41,43,-1,-1,-1,45,-1,47,-1,-1,49,51,53,55,57,59,61,-1,-1,63,65,-1,-1,-1,-1,-1,-1,-1,-1,-1,-1,-1,-1,-1,-1,-1,-1,-1,-1,-1,-1,-1,-1,-1],"loss_changes":[4.9297127E1,8.593739E0,3.3972645E0,0E0,9.723673E-1,8.513661E-1,2.9964447E-1,1.25206E-1,1.3748837E-1,6.272868E-2,4.9633503E-2,1.07246876E-1,5.750847E-2,0E0,1.7372847E-2,3.2574892E-2,3.0228794E-2,3.3710375E-3,4.6721525E-2,3.401923E-2,1.181078E-2,1.949048E-2,0E0,1.8994212E-3,4.67968E-2,0E0,0E0,0E0,8.978367E-3,0E0,8.432984E-3,0E0,0E0,3.8416572E-3,7.983241E-3,2.0693745E-3,1.9094646E-2,3.5890564E-4,8.7445974E-4,7.977098E-3,0E0,0E0,2.1372437E-3,6.3004494E-3,0E0,0E0,0E0,0E0,0E0,0E0,0E0,0E0,0E0,0E0,0E0,0E0,0E0,0E0,0E0,0E0,0E0,0E0,0E0,0E0,0E0,0E0,0E0],"parents":[2147483647,0,0,1,1,2,2,4,4,5,5,6,6,7,7,8,8,9,9,10,10,11,11,12,12,14,14,15,15,16,16,17,17,18,18,19,19,20,20,21,21,23,23,24,24,28,28,30,30,33,33,34,34,35,35,36,36,37,37,38,38,39,39,42,42,43,43],"right_children":[2,4,6,-1,8,10,12,14,16,18,20,22,24,-1,26,28,30,32,34,36,38,40,-1,42,44,-1,-1,-1,46,-1,48,-1,-1,50,52,54,56,58,60,62,-1,-1,64,66,-1,-1,-1,-1,-1,-1,-1,-1,-1,-1,-1,-1,-1,-1,-1,-1,-1,-1,-1,-1,-1,-1,-1],"split_conditions":[2.52E2,1E0,1.2725E4,-4.3760147E-2,3.9E1,1.273E3,2.6308E4,1.2E1,9.6E1,1E0,7.956E3,8E-1,1E0,-2.5330687E-2,1E0,1E0,1E0,9.927878E-1,5.97E2,1E0,1E0,1E0,1.597484E-2,1E0,5.438E4,-2.2347929E-2,-1.735111E-2,-1.762425E-2,1E0,-1.3006982E-2,4.1E1,-8.202795E-3,-2.254051E-3,4.19E2,8.17E2,5E0,2.136E3,1E0,9.9E1,5E-1,1.2622054E-2,9.298413E-3,2.9413E4,8E-1,2.0543156E-2,-1.514252E-2,-1.1395063E-2,-1.0043346E-2,-6.928289E-3,-3.9622267E-3,-2.0753478E-3,-5.6978845E-4,1.9336817E-3,1.2431418E-3,3.6459465E-3,4.279395E-3,7.743971E-3,3.0686825E-3,6.6651963E-3,2.6733398E-3,1.0174271E-2,7.6629906E-3,1.1987668E-2,6.9737034E-3,1.4938992E-2,1.6408084E-2,1.8900272E-2],"split_indices":[57,33,57,0,57,57,57,57,57,17,57,5,17,0,17,17,17,0,57,17,17,17,0,25,57,0,0,0,25,0,13,0,0,57,57,41,57,25,14,5,0,0,57,5,0,0,0,0,0,0,0,0,0,0,0,0,0,0,0,0,0,0,0,0,0,0,0],"split_type":[0,0,0,0,0,0,0,0,0,0,0,0,0,0,0,0,0,0,0,0,0,0,0,0,0,0,0,0,0,0,0,0,0,0,0,0,0,0,0,0,0,0,0,0,0,0,0,0,0,0,0,0,0,0,0,0,0,0,0,0,0,0,0,0,0,0,0],"sum_hessian":[1.673E3,5.44E2,1.129E3,1.62E2,3.82E2,4.02E2,7.27E2,1.74E2,2.08E2,1.23E2,2.79E2,3.18E2,4.09E2,7.3E1,1.01E2,1.1E2,9.8E1,1.7E1,1.06E2,1.78E2,1.01E2,1.79E2,1.39E2,3.9E1,3.7E2,2.9E1,7.2E1,2.7E1,8.3E1,1.5E1,8.3E1,1.5E1,2E0,5.5E1,5.1E1,2.6E1,1.52E2,1.5E1,8.6E1,3.8E1,1.41E2,9E0,3E1,2.5E2,1.2E2,2.4E1,5.9E1,1.8E1,6.5E1,3.3E1,2.2E1,2.1E1,3E1,6E0,2E1,2.3E1,1.29E2,3E0,1.2E1,1E0,8.5E1,2.6E1,1.2E1,3E0,2.7E1,1.58E2,9.2E1],"tree_param":{"num_deleted":"0","num_feature":"65","num_nodes":"67","size_leaf_vector":"1"}},{"base_weights":[5.082034E-4,-2.1945967E-1,1.1019944E-1,-3.863576E-1,-1.4381288E-1,3.4512553E-2,1.4318427E-1,-3.941246E-2,-2.4801215E-2,-1.9798471E-1,-1.0747054E-1,-2.1262532E-2,6.525951E-2,1.22055866E-1,1.664895E-1,-2.2144336E-1,-1.6931453E-1,-1.3701254E-1,-8.852363E-2,-6.706109E-2,-9.4824685E-3,4.04213E-2,7.0830524E-2,1.0708871E-1,1.45818135E-2,1.5937585E-1,1.9430242E-2,-2.3894472E-2,-1.8494293E-2,-1.8125057E-2,-1.3866986E-2,-1.5246937E-2,-1.07069835E-2,-1.02011725E-1,-5.974081E-2,-8.261195E-3,-4.635167E-2,-3.622829E-2,2.1154915E-3,1.2520027E-2,4.2961944E-2,2.973791E-2,7.465823E-2,7.537254E-2,1.1236852E-1,1.0820921E-2,1.6321982E-1,-1.1640824E-2,-9.007606E-3,-6.1688973E-3,-3.0259204E-3,-5.0121443E-3,-1.7078618E-3,-5.174945E-3,-3.1054085E-3,-7.4831274E-4,1.5163089E-3,2.729456E-4,1.8137256E-3,9.092212E-4,4.361398E-3,1.8613487E-4,3.5578508E-3,6.944153E-3,9.967607E-3,5.9004324E-3,1.0155606E-2,9.8768845E-3,1.22878505E-2,1.2892126E-2,1.6580785E-2],"categories":[],"categories_nodes":[],"categories_segments":[],"categories_sizes":[],"default_left":[0,0,0,0,0,0,0,0,0,0,0,0,0,0,0,0,0,0,0,0,0,0,0,0,0,0,0,0,0,0,0,0,0,0,0,0,0,0,0,0,0,0,0,0,0,0,0,0,0,0,0,0,0,0,0,0,0,0,0,0,0,0,0,0,0,0,0,0,0,0,0],"id":5,"left_children":[1,3,5,7,9,11,13,-1,-1,15,17,19,21,23,25,27,29,31,33,35,37,39,41,43,-1,45,-1,-1,-1,-1,-1,-1,-1,47,49,-1,51,53,55,57,59,61,63,65,67,-1,69,-1,-1,-1,-1,-1,-1,-1,-1,-1,-1,-1,-1,-1,-1,-1,-1,-1,-1,-1,-1,-1,-1,-1,-1],"loss_changes":[4.0825558E1,7.052475E0,2.813631E0,9.02977E-2,7.445593E-1,5.91318E-1,3.6670685E-1,0E0,0E0,6.6753864E-2,1.19407654E-1,6.5723814E-2,2.7855933E-2,1.3233614E-1,4.2435646E-2,8.190632E-3,1.9333363E-3,2.5328875E-2,5.05867E-2,4.2220354E-3,3.0786142E-2,2.5102645E-3,2.6092112E-2,3.490162E-2,0E0,4.1540146E-2,0E0,0E0,0E0,0E0,0E0,0E0,0E0,6.3540936E-3,9.4765425E-4,0E0,5.7857856E-4,8.022599E-4,8.880191E-3,2.2547459E-4,4.6474487E-4,2.701642E-3,1.4482081E-2,1.1150867E-2,1.9308567E-2,0E0,3.30019E-3,0E0,0E0,0E0,0E0,0E0,0E0,0E0,0E0,0E0,0E0,0E0,0E0,0E0,0E0,0E0,0E0,0E0,0E0,0E0,0E0,0E0,0E0,0E0,0E0],"parents":[2147483647,0,0,1,1,2,2,3,3,4,4,5,5,6,6,9,9,10,10,11,11,12,12,13,13,14,14,15,15,16,16,17,17,18,18,19,19,20,20,21,21,22,22,23,23,25,25,33,33,34,34,36,36,37,37,38,38,39,39,40,40,41,41,42,42,43,43,44,44,46,46],"right_children":[2,4,6,8,10,12,14,-1,-1,16,18,20,22,24,26,28,30,32,34,36,38,40,42,44,-1,46,-1,-1,-1,-1,-1,-1,-1,48,50,-1,52,54,56,58,60,62,64,66,68,-1,70,-1,-1,-1,-1,-1,-1,-1,-1,-1,-1,-1,-1,-1,-1,-1,-1,-1,-1,-1,-1,-1,-1,-1,-1],"split_conditions":[2.52E2,1E0,9.788E3,3E0,3.5E1,1.273E3,2.9862E4,-3.941246E-2,-2.4801215E-2,1E0,1E0,1E0,2.773E3,8E-1,7.7457E4,1.8E1,2E1,1.03E2,1.21E2,1E0,3.98E2,1E0,1E0,1E0,1.45818135E-2,1E0,1.9430242E-2,-2.3894472E-2,-1.8494293E-2,-1.8125057E-2,-1.3866986E-2,-1.5246937E-2,-1.07069835E-2,6.2E1,2.31E2,-8.261195E-3,9.8515934E-1,1E0,8.17E2,9.996878E-1,1E0,1.3E1,4.536E3,2.4E-3,1.5916E4,1.0820921E-2,1E0,-1.1640824E-2,-9.007606E-3,-6.1688973E-3,-3.0259204E-3,-5.0121443E-3,-1.7078618E-3,-5.174945E-3,-3.1054085E-3,-7.4831274E-4,1.5163089E-3,2.729456E-4,1.8137256E-3,9.092212E-4,4.361398E-3,1.8613487E-4,3.5578508E-3,6.944153E-3,9.967607E-3,5.9004324E-3,1.0155606E-2,9.8768845E-3,1.22878505E-2,1.2892126E-2,1.6580785E-2],"split_indices":[57,28,57,13,57,57,57,0,0,30,30,30,57,5,57,57,57,57,57,17,57,17,30,30,0,30,0,0,0,0,0,0,0,57,57,0,0,25,57,0,25,13,62,7,57,0,17,0,0,0,0,0,0,0,0,0,0,0,0,0,0,0,0,0,0,0,0,0,0,0,0],"split_type":[0,0,0,0,0,0,0,0,0,0,0,0,0,0,0,0,0,0,0,0,0,0,0,0,0,0,0,0,0,0,0,0,0,0,0,0,0,0,0,0,0,0,0,0,0,0,0,0,0,0,0,0,0,0,0,0,0,0,0,0,0,0,0,0,0,0,0,0,0,0,0],"sum_hessian":[1.69E3,5.62E2,1.128E3,1.74E2,3.88E2,3.43E2,7.85E2,1.63E2,1.1E1,1.54E2,2.34E2,1.22E2,2.21E2,4.15E2,3.7E2,8.1E1,7.3E1,8.9E1,1.45E2,2.4E1,9.8E1,4.2E1,1.79E2,2.58E2,1.57E2,3E2,7E1,5.1E1,3E1,4.9E1,2.4E1,5.6E1,3.3E1,9.7E1,4.8E1,1.2E1,1.2E1,2.9E1,6.9E1,4E0,3.8E1,1.6E1,1.63E2,3.9E1,2.19E2,2.3E1,2.77E2,4E1,5.7E1,4.4E1,4E0,1E1,2E0,5E0,2.4E1,4E1,2.9E1,2E0,2E0,1E0,3.7E1,3E0,1.3E1,1.38E2,2.5E1,2.6E1,1.3E1,1E2,1.19E2,2.3E1,2.54E2],"tree_param":{"num_deleted":"0","num_feature":"65","num_nodes":"71","size_leaf_vector":"1"}},{"base_weights":[-4.6364398E-4,-2.0057747E-1,9.834297E-2,-3.487189E-1,-1.2756047E-1,3.792859E-2,1.3237856E-1,-3.5469413E-2,-2.235866E-2,-1.6909169E-1,-8.6887985E-2,-1.7948123E-2,6.26498E-2,1.1445241E-1,1.514311E-1,-2.1212624E-2,-1.5309376E-1,-1.2772049E-1,-7.651337E-2,-5.8970876E-2,-7.102726E-3,5.1888365E-2,7.7075444E-2,1.00301325E-1,1.3286769E-2,1.0540548E-2,1.5517576E-1,-1.8633058E-2,-1.3695793E-2,-1.2936137E-2,-3.4324527E-3,-8.890634E-2,-5.7201214E-2,-6.2411133E-2,-1.1791865E-3,-2.844836E-2,4.8287436E-3,2.595869E-2,5.6148034E-2,4.2850997E-2,8.202388E-2,7.377113E-2,1.0650498E-1,1.4710246E-1,1.7240835E-2,-1.1062559E-2,-8.049993E-3,-7.645745E-3,-4.842266E-3,-6.390904E-3,-1.3979673E-3,-3.1490375E-3,-1.3865009E-3,-4.4023377E-4,1.4485869E-3,4.6196976E-4,3.1062455E-3,3.2751847E-3,6.1965487E-3,9.94952E-4,4.9190633E-3,5.1883594E-3,8.403706E-3,4.941044E-3,8.349244E-3,9.466293E-3,1.137038E-2,1.3891511E-2,1.6324377E-2],"categories":[],"categories_nodes":[],"categories_segments":[],"categories_sizes":[],"default_left":[0,0,0,0,0,0,0,0,0,0,0,0,0,0,0,0,0,0,0,0,0,0,0,0,0,0,0,0,0,0,0,0,0,0,0,0,0,0,0,0,0,0,0,0,0,0,0,0,0,0,0,0,0,0,0,0,0,0,0,0,0,0,0,0,0,0,0,0,0],"id":6,"left_children":[1,3,5,7,9,11,13,-1,-1,15,17,19,21,23,25,-1,27,29,31,33,35,37,39,41,-1,-1,43,-1,-1,-1,-1,45,47,49,-1,51,53,55,57,59,61,63,65,67,-1,-1,-1,-1,-1,-1,-1,-1,-1,-1,-1,-1,-1,-1,-1,-1,-1,-1,-1,-1,-1,-1,-1,-1,-1],"loss_changes":[3.307946E1,5.937233E0,2.297967E0,5.677414E-2,6.1368227E-1,5.605672E-1,2.2721004E-1,0E0,0E0,9.3513966E-2,7.0715785E-2,5.5194657E-2,3.962326E-2,8.3875656E-2,4.293251E-2,0E0,4.7953844E-2,1.2300014E-3,3.1772017E-2,3.4840629E-3,2.5605848E-2,1.6656518E-2,1.6469419E-2,2.7528763E-2,0E0,0E0,1.8600464E-2,0E0,0E0,0E0,0E0,7.892132E-3,6.9473386E-3,8.4766746E-4,0E0,1.1604466E-3,5.8582434E-3,2.5792308E-3,1.7025411E-2,3.0564927E-3,1.8289089E-3,6.294593E-3,3.8992167E-3,6.661415E-3,0E0,0E0,0E0,0E0,0E0,0E0,0E0,0E0,0E0,0E0,0E0,0E0,0E0,0E0,0E0,0E0,0E0,0E0,0E0,0E0,0E0,0E0,0E0,0E0,0E0],"parents":[2147483647,0,0,1,1,2,2,3,3,4,4,5,5,6,6,9,9,10,10,11,11,12,12,13,13,14,14,16,16,17,17,18,18,19,19,20,20,21,21,22,22,23,23,26,26,31,31,32,32,33,33,35,35,36,36,37,37,38,38,39,39,40,40,41,41,42,42,43,43],"right_children":[2,4,6,8,10,12,14,-1,-1,16,18,20,22,24,26,-1,28,30,32,34,36,38,40,42,-1,-1,44,-1,-1,-1,-1,46,48,50,-1,52,54,56,58,60,62,64,66,68,-1,-1,-1,-1,-1,-1,-1,-1,-1,-1,-1,-1,-1,-1,-1,-1,-1,-1,-1,-1,-1,-1,-1,-1,-1],"split_conditions":[2.52E2,1E0,1.2516E4,1.37E2,5.5E1,1.273E3,3.1401E4,-3.5469413E-2,-2.235866E-2,9E0,1E0,1E0,7.338E3,1E0,1E0,-2.1212624E-2,1E0,4.956E3,1.33E2,9.76E2,4.47E2,1E0,1E0,1E0,1.3286769E-2,1.0540548E-2,6.6959E4,-1.8633058E-2,-1.3695793E-2,-1.2936137E-2,-3.4324527E-3,1E0,1E0,9.8515934E-1,-1.1791865E-3,3.98E2,8.17E2,1E0,2.136E3,1E0,1E0,1E0,1.7418E4,1E0,1.7240835E-2,-1.1062559E-2,-8.049993E-3,-7.645745E-3,-4.842266E-3,-6.390904E-3,-1.3979673E-3,-3.1490375E-3,-1.3865009E-3,-4.4023377E-4,1.4485869E-3,4.6196976E-4,3.1062455E-3,3.2751847E-3,6.1965487E-3,9.94952E-4,4.9190633E-3,5.1883594E-3,8.403706E-3,4.941044E-3,8.349244E-3,9.466293E-3,1.137038E-2,1.3891511E-2,1.6324377E-2],"split_indices":[57,28,57,54,57,57,57,0,0,57,17,30,57,60,30,0,17,54,57,57,57,17,17,17,0,0,57,0,0,0,0,25,30,0,0,57,57,30,57,30,30,30,57,60,0,0,0,0,0,0,0,0,0,0,0,0,0,0,0,0,0,0,0,0,0,0,0,0,0],"split_type":[0,0,0,0,0,0,0,0,0,0,0,0,0,0,0,0,0,0,0,0,0,0,0,0,0,0,0,0,0,0,0,0,0,0,0,0,0,0,0,0,0,0,0,0,0,0,0,0,0,0,0,0,0,0,0,0,0,0,0,0,0,0,0,0,0,0,0,0,0],"sum_hessian":[1.671E3,5.52E2,1.119E3,1.81E2,3.71E2,4.04E2,7.15E2,1.71E2,1E1,1.82E2,1.89E2,1.24E2,2.8E2,3.72E2,3.43E2,4.6E1,1.36E2,3.6E1,1.53E2,2.5E1,9.9E1,1.63E2,1.17E2,2.14E2,1.58E2,2.8E1,3.15E2,4.1E1,9.5E1,3.5E1,1E0,9.1E1,6.2E1,2.3E1,2E0,3.5E1,6.4E1,2.4E1,1.39E2,1.6E1,1.01E2,4.3E1,1.71E2,2.21E2,9.4E1,2.2E1,6.9E1,1.7E1,4.5E1,2.2E1,1E0,2.8E1,7E0,3.3E1,3.1E1,5E0,1.9E1,2.9E1,1.1E2,3E0,1.3E1,8E0,9.3E1,1.4E1,2.9E1,7E1,1.01E2,1.53E2,6.8E1],"tree_param":{"num_deleted":"0","num_feature":"65","num_nodes":"69","size_leaf_vector":"1"}},{"base_weights":[-1.0681446E-3,-1.8106453E-1,8.694865E-2,-3.133382E-1,-1.1881255E-1,3.2573204E-2,1.198201E-1,-3.1948756E-2,-2.0216027E-2,-1.6784528E-1,-9.253906E-2,-2.4768148E-2,5.3652897E-2,9.621111E-2,1.3092941E-1,-1.876132E-2,-1.4353049E-2,-1.161558E-1,-7.5637385E-2,-5.3524375E-2,-1.4567515E-2,2.9419022E-2,6.074141E-2,8.474928E-2,1.1309898E-2,1.18551135E-1,1.4111248E-1,-1.3201343E-2,-9.13276E-3,-8.642769E-2,-4.6346905E-3,-6.8216845E-3,-3.9939567E-2,-2.8826633E-2,-3.937027E-3,2.1068543E-2,3.9459686E-3,2.7914029E-2,6.422739E-2,6.4921E-2,8.930373E-3,1.0643349E-1,1.32270325E-2,1.0069615E-2,1.4428216E-2,-1.0047999E-2,-7.5018466E-3,-4.2118E-3,-1.5008072E-3,-3.3807035E-3,-2.0176917E-3,-1.6358322E-4,-3.056711E-3,1.2896955E-4,2.2556924E-3,1.7198392E-3,4.5053116E-3,5.5637513E-3,7.200648E-3,4.8458325E-3,8.272155E-3,7.5421943E-3,1.0880586E-2],"categories":[],"categories_nodes":[],"categories_segments":[],"categories_sizes":[],"default_left":[0,0,0,0,0,0,0,0,0,0,0,0,0,0,0,0,0,0,0,0,0,0,0,0,0,0,0,0,0,0,0,0,0,0,0,0,0,0,0,0,0,0,0,0,0,0,0,0,0,0,0,0,0,0,0,0,0,0,0,0,0,0,0],"id":7,"left_children":[1,3,5,7,9,11,13,-1,-1,15,17,19,21,23,25,-1,-1,27,29,31,33,35,37,39,-1,41,43,-1,-1,45,-1,-1,47,49,51,53,-1,55,57,59,-1,61,-1,-1,-1,-1,-1,-1,-1,-1,-1,-1,-1,-1,-1,-1,-1,-1,-1,-1,-1,-1,-1],"loss_changes":[2.6774073E1,4.5328064E0,2.0247955E0,5.6423187E-2,4.7271872E-1,5.1987755E-1,1.728344E-1,0E0,0E0,3.6037207E-2,9.06055E-2,3.3246756E-2,5.2152634E-2,3.4934998E-2,4.3522835E-2,0E0,0E0,2.8102756E-2,4.2770207E-2,3.2632723E-3,1.3074089E-2,5.289279E-3,2.5900543E-2,6.9355965E-3,0E0,2.2828102E-2,1.839447E-2,0E0,0E0,9.616971E-3,0E0,0E0,3.455002E-4,9.118002E-4,3.0753291E-3,1.2073237E-3,0E0,3.8165655E-3,1.0560811E-2,4.782796E-3,0E0,8.428097E-4,0E0,0E0,0E0,0E0,0E0,0E0,0E0,0E0,0E0,0E0,0E0,0E0,0E0,0E0,0E0,0E0,0E0,0E0,0E0,0E0,0E0],"parents":[2147483647,0,0,1,1,2,2,3,3,4,4,5,5,6,6,9,9,10,10,11,11,12,12,13,13,14,14,17,17,18,18,19,19,20,20,21,21,22,22,23,23,25,25,26,26,29,29,32,32,33,33,34,34,35,35,37,37,38,38,39,39,41,41],"right_children":[2,4,6,8,10,12,14,-1,-1,16,18,20,22,24,26,-1,-1,28,30,32,34,36,38,40,-1,42,44,-1,-1,46,-1,-1,48,50,52,54,-1,56,58,60,-1,62,-1,-1,-1,-1,-1,-1,-1,-1,-1,-1,-1,-1,-1,-1,-1,-1,-1,-1,-1,-1,-1],"split_conditions":[2.31E2,1E0,1.2725E4,1.936937E-1,2.5E1,9.76E2,2.2759E4,-3.1948756E-2,-2.0216027E-2,1E0,1E0,1E0,3.062E3,8E-1,3.7958E4,-1.876132E-2,-1.4353049E-2,8.3E1,1.26E2,4.47E2,3.98E2,1.713E3,1E0,1E0,1.1309898E-2,8E-1,1E0,-1.3201343E-2,-9.13276E-3,5.6E1,-4.6346905E-3,-6.8216845E-3,7.85E2,3.2E2,1.1285669E1,3.6380367E0,3.9459686E-3,9.8515934E-1,7.338E3,1.5672E4,8.930373E-3,1E0,1.32270325E-2,1.0069615E-2,1.4428216E-2,-1.0047999E-2,-7.5018466E-3,-4.2118E-3,-1.5008072E-3,-3.3807035E-3,-2.0176917E-3,-1.6358322E-4,-3.056711E-3,1.2896955E-4,2.2556924E-3,1.7198392E-3,4.5053116E-3,5.5637513E-3,7.200648E-3,4.8458325E-3,8.272155E-3,7.5421943E-3,1.0880586E-2],"split_indices":[57,28,57,58,57,57,57,0,0,30,30,30,57,5,57,0,0,57,57,57,57,57,30,30,0,5,30,0,0,57,0,0,62,57,9,58,0,0,57,62,0,30,0,0,0,0,0,0,0,0,0,0,0,0,0,0,0,0,0,0,0,0,0],"split_type":[0,0,0,0,0,0,0,0,0,0,0,0,0,0,0,0,0,0,0,0,0,0,0,0,0,0,0,0,0,0,0,0,0,0,0,0,0,0,0,0,0,0,0,0,0,0,0,0,0,0,0,0,0,0,0,0,0,0,0,0,0,0,0],"sum_hessian":[1.688E3,5.54E2,1.134E3,1.76E2,3.78E2,4.28E2,7.06E2,1.65E2,1.1E1,1.3E2,2.48E2,1.15E2,3.13E2,2.29E2,4.77E2,6.8E1,6.2E1,1.01E2,1.47E2,2.9E1,8.6E1,7.2E1,2.41E2,1.4E2,8.9E1,2.21E2,2.56E2,5.9E1,4.2E1,1.06E2,4.1E1,1.2E1,1.7E1,3.6E1,5E1,4.1E1,3.1E1,2.4E1,2.17E2,2.9E1,1.11E2,1.22E2,9.9E1,2.1E1,2.35E2,4.4E1,6.2E1,1.5E1,2E0,2.1E1,1.5E1,4.7E1,3E0,3E0,3.8E1,1.6E1,8E0,1.07E2,1.1E2,1.7E1,1.2E1,1.1E1,1.11E2],"tree_param":{"num_deleted":"0","num_feature":"65","num_nodes":"63","size_leaf_vector":"1"}},{"base_weights":[5.108284E-4,-1.6307494E-1,7.984223E-2,-2.7783084E-1,-1.03825144E-1,3.0384002E-2,1.0764184E-1,-2.8770808E-2,-1.8652374E-2,-1.4412752E-1,-7.9893224E-2,-1.6510824E-2,5.1155604E-2,9.641336E-2,1.2634537E-1,-1.7896084E-2,-1.2950547E-1,-1.1630203E-1,-6.887003E-2,-5.1459175E-2,-9.824114E-3,3.982174E-2,6.0799636E-2,8.5174344E-2,1.1050006E-1,9.5213145E-2,1.2958074E-1,-1.4121505E-2,-1.0817007E-2,-1.2516724E-2,-8.329882E-3,-8.976264E-3,-5.837297E-2,-6.3446374E-3,-2.975856E-2,-2.1402992E-2,6.604629E-3,2.4292462E-2,4.410898E-2,3.3982396E-2,6.535287E-2,6.256611E-2,8.9656994E-2,9.204916E-3,1.1559969E-2,2.5940777E-3,9.67607E-3,1.2289209E-2,1.4406899E-2,-6.6076503E-3,-4.420895E-3,-3.1343966E-3,-8.53765E-4,-2.6523692E-3,-1.30957E-3,8.8506285E-4,-1.8629521E-3,-3.182093E-5,2.6000722E-3,1.8051652E-3,4.6716738E-3,2.710047E-3,5.471363E-3,6.196233E-3,8.521403E-3,4.8816954E-3,8.124163E-3,7.7357613E-3,9.647349E-3],"categories":[],"categories_nodes":[],"categories_segments":[],"categories_sizes":[],"default_left":[0,0,0,0,0,0,0,0,0,0,0,0,0,0,0,0,0,0,0,0,0,0,0,0,0,0,0,0,0,0,0,0,0,0,0,0,0,0,0,0,0,0,0,0,0,0,0,0,0,0,0,0,0,0,0,0,0,0,0,0,0,0,0,0,0,0,0,0,0],"id":8,"left_children":[1,3,5,7,9,11,13,-1,-1,15,17,19,21,23,25,-1,27,29,31,33,35,37,39,41,43,45,47,-1,-1,-1,-1,-1,49,-1,51,53,55,57,59,61,63,65,67,-1,-1,-1,-1,-1,-1,-1,-1,-1,-1,-1,-1,-1,-1,-1,-1,-1,-1,-1,-1,-1,-1,-1,-1,-1,-1],"loss_changes":[2.177627E1,3.6971493E0,1.5503879E0,1.1408138E-1,3.3860326E-1,3.982696E-1,1.3965702E-1,0E0,0E0,4.5074463E-2,8.429885E-2,2.893933E-2,2.8511882E-2,6.2782764E-2,1.4656544E-2,0E0,9.207964E-3,4.7878623E-3,3.4016907E-2,3.3145212E-3,2.0495582E-2,7.7833086E-3,1.6217053E-2,2.0537496E-2,8.0833435E-3,5.9881806E-4,5.5527687E-3,0E0,0E0,0E0,0E0,0E0,1.039058E-2,0E0,3.5190023E-5,2.3326222E-3,2.7152977E-3,1.3115555E-3,6.1556846E-3,1.9413326E-3,3.3394694E-3,7.845581E-3,1.0394692E-2,0E0,0E0,0E0,0E0,0E0,0E0,0E0,0E0,0E0,0E0,0E0,0E0,0E0,0E0,0E0,0E0,0E0,0E0,0E0,0E0,0E0,0E0,0E0,0E0,0E0,0E0],"parents":[2147483647,0,0,1,1,2,2,3,3,4,4,5,5,6,6,9,9,10,10,11,11,12,12,13,13,14,14,16,16,17,17,18,18,19,19,20,20,21,21,22,22,23,23,24,24,25,25,26,26,32,32,34,34,35,35,36,36,37,37,38,38,39,39,40,40,41,41,42,42],"right_children":[2,4,6,8,10,12,14,-1,-1,16,18,20,22,24,26,-1,28,30,32,34,36,38,40,42,44,46,48,-1,-1,-1,-1,-1,50,-1,52,54,56,58,60,62,64,66,68,-1,-1,-1,-1,-1,-1,-1,-1,-1,-1,-1,-1,-1,-1,-1,-1,-1,-1,-1,-1,-1,-1,-1,-1,-1,-1],"split_conditions":[2.31E2,6E0,1.2516E4,2.2657754E-4,2.9E1,1.159E3,3.6801E4,-2.8770808E-2,-1.8652374E-2,1E0,1E0,1E0,6.172E3,8E-1,1E0,-1.7896084E-2,1.6E1,1.03E2,6.2E1,5.97E2,5.97E2,1.877E3,1E0,1E0,1.7765E4,1E0,7.2777E4,-1.4121505E-2,-1.0817007E-2,-1.2516724E-2,-8.329882E-3,-8.976264E-3,1.39E2,-6.3446374E-3,9.9895895E-1,4.19E2,1.1285669E1,1E0,1E0,9.8515934E-1,8E-1,9.997296E-1,1.7952E4,9.204916E-3,1.1559969E-2,2.5940777E-3,9.67607E-3,1.2289209E-2,1.4406899E-2,-6.6076503E-3,-4.420895E-3,-3.1343966E-3,-8.53765E-4,-2.6523692E-3,-1.30957E-3,8.8506285E-4,-1.8629521E-3,-3.182093E-5,2.6000722E-3,1.8051652E-3,4.6716738E-3,2.710047E-3,5.471363E-3,6.196233E-3,8.521403E-3,4.8816954E-3,8.124163E-3,7.7357613E-3,9.647349E-3],"split_indices":[57,57,57,59,57,57,57,0,0,17,17,17,57,5,17,0,57,57,57,57,57,57,17,17,57,3,57,0,0,0,0,0,57,0,0,57,9,17,17,0,5,0,57,0,0,0,0,0,0,0,0,0,0,0,0,0,0,0,0,0,0,0,0,0,0,0,0,0,0],"split_type":[0,0,0,0,0,0,0,0,0,0,0,0,0,0,0,0,0,0,0,0,0,0,0,0,0,0,0,0,0,0,0,0,0,0,0,0,0,0,0,0,0,0,0,0,0,0,0,0,0,0,0,0,0,0,0,0,0,0,0,0,0,0,0,0,0,0,0,0,0],"sum_hessian":[1.676E3,5.47E2,1.129E3,1.85E2,3.62E2,4.07E2,7.22E2,1.65E2,2E1,1.33E2,2.29E2,1.25E2,2.82E2,4.55E2,2.67E2,3.6E1,9.7E1,5.1E1,1.78E2,1.9E1,1.06E2,1.32E2,1.5E2,2.57E2,1.98E2,2.8E1,2.39E2,5.9E1,3.8E1,3.8E1,1.3E1,5.7E1,1.21E2,1.1E1,8E0,6.2E1,4.4E1,3E1,1.02E2,2.3E1,1.27E2,4.5E1,2.12E2,4.7E1,1.51E2,1E0,2.7E1,1.7E2,6.9E1,7.6E1,4.5E1,7E0,1E0,3.7E1,2.5E1,4.1E1,3E0,2E0,2.8E1,1E1,9.2E1,1.9E1,4E0,1.12E2,1.5E1,2.8E1,1.7E1,8E1,1.32E2],"tree_param":{"num_deleted":"0","num_feature":"65","num_nodes":"69","size_leaf_vector":"1"}},{"base_weights":[-8.884895E-5,-1.3702764E-1,7.5105876E-2,-2.439744E-1,-8.238024E-2,3.37138E-2,9.669729E-2,-2.5934026E-2,-1.6762415E-2,-1.0878375E-1,-5.0971787E-2,-2.067907E-3,4.7817454E-2,7.8309774E-2,1.0632229E-1,-1.3394637E-1,-9.506595E-2,-8.119049E-2,-4.1474253E-2,-3.3586245E-2,5.743305E-3,2.4574777E-2,5.1262517E-2,4.832507E-2,8.195607E-2,1.02158695E-1,1.3327534E-2,-1.569493E-2,-1.1045802E-2,-1.0828646E-1,-8.029849E-2,-9.855049E-3,-6.544368E-2,-5.291825E-2,-2.8014705E-2,-3.485804E-2,-4.0751995E-4,-5.4735644E-3,1.583549E-2,1.9739967E-2,4.1784705E-3,4.181847E-2,5.9791926E-2,3.6587816E-2,6.696707E-3,7.5153015E-3,9.383448E-3,7.101668E-2,1.0560423E-1,-1.0895025E-2,-3.0910894E-3,-1.0025666E-2,-7.089728E-3,-7.5492226E-3,-4.579169E-3,-6.706649E-3,-4.6436195E-3,-4.856707E-3,-2.4342535E-3,-4.3725255E-3,-2.6719905E-3,-2.5763898E-4,-2.5817943E-3,-1.1825467E-3,1.8822547E-3,5.7479227E-4,2.2998482E-3,3.6023245E-3,5.960178E-3,3.4899772E-3,6.1284998E-3,1.4087827E-3,3.972971E-3,4.920676E-3,7.7871913E-3,1.0251834E-2,1.2148665E-2],"categories":[],"categories_nodes":[],"categories_segments":[],"categories_sizes":[],"default_left":[0,0,0,0,0,0,0,0,0,0,0,0,0,0,0,0,0,0,0,0,0,0,0,0,0,0,0,0,0,0,0,0,0,0,0,0,0,0,0,0,0,0,0,0,0,0,0,0,0,0,0,0,0,0,0,0,0,0,0,0,0,0,0,0,0,0,0,0,0,0,0,0,0,0,0,0,0],"id":9,"left_children":[1,3,5,7,9,11,13,-1,-1,15,17,19,21,23,25,27,29,31,33,35,37,39,41,43,45,47,-1,-1,-1,49,51,-1,53,55,57,59,-1,61,63,65,-1,67,69,71,-1,-1,-1,73,75,-1,-1,-1,-1,-1,-1,-1,-1,-1,-1,-1,-1,-1,-1,-1,-1,-1,-1,-1,-1,-1,-1,-1,-1,-1,-1,-1,-1],"loss_changes":[1.705195E1,3.4105415E0,9.521198E-1,1.8881989E-1,3.1787944E-1,1.8581113E-1,1.1591387E-1,0E0,0E0,6.009841E-2,4.8293263E-2,2.6043521E-2,1.9879341E-2,2.2826195E-2,3.7782192E-2,2.1565437E-2,1.8637419E-2,5.031824E-3,1.992783E-2,6.461181E-4,9.708907E-3,2.170613E-3,1.594603E-2,3.8952008E-3,1.0483623E-2,3.5528183E-2,0E0,0E0,0E0,2.7883053E-4,6.0262084E-3,0E0,1.4799386E-3,3.6721975E-3,3.7988946E-3,2.749171E-4,0E0,2.3500728E-3,3.9407043E-3,1.2356052E-3,0E0,9.39548E-3,2.2467077E-3,8.541439E-4,0E0,0E0,0E0,2.597183E-3,5.1407814E-3,0E0,0E0,0E0,0E0,0E0,0E0,0E0,0E0,0E0,0E0,0E0,0E0,0E0,0E0,0E0,0E0,0E0,0E0,0E0,0E0,0E0,0E0,0E0,0E0,0E0,0E0,0E0,0E0],"parents":[2147483647,0,0,1,1,2,2,3,3,4,4,5,5,6,6,9,9,10,10,11,11,12,12,13,13,14,14,15,15,16,16,17,17,18,18,19,19,20,20,21,21,22,22,23,23,24,24,25,25,29,29,30,30,32,32,33,33,34,34,35,35,37,37,38,38,39,39,41,41,42,42,43,43,47,47,48,48],"right_children":[2,4,6,8,10,12,14,-1,-1,16,18,20,22,24,26,28,30,32,34,36,38,40,42,44,46,48,-1,-1,-1,50,52,-1,54,56,58,60,-1,62,64,66,-1,68,70,72,-1,-1,-1,74,76,-1,-1,-1,-1,-1,-1,-1,-1,-1,-1,-1,-1,-1,-1,-1,-1,-1,-1,-1,-1,-1,-1,-1,-1,-1,-1,-1,-1],"split_conditions":[4.19E2,7E0,1.2516E4,3E0,7.6E1,1.713E3,2.2759E4,-2.5934026E-2,-1.6762415E-2,1E0,1E0,1E0,1E0,1E0,8.0856E4,2.7E1,2.5E1,1E0,1.76E2,3.2E1,8.77E2,2.832E3,6.743E3,9.7345136E-2,1.7317E4,1E0,1.3327534E-2,-1.569493E-2,-1.1045802E-2,5.3078E4,1E0,-9.855049E-3,1.83E2,1E0,1E0,1E0,-4.0751995E-4,3.6115136E0,1E0,1E0,4.1784705E-3,3.654E3,1E0,2.5E1,6.696707E-3,7.5153015E-3,9.383448E-3,1E0,3.6872E4,-1.0895025E-2,-3.0910894E-3,-1.0025666E-2,-7.089728E-3,-7.5492226E-3,-4.579169E-3,-6.706649E-3,-4.6436195E-3,-4.856707E-3,-2.4342535E-3,-4.3725255E-3,-2.6719905E-3,-2.5763898E-4,-2.5817943E-3,-1.1825467E-3,1.8822547E-3,5.7479227E-4,2.2998482E-3,3.6023245E-3,5.960178E-3,3.4899772E-3,6.1284998E-3,1.4087827E-3,3.972971E-3,4.920676E-3,7.7871913E-3,1.0251834E-2,1.2148665E-2],"split_indices":[57,57,57,13,57,57,57,0,0,25,25,30,17,30,57,57,57,17,57,41,57,62,57,4,62,17,0,0,0,13,17,0,57,30,17,25,0,8,17,30,0,62,30,13,0,0,0,30,62,0,0,0,0,0,0,0,0,0,0,0,0,0,0,0,0,0,0,0,0,0,0,0,0,0,0,0,0],"split_type":[0,0,0,0,0,0,0,0,0,0,0,0,0,0,0,0,0,0,0,0,0,0,0,0,0,0,0,0,0,0,0,0,0,0,0,0,0,0,0,0,0,0,0,0,0,0,0,0,0,0,0,0,0,0,0,0,0,0,0,0,0,0,0,0,0,0,0,0,0,0,0,0,0,0,0,0,0],"sum_hessian":[1.654E3,5.86E2,1.068E3,1.97E2,3.89E2,3.67E2,7.01E2,1.62E2,3.5E1,2.1E2,1.79E2,1.04E2,2.63E2,2.44E2,4.57E2,7.1E1,1.39E2,4.1E1,1.38E2,2E1,8.4E1,3.5E1,2.28E2,2.8E1,2.16E2,4E2,5.7E1,3.3E1,3.8E1,7E1,6.9E1,1.7E1,2.4E1,7.3E1,6.5E1,1.9E1,1E0,4E1,4.4E1,2.9E1,6E0,1.11E2,1.17E2,1.9E1,9E0,1.42E2,7.4E1,4.2E1,3.58E2,6.9E1,1E0,1.9E1,5E1,1.4E1,1E1,2E1,5.3E1,8E0,5.7E1,7E0,1.2E1,3.6E1,4E0,4E0,4E1,6E0,2.3E1,8.6E1,2.5E1,8E0,1.09E2,3E0,1.6E1,1.2E1,3E1,3.06E2,5.2E1],"tree_param":{"num_deleted":"0","num_feature":"65","num_nodes":"77","size_leaf_vector":"1"}},{"base_weights":[-5.3717085E-4,-1.402022E-1,6.0559206E-2,-2.336247E-2,-9.279974E-2,9.456869E-3,8.283748E-2,-1.3052355E-1,-7.352721E-2,-2.2111492E-2,3.2091144E-2,6.133318E-2,9.317966E-2,-1.5966844E-2,-1.0813053E-1,-1.048385E-1,-6.3567296E-2,-5.366408E-2,-1.5876504E-2,1.3865236E-2,3.7099224E-2,3.7192795E-2,6.484501E-2,8.463675E-2,1.0361242E-1,-1.3801726E-2,-1.0111333E-2,-2.9847533E-3,-1.0570664E-2,-7.79137E-2,-5.137568E-2,-5.919206E-2,-2.7214806E-3,-2.3735175E-2,-2.7754046E-3,-1.0879422E-2,1.6480904E-2,1.3228923E-2,4.0585276E-2,2.6058821E-2,5.488684E-3,5.933006E-2,7.635975E-3,7.5029075E-2,9.506925E-3,4.901826E-3,1.0504221E-1,-9.213607E-3,-7.029096E-3,-7.1166866E-3,-4.596545E-3,-6.5159546E-3,-3.5402586E-3,-4.188429E-3,-2.076088E-3,-2.070892E-3,-2.0850952E-5,-1.862375E-3,4.913807E-5,1.79585E-3,-8.7140006E-4,-4.8700967E-4,1.528233E-3,3.6860784E-3,5.549803E-3,1.3481831E-3,2.7900126E-3,5.0855535E-3,6.2612914E-3,5.5917143E-3,7.8086182E-3,1.0032033E-2,1.2072603E-2],"categories":[],"categories_nodes":[],"categories_segments":[],"categories_sizes":[],"default_left":[0,0,0,0,0,0,0,0,0,0,0,0,0,0,0,0,0,0,0,0,0,0,0,0,0,0,0,0,0,0,0,0,0,0,0,0,0,0,0,0,0,0,0,0,0,0,0,0,0,0,0,0,0,0,0,0,0,0,0,0,0,0,0,0,0,0,0,0,0,0,0,0,0],"id":10,"left_children":[1,3,5,-1,7,9,11,13,15,17,19,21,23,-1,25,27,29,31,33,35,37,39,41,43,45,-1,-1,-1,-1,47,49,51,-1,53,55,57,59,61,63,65,-1,67,-1,69,-1,-1,71,-1,-1,-1,-1,-1,-1,-1,-1,-1,-1,-1,-1,-1,-1,-1,-1,-1,-1,-1,-1,-1,-1,-1,-1,-1,-1],"loss_changes":[1.421598E1,2.223547E0,1.3187051E0,0E0,2.3614025E-1,2.5293761E-1,1.7376328E-1,5.6483507E-2,6.3815475E-2,2.8264053E-2,1.8288612E-2,2.0054102E-2,3.9625645E-2,0E0,9.590387E-5,2.9534101E-4,2.6430786E-2,1.8981695E-3,1.2803778E-2,3.1565977E-3,1.2860432E-2,5.6618936E-3,1.0075271E-2,2.3337603E-2,1.3585091E-2,0E0,0E0,0E0,0E0,1.9799173E-3,7.1150362E-3,3.9048493E-4,0E0,3.3409484E-3,2.2052873E-3,4.4944743E-4,1.7200606E-3,8.9204847E-4,5.7302564E-3,1.796484E-4,0E0,1.2670755E-3,0E0,5.157292E-3,0E0,0E0,5.143881E-3,0E0,0E0,0E0,0E0,0E0,0E0,0E0,0E0,0E0,0E0,0E0,0E0,0E0,0E0,0E0,0E0,0E0,0E0,0E0,0E0,0E0,0E0,0E0,0E0,0E0,0E0],"parents":[2147483647,0,0,1,1,2,2,4,4,5,5,6,6,7,7,8,8,9,9,10,10,11,11,12,12,14,14,15,15,16,16,17,17,18,18,19,19,20,20,21,21,22,22,23,23,24,24,29,29,30,30,31,31,33,33,34,34,35,35,36,36,37,37,38,38,39,39,41,41,43,43,46,46],"right_children":[2,4,6,-1,8,10,12,14,16,18,20,22,24,-1,26,28,30,32,34,36,38,40,42,44,46,-1,-1,-1,-1,48,50,52,-1,54,56,58,60,62,64,66,-1,68,-1,70,-1,-1,72,-1,-1,-1,-1,-1,-1,-1,-1,-1,-1,-1,-1,-1,-1,-1,-1,-1,-1,-1,-1,-1,-1,-1,-1,-1,-1],"split_conditions":[1.76E2,1E0,7.956E3,-2.336247E-2,2E1,9.76E2,1.8898E4,1E0,1E0,1E0,1.713E3,1E0,3.8799E4,-1.5966844E-2,1E0,2.7579737E-1,6.2E1,5.97E2,4.86E2,1E0,1E0,2.4E-3,9.401736E-5,8E-1,1E0,-1.3801726E-2,-1.0111333E-2,-2.9847533E-3,-1.0570664E-2,1E0,1E0,1.2E1,-2.7214806E-3,1E0,2E0,1E0,3.0355091E1,1E0,3.899E3,1E0,5.488684E-3,1.0982E4,7.635975E-3,1E0,9.506925E-3,4.901826E-3,8.637E4,-9.213607E-3,-7.029096E-3,-7.1166866E-3,-4.596545E-3,-6.5159546E-3,-3.5402586E-3,-4.188429E-3,-2.076088E-3,-2.070892E-3,-2.0850952E-5,-1.862375E-3,4.913807E-5,1.79585E-3,-8.7140006E-4,-4.8700967E-4,1.528233E-3,3.6860784E-3,5.549803E-3,1.3481831E-3,2.7900126E-3,5.0855535E-3,6.2612914E-3,5.5917143E-3,7.8086182E-3,1.0032033E-2,1.2072603E-2],"split_indices":[57,33,57,0,57,57,57,25,17,25,57,17,57,0,17,58,57,57,57,17,17,7,4,5,25,0,0,0,0,25,25,3,0,17,41,3,9,25,62,25,0,57,0,17,0,0,57,0,0,0,0,0,0,0,0,0,0,0,0,0,0,0,0,0,0,0,0,0,0,0,0,0,0],"split_type":[0,0,0,0,0,0,0,0,0,0,0,0,0,0,0,0,0,0,0,0,0,0,0,0,0,0,0,0,0,0,0,0,0,0,0,0,0,0,0,0,0,0,0,0,0,0,0,0,0,0,0,0,0,0,0,0,0,0,0,0,0,0,0,0,0,0,0,0,0,0,0,0,0],"sum_hessian":[1.664E3,5.06E2,1.158E3,1.69E2,3.37E2,3.52E2,8.06E2,1.12E2,2.25E2,1.47E2,2.05E2,2.64E2,5.42E2,4.6E1,6.6E1,5.2E1,1.73E2,2.3E1,1.24E2,4.5E1,1.6E2,3.5E1,2.29E2,3.03E2,2.39E2,9E0,5.7E1,1E0,5.1E1,7.7E1,9.6E1,1.8E1,5E0,7.7E1,4.7E1,4E0,4.1E1,2.1E1,1.39E2,2.3E1,1.2E1,1.59E2,7E1,1.62E2,1.41E2,7E0,2.32E2,2.3E1,5.4E1,1.8E1,7.8E1,1.3E1,5E0,9E0,6.8E1,5E0,4.2E1,2E0,2E0,3.9E1,2E0,2E0,1.9E1,1.14E2,2.5E1,4E0,1.9E1,4.9E1,1.1E2,2.5E1,1.37E2,1.84E2,4.8E1],"tree_param":{"num_deleted":"0","num_feature":"65","num_nodes":"73","size_leaf_vector":"1"}},{"base_weights":[2.8605454E-4,-1.1881488E-1,5.7775512E-2,-2.0677058E-1,-7.724316E-2,1.6540684E-2,7.6251626E-2,-2.0907644E-2,-1.0736073E-2,-1.0149909E-1,-5.530391E-2,-1.3870264E-2,3.246757E-2,6.2344108E-2,8.8203974E-2,-1.1956853E-1,-8.428121E-2,-8.506667E-2,-4.7179215E-2,-4.2593706E-2,-8.765532E-3,2.006178E-2,3.7443805E-2,5.383432E-2,7.406911E-2,8.420296E-2,1.0928582E-2,-1.3093266E-2,-9.933983E-3,-9.87454E-2,-6.9277757E-3,-8.824571E-3,-4.4528446E-3,-6.1160956E-2,-4.0074095E-2,-4.5839626E-2,-1.9773082E-3,-1.5974388E-2,4.7200806E-3,-1.3016642E-3,2.0749766E-2,1.166565E-2,3.9977636E-2,3.1061038E-2,5.7963375E-2,6.3928226E-3,7.767544E-3,4.9779773E-2,8.644451E-2,-1.2402422E-2,-8.691919E-3,-6.4355205E-3,-3.5947473E-3,-4.702422E-3,-2.9453388E-3,-1.287362E-3,-4.7274795E-3,-2.975498E-3,-1.2792957E-3,-1.5170753E-3,6.29015E-4,2.2688012E-4,2.2203573E-3,-2.23279E-4,2.5843189E-3,3.6664882E-3,5.826597E-3,2.093323E-3,3.5434973E-3,3.2465036E-3,5.9918268E-3,2.620783E-3,5.318377E-3,8.248023E-3,9.955935E-3],"categories":[],"categories_nodes":[],"categories_segments":[],"categories_sizes":[],"default_left":[0,0,0,0,0,0,0,0,0,0,0,0,0,0,0,0,0,0,0,0,0,0,0,0,0,0,0,0,0,0,0,0,0,0,0,0,0,0,0,0,0,0,0,0,0,0,0,0,0,0,0,0,0,0,0,0,0,0,0,0,0,0,0,0,0,0,0,0,0,0,0,0,0,0,0],"id":11,"left_children":[1,3,5,7,9,11,13,-1,-1,15,17,19,21,23,25,27,29,31,33,35,37,39,41,43,45,47,-1,-1,-1,49,-1,-1,-1,51,53,55,-1,57,59,-1,61,63,65,67,69,-1,-1,71,73,-1,-1,-1,-1,-1,-1,-1,-1,-1,-1,-1,-1,-1,-1,-1,-1,-1,-1,-1,-1,-1,-1,-1,-1,-1,-1],"loss_changes":[1.1441436E1,1.9731479E0,8.5735416E-1,1.7438889E-2,1.918168E-1,1.6997343E-1,1.2382603E-1,0E0,0E0,4.4368148E-2,4.3623805E-2,1.7368328E-2,1.3447687E-2,3.2231808E-2,2.5887012E-2,6.073475E-3,1.3341308E-2,1.3543665E-3,1.3145715E-2,4.2694062E-4,1.0185844E-2,1.8176027E-3,1.0180369E-2,1.8322468E-2,5.199909E-4,2.3011923E-2,0E0,0E0,0E0,2.6727915E-3,0E0,0E0,0E0,1.7940402E-3,6.5131932E-3,1.0108203E-4,0E0,2.6006028E-3,1.2509357E-3,0E0,1.7497633E-3,3.2104333E-3,6.8302453E-3,8.086711E-4,7.0270896E-3,0E0,0E0,5.319007E-4,8.997202E-3,0E0,0E0,0E0,0E0,0E0,0E0,0E0,0E0,0E0,0E0,0E0,0E0,0E0,0E0,0E0,0E0,0E0,0E0,0E0,0E0,0E0,0E0,0E0,0E0,0E0,0E0],"parents":[2147483647,0,0,1,1,2,2,3,3,4,4,5,5,6,6,9,9,10,10,11,11,12,12,13,13,14,14,15,15,16,16,17,17,18,18,19,19,20,20,21,21,22,22,23,23,24,24,25,25,29,29,33,33,34,34,35,35,37,37,38,38,40,40,41,41,42,42,43,43,44,44,47,47,48,48],"right_children":[2,4,6,8,10,12,14,-1,-1,16,18,20,22,24,26,28,30,32,34,36,38,40,42,44,46,48,-1,-1,-1,50,-1,-1,-1,52,54,56,-1,58,60,-1,62,64,66,68,70,-1,-1,72,74,-1,-1,-1,-1,-1,-1,-1,-1,-1,-1,-1,-1,-1,-1,-1,-1,-1,-1,-1,-1,-1,-1,-1,-1,-1,-1],"split_conditions":[2.11E2,1E0,9.512E3,3E0,4.4E1,1.101E3,2.5354E4,-2.0907644E-2,-1.0736073E-2,1E0,1E0,1E0,3.062E3,5E-1,8.0856E4,2E1,1.6E1,1.88E2,1E0,1.5651661E1,5.97E2,1.3E1,1E0,1E0,1.6425E4,1E0,1.0928582E-2,-1.3093266E-2,-9.933983E-3,1E0,-6.9277757E-3,-8.824571E-3,-4.4528446E-3,1.7E2,1.09E2,4E0,-1.9773082E-3,1E0,4.1E1,-1.3016642E-3,1E0,9.8515934E-1,4.536E3,1.3871E4,1E0,6.3928226E-3,7.767544E-3,1E0,3.4314E4,-1.2402422E-2,-8.691919E-3,-6.4355205E-3,-3.5947473E-3,-4.702422E-3,-2.9453388E-3,-1.287362E-3,-4.7274795E-3,-2.975498E-3,-1.2792957E-3,-1.5170753E-3,6.29015E-4,2.2688012E-4,2.2203573E-3,-2.23279E-4,2.5843189E-3,3.6664882E-3,5.826597E-3,2.093323E-3,3.5434973E-3,3.2465036E-3,5.9918268E-3,2.620783E-3,5.318377E-3,8.248023E-3,9.955935E-3],"split_indices":[57,28,57,14,57,57,57,0,0,30,17,17,57,5,57,57,57,3,30,58,57,13,30,17,57,30,0,0,0,17,0,0,0,57,57,13,0,30,13,0,17,0,62,57,30,0,0,31,62,0,0,0,0,0,0,0,0,0,0,0,0,0,0,0,0,0,0,0,0,0,0,0,0,0,0],"split_type":[0,0,0,0,0,0,0,0,0,0,0,0,0,0,0,0,0,0,0,0,0,0,0,0,0,0,0,0,0,0,0,0,0,0,0,0,0,0,0,0,0,0,0,0,0,0,0,0,0,0,0,0,0,0,0,0,0,0,0,0,0,0,0,0,0,0,0,0,0,0,0,0,0,0,0],"sum_hessian":[1.669E3,5.43E2,1.126E3,1.73E2,3.7E2,3.49E2,7.77E2,1.68E2,5E0,1.74E2,1.96E2,1.2E2,2.29E2,3.62E2,4.15E2,8.2E1,9.2E1,4E1,1.56E2,1.7E1,1.03E2,6.7E1,1.62E2,2.13E2,1.49E2,3.53E2,6.2E1,4.9E1,3.3E1,4.4E1,4.8E1,3.6E1,4E0,5E1,1.06E2,1.4E1,3E0,6.7E1,3.6E1,1E0,6.6E1,1.5E1,1.47E2,3.4E1,1.79E2,4.4E1,1.05E2,2.3E1,3.3E2,1.1E1,3.3E1,4.3E1,7E0,6.2E1,4.4E1,1E0,1.3E1,1.1E1,5.6E1,2E0,3.4E1,5E0,6.1E1,8E0,7E0,1.27E2,2E1,1.2E1,2.2E1,1.4E1,1.65E2,4E0,1.9E1,2.59E2,7.1E1],"tree_param":{"num_deleted":"0","num_feature":"65","num_nodes":"75","size_leaf_vector":"1"}},{"base_weights":[-7.9480937E-4,-1.0626694E-1,5.2703504E-2,-1.7873347E-1,-6.4473905E-2,2.1429982E-2,7.1042635E-2,-1.8707259E-2,-1.0461205E-2,-8.604733E-2,-4.738727E-2,-1.1122985E-2,3.4114826E-2,6.304182E-2,8.403622E-2,-1.0708211E-1,-7.397975E-2,-7.1316436E-2,-3.8396917E-2,-3.4893192E-2,-4.5427866E-3,2.7707336E-2,4.155111E-2,5.5330932E-2,7.264306E-2,3.657822E-2,8.538166E-2,-1.2474039E-2,-9.342766E-3,-8.804796E-3,-6.510657E-2,-8.74542E-3,-5.9251455E-3,-5.3227838E-2,-3.2077976E-2,-4.8706806E-3,-2.6815299E-2,-2.5993852E-2,-1.6098052E-3,1.4584172E-4,2.9519632E-2,1.120227E-2,4.3629978E-2,3.8601473E-2,5.858601E-2,5.998086E-3,7.6246373E-3,3.8432814E-3,1.0870725E-3,8.009157E-2,9.519729E-3,-7.1235695E-3,-5.338803E-3,-5.8738827E-3,-3.761659E-3,-3.7160423E-3,-2.187142E-3,-3.2230825E-3,-1.781857E-3,-2.7680427E-3,-4.564047E-4,-5.447219E-4,1.1400947E-3,-5.9019E-4,1.8240452E-3,1.7955251E-3,3.3084215E-3,-5.3340493E-4,1.3632311E-3,2.7073661E-3,4.5295097E-3,2.966127E-3,5.1834243E-3,4.7108214E-3,6.1721983E-3,7.4950755E-3,9.377098E-3],"categories":[],"categories_nodes":[],"categories_segments":[],"categories_sizes":[],"default_left":[0,0,0,0,0,0,0,0,0,0,0,0,0,0,0,0,0,0,0,0,0,0,0,0,0,0,0,0,0,0,0,0,0,0,0,0,0,0,0,0,0,0,0,0,0,0,0,0,0,0,0,0,0,0,0,0,0,0,0,0,0,0,0,0,0,0,0,0,0,0,0,0,0,0,0,0,0],"id":12,"left_children":[1,3,5,7,9,11,13,-1,-1,15,17,19,21,23,25,27,29,31,33,35,37,39,41,43,45,47,49,-1,-1,-1,51,-1,-1,53,55,-1,57,59,61,63,65,67,69,71,73,-1,-1,-1,-1,75,-1,-1,-1,-1,-1,-1,-1,-1,-1,-1,-1,-1,-1,-1,-1,-1,-1,-1,-1,-1,-1,-1,-1,-1,-1,-1,-1],"loss_changes":[9.423068E0,1.6905475E0,6.3394785E-1,1.07141495E-1,1.2788737E-1,1.7009337E-1,6.726599E-2,0E0,0E0,3.1930804E-2,4.0718257E-2,1.7985355E-2,1.2952536E-2,2.8259397E-2,1.3669848E-2,1.6070604E-3,7.1249604E-3,5.3320825E-3,1.225619E-2,1.4835335E-3,5.746388E-3,8.087538E-3,8.028552E-3,1.1134565E-2,4.1412115E-3,1.1300668E-5,5.6165457E-3,0E0,0E0,0E0,1.0091066E-3,0E0,0E0,1.4898777E-3,4.7377944E-3,0E0,3.0268915E-4,2.7123792E-4,4.1561704E-3,1.3114001E-3,5.6717396E-3,4.7455472E-4,2.2472888E-3,3.5495907E-3,4.4351816E-3,0E0,0E0,0E0,0E0,5.0673485E-3,0E0,0E0,0E0,0E0,0E0,0E0,0E0,0E0,0E0,0E0,0E0,0E0,0E0,0E0,0E0,0E0,0E0,0E0,0E0,0E0,0E0,0E0,0E0,0E0,0E0,0E0,0E0],"parents":[2147483647,0,0,1,1,2,2,3,3,4,4,5,5,6,6,9,9,10,10,11,11,12,12,13,13,14,14,15,15,16,16,17,17,18,18,19,19,20,20,21,21,22,22,23,23,24,24,25,25,26,26,30,30,33,33,34,34,36,36,37,37,38,38,39,39,40,40,41,41,42,42,43,43,44,44,49,49],"right_children":[2,4,6,8,10,12,14,-1,-1,16,18,20,22,24,26,28,30,32,34,36,38,40,42,44,46,48,50,-1,-1,-1,52,-1,-1,54,56,-1,58,60,62,64,66,68,70,72,74,-1,-1,-1,-1,76,-1,-1,-1,-1,-1,-1,-1,-1,-1,-1,-1,-1,-1,-1,-1,-1,-1,-1,-1,-1,-1,-1,-1,-1,-1,-1,-1],"split_conditions":[2.68E2,7E0,1.2725E4,1E0,5.4E1,1.159E3,3.6381E4,-1.8707259E-2,-1.0461205E-2,1E0,1E0,1E0,7.338E3,8E-1,1E0,1E0,1E0,1E0,1E0,1E0,1E0,1E0,1E0,1E0,1.728E4,3.25E2,6.877E4,-1.2474039E-2,-9.342766E-3,-8.804796E-3,2.5E1,-8.74542E-3,-5.9251455E-3,1.33E2,1.58E2,-4.8706806E-3,4.86E2,5.912106E-1,8.77E2,9.8515934E-1,2.773E3,3E0,1E0,9.997296E-1,1.5386E4,5.998086E-3,7.6246373E-3,3.8432814E-3,1.0870725E-3,8E-1,9.519729E-3,-7.1235695E-3,-5.338803E-3,-5.8738827E-3,-3.761659E-3,-3.7160423E-3,-2.187142E-3,-3.2230825E-3,-1.781857E-3,-2.7680427E-3,-4.564047E-4,-5.447219E-4,1.1400947E-3,-5.9019E-4,1.8240452E-3,1.7955251E-3,3.3084215E-3,-5.3340493E-4,1.3632311E-3,2.7073661E-3,4.5295097E-3,2.966127E-3,5.1834243E-3,4.7108214E-3,6.1721983E-3,7.4950755E-3,9.377098E-3],"split_indices":[57,57,57,17,57,57,57,0,0,25,25,30,57,5,25,17,30,17,30,25,25,30,25,17,57,41,57,0,0,0,57,0,0,57,57,0,57,4,57,0,57,13,30,0,57,0,0,0,0,5,0,0,0,0,0,0,0,0,0,0,0,0,0,0,0,0,0,0,0,0,0,0,0,0,0,0,0],"split_type":[0,0,0,0,0,0,0,0,0,0,0,0,0,0,0,0,0,0,0,0,0,0,0,0,0,0,0,0,0,0,0,0,0,0,0,0,0,0,0,0,0,0,0,0,0,0,0,0,0,0,0,0,0,0,0,0,0,0,0,0,0,0,0,0,0,0,0,0,0,0,0,0,0,0,0,0,0],"sum_hessian":[1.668E3,5.61E2,1.107E3,2.04E2,3.57E2,4.1E2,6.97E2,1.82E2,2.2E1,1.56E2,2.01E2,1.15E2,2.95E2,4.35E2,2.62E2,5.4E1,1.02E2,5.3E1,1.48E2,2.4E1,9.1E1,1.61E2,1.34E2,2.45E2,1.9E2,8E0,2.54E2,2E1,3.4E1,3.6E1,6.6E1,2E1,3.3E1,4.2E1,1.06E2,7E0,1.7E1,1E1,8.1E1,1E1,1.51E2,9E0,1.25E2,4.2E1,2.03E2,4.6E1,1.44E2,7E0,1E0,1.71E2,8.3E1,4E1,2.6E1,2.9E1,1.3E1,6.9E1,3.7E1,9E0,8E0,9E0,1E0,6.3E1,1.8E1,8E0,2E0,3.7E1,1.14E2,1E0,8E0,1.3E1,1.12E2,2.7E1,1.5E1,4.7E1,1.56E2,1.29E2,4.2E1],"tree_param":{"num_deleted":"0","num_feature":"65","num_nodes":"77","size_leaf_vector":"1"}},{"base_weights":[7.1020954E-4,-9.7164765E-2,4.796552E-2,-1.603908E-1,-5.8909003E-2,1.5304035E-2,6.2091257E-2,-1.6796066E-1,-9.285838E-3,-7.094169E-2,-3.6530603E-2,-8.668079E-3,2.8184935E-2,4.7931504E-2,6.957219E-2,-1.6933834E-2,-9.886641E-3,-9.319012E-2,-6.1540168E-2,-5.1134888E-2,-2.7636712E-2,-3.8345076E-2,-2.7640795E-3,2.584401E-2,5.077017E-2,2.4046773E-2,5.0520767E-2,6.4220265E-2,7.920566E-2,-1.0860673E-2,-7.900484E-3,-7.5293675E-2,-5.267266E-2,-6.768902E-3,-4.5116104E-2,-4.5648455E-3,-2.4926106E-2,-4.081283E-3,-1.075685E-3,-8.3863735E-3,7.3395823E-3,1.0937567E-2,2.8043652E-2,1.7024437E-3,5.35739E-3,1.6746307E-2,2.6494667E-3,4.6287246E-2,5.9044953E-3,5.6776494E-2,7.312166E-3,5.5168655E-2,8.121434E-3,-8.778677E-3,-6.315817E-3,-6.265573E-3,-4.4673313E-3,-4.853311E-3,-3.1378586E-3,-2.8726072E-3,-2.005773E-3,-2.2342151E-3,-5.7908625E-4,-1.4948869E-3,1.0494209E-3,6.4899423E-4,1.7221175E-3,-4.0624265E-4,2.8805071E-3,1.7547224E-3,4.7690273E-4,2.5694747E-3,4.7679795E-3,4.32243E-3,5.8976426E-3,4.3905405E-3,8.079787E-3],"categories":[],"categories_nodes":[],"categories_segments":[],"categories_sizes":[],"default_left":[0,0,0,0,0,0,0,0,0,0,0,0,0,0,0,0,0,0,0,0,0,0,0,0,0,0,0,0,0,0,0,0,0,0,0,0,0,0,0,0,0,0,0,0,0,0,0,0,0,0,0,0,0,0,0,0,0,0,0,0,0,0,0,0,0,0,0,0,0,0,0,0,0,0,0,0,0],"id":13,"left_children":[1,3,5,7,9,11,13,15,-1,17,19,21,23,25,27,-1,-1,29,31,33,35,37,39,41,43,45,47,49,51,-1,-1,53,55,-1,57,-1,59,-1,-1,61,63,65,67,-1,-1,69,-1,71,-1,73,-1,75,-1,-1,-1,-1,-1,-1,-1,-1,-1,-1,-1,-1,-1,-1,-1,-1,-1,-1,-1,-1,-1,-1,-1,-1,-1],"loss_changes":[7.784099E0,1.3160319E0,5.227022E-1,8.97131E-2,8.976877E-2,1.0646545E-1,8.056021E-2,7.7342987E-4,0E0,4.0700555E-2,1.443325E-2,2.109478E-2,1.0530859E-2,1.591593E-2,2.1517038E-2,0E0,0E0,5.4156184E-3,1.5425622E-2,1.4297515E-3,2.6703328E-3,9.2260167E-4,5.8557396E-3,6.4149797E-3,9.802096E-4,7.456541E-5,6.252706E-3,1.8177986E-2,4.210472E-3,0E0,0E0,3.5521388E-3,5.1867664E-3,0E0,1.6698241E-4,0E0,7.1879476E-4,0E0,0E0,2.2612964E-3,2.7584105E-3,6.707553E-4,4.468441E-3,0E0,0E0,1.2244796E-5,0E0,3.6784708E-3,0E0,3.0556917E-3,0E0,1.3599023E-3,0E0,0E0,0E0,0E0,0E0,0E0,0E0,0E0,0E0,0E0,0E0,0E0,0E0,0E0,0E0,0E0,0E0,0E0,0E0,0E0,0E0,0E0,0E0,0E0,0E0],"parents":[2147483647,0,0,1,1,2,2,3,3,4,4,5,5,6,6,7,7,9,9,10,10,11,11,12,12,13,13,14,14,17,17,18,18,19,19,20,20,21,21,22,22,23,23,24,24,25,25,26,26,27,27,28,28,31,31,32,32,34,34,36,36,39,39,40,40,41,41,42,42,45,45,47,47,49,49,51,51],"right_children":[2,4,6,8,10,12,14,16,-1,18,20,22,24,26,28,-1,-1,30,32,34,36,38,40,42,44,46,48,50,52,-1,-1,54,56,-1,58,-1,60,-1,-1,62,64,66,68,-1,-1,70,-1,72,-1,74,-1,76,-1,-1,-1,-1,-1,-1,-1,-1,-1,-1,-1,-1,-1,-1,-1,-1,-1,-1,-1,-1,-1,-1,-1,-1,-1],"split_conditions":[2.68E2,7E0,9.788E3,1E0,8.3E1,1.273E3,2.0789E4,1E0,-9.285838E-3,1E0,1E0,1E0,5.858E3,1E0,4.6352E4,-1.6933834E-2,-9.886641E-3,2.7E1,2.2E1,1E0,1E0,9.927878E-1,7.51E2,1E0,7.616757E-1,9.8E1,1.557E4,8E-1,1E0,-1.0860673E-2,-7.900484E-3,1E0,1E0,-6.768902E-3,1.7E2,-4.5648455E-3,1.51E2,-4.081283E-3,-1.075685E-3,1E0,4.1E1,1.068E3,4.1E1,1.7024437E-3,5.35739E-3,4E0,2.6494667E-3,1E0,5.9044953E-3,1E0,7.312166E-3,1.6337E4,8.121434E-3,-8.778677E-3,-6.315817E-3,-6.265573E-3,-4.4673313E-3,-4.853311E-3,-3.1378586E-3,-2.8726072E-3,-2.005773E-3,-2.2342151E-3,-5.7908625E-4,-1.4948869E-3,1.0494209E-3,6.4899423E-4,1.7221175E-3,-4.0624265E-4,2.8805071E-3,1.7547224E-3,4.7690273E-4,2.5694747E-3,4.7679795E-3,4.32243E-3,5.8976426E-3,4.3905405E-3,8.079787E-3],"split_indices":[57,57,57,17,57,57,57,30,0,17,30,17,62,30,57,0,0,57,57,17,17,0,57,17,8,13,62,5,30,0,0,30,30,0,57,0,57,0,0,30,13,13,13,0,0,3,0,17,0,17,0,14,0,0,0,0,0,0,0,0,0,0,0,0,0,0,0,0,0,0,0,0,0,0,0,0,0],"split_type":[0,0,0,0,0,0,0,0,0,0,0,0,0,0,0,0,0,0,0,0,0,0,0,0,0,0,0,0,0,0,0,0,0,0,0,0,0,0,0,0,0,0,0,0,0,0,0,0,0,0,0,0,0,0,0,0,0,0,0,0,0,0,0,0,0,0,0,0,0,0,0,0,0,0,0,0,0],"sum_hessian":[1.681E3,5.47E2,1.134E3,2.05E2,3.42E2,3.43E2,7.91E2,1.83E2,2.2E1,2.21E2,1.21E2,1.2E2,2.23E2,2.76E2,5.15E2,1.78E2,5E0,6.3E1,1.58E2,4.4E1,7.7E1,1.9E1,1.01E2,2.04E2,1.9E1,2.8E1,2.48E2,3.36E2,1.79E2,2.7E1,3.6E1,5.9E1,9.9E1,9E0,3.5E1,8E0,6.9E1,1.7E1,2E0,6.5E1,3.6E1,2.7E1,1.77E2,2E0,1.7E1,9E0,1.9E1,1.7E2,7.8E1,1.87E2,1.49E2,1.6E1,1.63E2,2.6E1,3.3E1,4.1E1,5.8E1,2.6E1,9E0,3.6E1,3.3E1,9E0,5.6E1,4E0,3.2E1,1.7E1,1E1,4E0,1.73E2,8E0,1E0,1.2E1,1.58E2,2.9E1,1.58E2,1.3E1,3E0],"tree_param":{"num_deleted":"0","num_feature":"65","num_nodes":"77","size_leaf_vector":"1"}},{"base_weights":[1.5312539E-3,-8.3383635E-2,4.549125E-2,-1.5123028E-1,-5.2942134E-2,2.1425737E-2,5.935511E-2,-1.5296872E-2,-7.647946E-3,-7.512154E-2,-3.6024254E-2,4.8745042E-4,2.9654969E-2,5.2857164E-2,6.909886E-2,-1.006087E-1,-6.3968815E-2,-5.3222727E-2,-2.6235893E-2,-2.0895246E-2,5.2090203E-3,1.2372807E-2,3.2055695E-2,4.7227483E-2,6.0565356E-2,4.6520874E-2,7.0871286E-2,-1.1239109E-2,-7.898583E-3,-7.530719E-2,-5.2693896E-2,-6.2783584E-3,-4.2363755E-2,-3.462733E-2,-1.7130429E-2,-4.8102738E-4,-2.145898E-2,-2.0559977E-3,9.676761E-3,9.240166E-3,3.0573667E-3,2.6446138E-2,3.6960285E-2,2.4662511E-2,4.9090527E-2,2.232492E-3,6.0878396E-2,3.8551397E-3,7.473804E-3,6.771545E-2,8.269231E-3,-8.585941E-3,-6.259647E-3,-6.454432E-3,-4.7399085E-3,-4.8603485E-3,-2.9576465E-3,-4.6505495E-3,-3.0343977E-3,-2.9371441E-3,-1.5141375E-3,-2.321164E-3,-1.1558676E-3,-3.6487225E-4,6.7812006E-4,-1.0417986E-3,1.1327615E-3,-1.19473545E-4,1.2627125E-3,2.3021714E-3,3.8204722E-3,8.1490877E-4,3.7337944E-3,1.322708E-3,2.835488E-3,3.2091215E-3,5.074219E-3,5.645697E-3,6.577868E-3,6.4599575E-3,7.714895E-3],"categories":[],"categories_nodes":[],"categories_segments":[],"categories_sizes":[],"default_left":[0,0,0,0,0,0,0,0,0,0,0,0,0,0,0,0,0,0,0,0,0,0,0,0,0,0,0,0,0,0,0,0,0,0,0,0,0,0,0,0,0,0,0,0,0,0,0,0,0,0,0,0,0,0,0,0,0,0,0,0,0,0,0,0,0,0,0,0,0,0,0,0,0,0,0,0,0,0,0,0,0],"id":14,"left_children":[1,3,5,7,9,11,13,-1,-1,15,17,19,21,23,25,27,29,31,33,35,37,39,41,43,45,47,49,-1,-1,51,53,-1,55,57,59,-1,61,63,65,67,-1,69,71,73,75,-1,77,-1,-1,79,-1,-1,-1,-1,-1,-1,-1,-1,-1,-1,-1,-1,-1,-1,-1,-1,-1,-1,-1,-1,-1,-1,-1,-1,-1,-1,-1,-1,-1,-1,-1],"loss_changes":[6.237666E0,1.1692448E0,3.6606693E-1,1.1172295E-2,1.4550912E-1,6.959717E-2,4.0541172E-2,0E0,0E0,4.1886806E-2,3.6649615E-2,1.1719232E-2,1.1635423E-2,1.5495658E-2,7.7478886E-3,3.8611293E-3,1.1500329E-2,5.749762E-3,1.0562368E-2,8.719694E-5,3.1034255E-3,1.8271129E-3,6.010741E-3,9.257138E-3,7.3570013E-4,2.2908933E-3,3.8759708E-3,0E0,0E0,2.4048388E-3,9.563714E-4,0E0,1.8338412E-3,2.4047121E-3,1.308335E-3,0E0,7.874146E-5,5.4552604E-4,2.075247E-3,1.1813915E-3,0E0,4.032962E-3,1.1428893E-3,5.1164813E-4,4.8012733E-3,0E0,3.4689903E-5,0E0,0E0,1.0712743E-3,0E0,0E0,0E0,0E0,0E0,0E0,0E0,0E0,0E0,0E0,0E0,0E0,0E0,0E0,0E0,0E0,0E0,0E0,0E0,0E0,0E0,0E0,0E0,0E0,0E0,0E0,0E0,0E0,0E0,0E0,0E0],"parents":[2147483647,0,0,1,1,2,2,3,3,4,4,5,5,6,6,9,9,10,10,11,11,12,12,13,13,14,14,15,15,16,16,17,17,18,18,19,19,20,20,21,21,22,22,23,23,24,24,25,25,26,26,29,29,30,30,32,32,33,33,34,34,36,36,37,37,38,38,39,39,41,41,42,42,43,43,44,44,46,46,49,49],"right_children":[2,4,6,8,10,12,14,-1,-1,16,18,20,22,24,26,28,30,32,34,36,38,40,42,44,46,48,50,-1,-1,52,54,-1,56,58,60,-1,62,64,66,68,-1,70,72,74,76,-1,78,-1,-1,80,-1,-1,-1,-1,-1,-1,-1,-1,-1,-1,-1,-1,-1,-1,-1,-1,-1,-1,-1,-1,-1,-1,-1,-1,-1,-1,-1,-1,-1,-1,-1],"split_conditions":[4.19E2,1E0,1.4083E4,1.2E1,5.5E1,1.877E3,3.7697E4,-1.5296872E-2,-7.647946E-3,1E0,1E0,1E0,1E0,1.8564E4,1E0,2.1E1,1.6E1,1E0,1.39E2,1.6E1,8.17E2,5.713E3,6.843E3,1E0,5E-1,1.6337E4,8.9761E4,-1.1239109E-2,-7.898583E-3,1E0,1E0,-6.2783584E-3,1.26E2,1E0,1E0,-4.8102738E-4,2.3579492E3,3.73E2,1E0,2.1E2,3.0573667E-3,3.899E3,1E0,1.05E2,1E0,2.232492E-3,2.5676E4,3.8551397E-3,7.473804E-3,9.8515934E-1,8.269231E-3,-8.585941E-3,-6.259647E-3,-6.454432E-3,-4.7399085E-3,-4.8603485E-3,-2.9576465E-3,-4.6505495E-3,-3.0343977E-3,-2.9371441E-3,-1.5141375E-3,-2.321164E-3,-1.1558676E-3,-3.6487225E-4,6.7812006E-4,-1.0417986E-3,1.1327615E-3,-1.19473545E-4,1.2627125E-3,2.3021714E-3,3.8204722E-3,8.1490877E-4,3.7337944E-3,1.322708E-3,2.835488E-3,3.2091215E-3,5.074219E-3,5.645697E-3,6.577868E-3,6.4599575E-3,7.714895E-3],"split_indices":[57,28,57,57,57,57,57,0,0,17,30,30,17,62,30,57,57,25,57,14,57,62,57,30,5,14,57,0,0,30,25,0,57,25,25,0,54,14,17,13,0,62,25,13,17,0,57,0,0,0,0,0,0,0,0,0,0,0,0,0,0,0,0,0,0,0,0,0,0,0,0,0,0,0,0,0,0,0,0,0,0],"split_type":[0,0,0,0,0,0,0,0,0,0,0,0,0,0,0,0,0,0,0,0,0,0,0,0,0,0,0,0,0,0,0,0,0,0,0,0,0,0,0,0,0,0,0,0,0,0,0,0,0,0,0,0,0,0,0,0,0,0,0,0,0,0,0,0,0,0,0,0,0,0,0,0,0,0,0,0,0,0,0,0,0],"sum_hessian":[1.669E3,5.69E2,1.1E3,1.75E2,3.94E2,4.03E2,6.97E2,1.7E2,5E0,1.69E2,2.25E2,1.14E2,2.89E2,4.22E2,2.75E2,4.9E1,1.2E2,8E1,1.45E2,2E1,9.4E1,3.6E1,2.53E2,2.48E2,1.74E2,2.2E1,2.53E2,2.9E1,2E1,5.7E1,6.3E1,4E1,4E1,7.4E1,7.1E1,1E0,1.9E1,3.6E1,5.8E1,3.2E1,4E0,1.21E2,1.32E2,2E1,2.28E2,2E0,1.72E2,1.9E1,3E0,2.05E2,4.8E1,2.8E1,2.9E1,1.6E1,4.7E1,2.5E1,1.5E1,1.7E1,5.7E1,8E0,6.3E1,1.5E1,4E0,3.1E1,5E0,4E0,5.4E1,8E0,2.4E1,9.6E1,2.5E1,2E0,1.3E2,6E0,1.4E1,2.2E1,2.06E2,9.7E1,7.5E1,1.6E2,4.5E1],"tree_param":{"num_deleted":"0","num_feature":"65","num_nodes":"81","size_leaf_vector":"1"}},{"base_weights":[-1.3936581E-3,-7.745903E-2,3.9235793E-2,-1.3888559E-2,-5.08168E-2,1.7424302E-2,5.2598175E-2,-7.147461E-2,-3.6385123E-2,-4.5149103E-3,2.5639337E-2,4.721113E-2,6.1992213E-2,-9.0156026E-2,-6.080481E-2,-5.54535E-2,-2.9151056E-2,-2.5309406E-2,-1.1426419E-3,2.337517E-2,4.190838E-2,4.1502997E-2,5.3891633E-2,2.6548982E-2,6.292311E-2,-9.670643E-3,-6.828406E-3,-6.781682E-3,-5.0334795E-3,-6.1150283E-2,-4.4337288E-3,-4.010204E-2,-2.3705907E-2,-2.9883867E-2,-1.5158833E-3,-6.4795814E-3,6.3816933E-3,1.7951131E-3,2.4548316E-2,2.800261E-3,4.5506503E-3,1.5988426E-2,4.254281E-2,4.848271E-3,5.795016E-3,1.0138035E-2,3.0329626E-3,6.031262E-2,7.731214E-3,-6.614905E-3,-4.3557505E-3,-2.0046008E-3,-4.121645E-3,-2.662107E-3,-1.6002434E-3,-3.2792748E-3,-1.2165566E-3,-1.1804559E-3,-1.617739E-4,7.514157E-4,-2.0024658E-3,-5.912033E-4,1.1447856E-3,1.981186E-3,3.009394E-3,-2.1644533E-4,1.8020159E-3,3.6669062E-3,4.5609837E-3,1.2565911E-3,2.6411415E-4,5.7522296E-3,7.1135047E-3],"categories":[],"categories_nodes":[],"categories_segments":[],"categories_sizes":[],"default_left":[0,0,0,0,0,0,0,0,0,0,0,0,0,0,0,0,0,0,0,0,0,0,0,0,0,0,0,0,0,0,0,0,0,0,0,0,0,0,0,0,0,0,0,0,0,0,0,0,0,0,0,0,0,0,0,0,0,0,0,0,0,0,0,0,0,0,0,0,0,0,0,0,0],"id":15,"left_children":[1,3,5,-1,7,9,11,13,15,17,19,21,23,25,27,29,31,33,35,37,39,41,43,45,47,-1,-1,-1,-1,49,-1,51,53,55,-1,57,59,61,63,-1,-1,65,67,-1,-1,69,-1,71,-1,-1,-1,-1,-1,-1,-1,-1,-1,-1,-1,-1,-1,-1,-1,-1,-1,-1,-1,-1,-1,-1,-1,-1,-1],"loss_changes":[5.2105227E0,9.535911E-1,3.1939065E-1,0E0,1.1992967E-1,7.563271E-2,3.1536102E-2,2.8005004E-2,3.204128E-2,8.035412E-3,1.0255292E-2,1.4427602E-2,6.412983E-3,1.8494427E-3,4.662186E-3,1.4683157E-3,9.723067E-3,2.899291E-4,4.057043E-3,6.7914277E-3,5.2694976E-4,5.6871176E-3,1.5369654E-3,1.888685E-4,4.2769313E-3,0E0,0E0,0E0,0E0,7.2434545E-4,0E0,4.7011673E-4,2.3137406E-3,1.1646282E-4,0E0,1.5083663E-3,1.4064461E-3,1.1836065E-3,6.128028E-3,0E0,0E0,4.4470397E-4,2.4709702E-3,0E0,0E0,2.1416228E-5,0E0,2.128899E-3,0E0,0E0,0E0,0E0,0E0,0E0,0E0,0E0,0E0,0E0,0E0,0E0,0E0,0E0,0E0,0E0,0E0,0E0,0E0,0E0,0E0,0E0,0E0,0E0,0E0],"parents":[2147483647,0,0,1,1,2,2,4,4,5,5,6,6,7,7,8,8,9,9,10,10,11,11,12,12,13,13,14,14,15,15,16,16,17,17,18,18,19,19,20,20,21,21,22,22,23,23,24,24,29,29,31,31,32,32,33,33,35,35,36,36,37,37,38,38,41,41,42,42,45,45,47,47],"right_children":[2,4,6,-1,8,10,12,14,16,18,20,22,24,26,28,30,32,34,36,38,40,42,44,46,48,-1,-1,-1,-1,50,-1,52,54,56,-1,58,60,62,64,-1,-1,66,68,-1,-1,70,-1,72,-1,-1,-1,-1,-1,-1,-1,-1,-1,-1,-1,-1,-1,-1,-1,-1,-1,-1,-1,-1,-1,-1,-1,-1,-1],"split_conditions":[3.38E2,6E0,1.4083E4,-1.3888559E-2,3.5E1,1.418E3,3.8799E4,1E0,1E0,1E0,5.713E3,8E-1,1E0,1.8E1,1.6E1,9.6E1,6.9E1,6.17E2,7.51E2,1E0,8E-1,1E0,2.2118E4,6.837E3,9.962E4,-9.670643E-3,-6.828406E-3,-6.781682E-3,-5.0334795E-3,2E1,-4.4337288E-3,3.7E1,1.89E2,3.504043E-2,-1.5158833E-3,1.7E1,3.0355091E1,3.06E2,7.338E3,2.800261E-3,4.5506503E-3,1E0,9.2E1,4.848271E-3,5.795016E-3,3E0,3.0329626E-3,8E-1,7.731214E-3,-6.614905E-3,-4.3557505E-3,-2.0046008E-3,-4.121645E-3,-2.662107E-3,-1.6002434E-3,-3.2792748E-3,-1.2165566E-3,-1.1804559E-3,-1.617739E-4,7.514157E-4,-2.0024658E-3,-5.912033E-4,1.1447856E-3,1.981186E-3,3.009394E-3,-2.1644533E-4,1.8020159E-3,3.6669062E-3,4.5609837E-3,1.2565911E-3,2.6411415E-4,5.7522296E-3,7.1135047E-3],"split_indices":[57,54,57,0,57,57,57,25,25,25,62,5,25,57,57,57,57,13,57,25,5,25,57,14,57,0,0,0,0,3,0,57,57,4,0,41,9,13,57,0,0,3,3,0,0,3,0,5,0,0,0,0,0,0,0,0,0,0,0,0,0,0,0,0,0,0,0,0,0,0,0,0,0],"split_type":[0,0,0,0,0,0,0,0,0,0,0,0,0,0,0,0,0,0,0,0,0,0,0,0,0,0,0,0,0,0,0,0,0,0,0,0,0,0,0,0,0,0,0,0,0,0,0,0,0,0,0,0,0,0,0,0,0,0,0,0,0,0,0,0,0,0,0,0,0,0,0,0,0],"sum_hessian":[1.684E3,5.86E2,1.098E3,1.76E2,4.1E2,4.18E2,6.8E2,1.67E2,2.43E2,1.14E2,3.04E2,4.36E2,2.44E2,5.8E1,1.09E2,6.5E1,1.78E2,1.5E1,9.9E1,2.69E2,3.5E1,2.39E2,1.97E2,7E0,2.37E2,4.2E1,1.6E1,6.2E1,4.7E1,4E1,2.5E1,5.7E1,1.21E2,9E0,6E0,5.8E1,4.1E1,1.4E1,2.55E2,9E0,2.6E1,1E1,2.29E2,9E1,1.07E2,2E0,5E0,2.05E2,3.2E1,2.9E1,1.1E1,4E0,5.3E1,8.6E1,3.5E1,7E0,2E0,2.7E1,3.1E1,4E1,1E0,8E0,6E0,1.4E2,1.15E2,1E0,9E0,8.3E1,1.46E2,1E0,1E0,1.68E2,3.7E1],"tree_param":{"num_deleted":"0","num_feature":"65","num_nodes":"73","size_leaf_vector":"1"}},{"base_weights":[1.8733788E-4,-6.7677595E-2,3.5589516E-2,-1.2377877E-1,-4.4482637E-2,1.6405264E-2,4.7494214E-2,-1.241691E-2,-2.9882253E-3,-6.5330714E-2,-3.3337314E-2,-2.5552544E-3,2.4346419E-2,4.0899444E-2,5.4601643E-2,-7.678161E-2,-5.2946515E-2,-4.7278587E-2,-2.508945E-2,-2.0535432E-2,2.192623E-3,7.528538E-3,2.5612524E-2,3.554193E-2,4.6860617E-2,2.2948593E-2,5.5238254E-2,-8.664848E-3,-6.7689233E-3,-5.924836E-3,-4.0715868E-3,-5.7465616E-3,-3.810252E-2,-3.0448267E-2,-1.5436504E-2,-2.5143608E-2,-1.5479863E-2,-1.5246182E-3,4.1059055E-3,4.0611466E-3,2.2116513E-3,2.364743E-2,3.8730477E-3,1.4789871E-2,3.791028E-2,1.8810987E-3,4.7092224E-3,5.884856E-4,2.4545577E-3,5.0833177E-2,6.0860075E-2,-4.3006507E-3,-3.0180598E-3,-4.1643474E-3,-2.706076E-3,-2.5213507E-3,-1.3521143E-3,-2.670584E-3,-3.979534E-4,-1.7245343E-3,-6.3134584E-4,-5.668913E-5,8.027367E-4,7.1016594E-4,-5.872619E-4,1.9225132E-3,2.8529828E-3,1.6554818E-3,-1.3180773E-4,1.4993459E-3,3.823412E-3,4.6225E-3,5.914067E-3,1.3381898E-3,6.1120354E-3],"categories":[],"categories_nodes":[],"categories_segments":[],"categories_sizes":[],"default_left":[0,0,0,0,0,0,0,0,0,0,0,0,0,0,0,0,0,0,0,0,0,0,0,0,0,0,0,0,0,0,0,0,0,0,0,0,0,0,0,0,0,0,0,0,0,0,0,0,0,0,0,0,0,0,0,0,0,0,0,0,0,0,0,0,0,0,0,0,0,0,0,0,0,0,0],"id":16,"left_children":[1,3,5,7,9,11,13,-1,-1,15,17,19,21,23,25,27,29,31,33,35,37,39,41,43,45,47,49,-1,-1,-1,-1,-1,51,53,55,57,59,-1,61,63,-1,65,-1,67,69,-1,-1,-1,-1,71,73,-1,-1,-1,-1,-1,-1,-1,-1,-1,-1,-1,-1,-1,-1,-1,-1,-1,-1,-1,-1,-1,-1,-1,-1],"loss_changes":[3.966643E0,7.310097E-1,2.4701607E-1,2.336979E-3,9.123021E-2,6.284923E-2,2.912414E-2,0E0,0E0,1.5646279E-2,2.9170036E-2,1.063062E-2,6.0673803E-3,9.544373E-3,5.160451E-3,4.1475892E-4,2.9829592E-3,6.8776608E-3,8.22036E-3,2.1650176E-4,3.3657704E-3,1.0229903E-3,6.121531E-3,8.728325E-3,1.7306209E-4,7.355632E-5,4.6328306E-3,0E0,0E0,0E0,0E0,0E0,7.998869E-4,2.9309466E-3,8.201292E-4,2.904809E-4,1.3386854E-4,0E0,1.6537276E-3,6.155763E-4,0E0,4.6334416E-3,0E0,6.1884336E-4,6.8092346E-4,0E0,0E0,0E0,0E0,4.1953325E-3,8.133054E-4,0E0,0E0,0E0,0E0,0E0,0E0,0E0,0E0,0E0,0E0,0E0,0E0,0E0,0E0,0E0,0E0,0E0,0E0,0E0,0E0,0E0,0E0,0E0,0E0],"parents":[2147483647,0,0,1,1,2,2,3,3,4,4,5,5,6,6,9,9,10,10,11,11,12,12,13,13,14,14,15,15,16,16,17,17,18,18,19,19,20,20,21,21,22,22,23,23,24,24,25,25,26,26,32,32,33,33,34,34,35,35,36,36,38,38,39,39,41,41,43,43,44,44,49,49,50,50],"right_children":[2,4,6,8,10,12,14,-1,-1,16,18,20,22,24,26,28,30,32,34,36,38,40,42,44,46,48,50,-1,-1,-1,-1,-1,52,54,56,58,60,-1,62,64,-1,66,-1,68,70,-1,-1,-1,-1,72,74,-1,-1,-1,-1,-1,-1,-1,-1,-1,-1,-1,-1,-1,-1,-1,-1,-1,-1,-1,-1,-1,-1,-1,-1],"split_conditions":[3.38E2,1E0,1.3871E4,1E0,2.9E1,1.713E3,3.1401E4,-1.241691E-2,-2.9882253E-3,1E0,1E0,1E0,1E0,1.7001E4,1E0,1E0,1.6E1,1E0,1.39E2,5.27E2,1E0,8.5171334E-2,4.536E3,1E0,5E-1,1.949E3,5.5962E4,-8.664848E-3,-6.7689233E-3,-5.924836E-3,-4.0715868E-3,-5.7465616E-3,9.1E1,1E0,1E0,3.1040998E1,1.14E2,-1.5246182E-3,7.51E2,9.41E2,2.2116513E-3,8.153E3,3.8730477E-3,2.853E3,1E0,1.8810987E-3,4.7092224E-3,5.884856E-4,2.4545577E-3,5E-1,1.1E1,-4.3006507E-3,-3.0180598E-3,-4.1643474E-3,-2.706076E-3,-2.5213507E-3,-1.3521143E-3,-2.670584E-3,-3.979534E-4,-1.7245343E-3,-6.3134584E-4,-5.668913E-5,8.027367E-4,7.1016594E-4,-5.872619E-4,1.9225132E-3,2.8529828E-3,1.6554818E-3,-1.3180773E-4,1.4993459E-3,3.823412E-3,4.6225E-3,5.914067E-3,1.3381898E-3,6.1120354E-3],"split_indices":[57,28,57,25,57,57,57,0,0,30,30,30,30,62,25,25,57,25,57,57,25,9,62,30,5,14,57,0,0,0,0,0,57,25,25,58,63,0,57,14,0,57,0,14,25,0,0,0,0,5,13,0,0,0,0,0,0,0,0,0,0,0,0,0,0,0,0,0,0,0,0,0,0,0,0],"split_type":[0,0,0,0,0,0,0,0,0,0,0,0,0,0,0,0,0,0,0,0,0,0,0,0,0,0,0,0,0,0,0,0,0,0,0,0,0,0,0,0,0,0,0,0,0,0,0,0,0,0,0,0,0,0,0,0,0,0,0,0,0,0,0,0,0,0,0,0,0,0,0,0,0,0,0],"sum_hessian":[1.649E3,5.65E2,1.084E3,1.64E2,4.01E2,4.16E2,6.68E2,1.63E2,1E0,1.38E2,2.63E2,1.23E2,2.93E2,3.5E2,3.18E2,6.9E1,6.9E1,9.6E1,1.67E2,2.5E1,9.8E1,2.1E1,2.72E2,1.88E2,1.62E2,7E0,3.11E2,2.9E1,4E1,4.3E1,2.6E1,4.3E1,5.3E1,1.06E2,6.1E1,1.1E1,1.4E1,9E0,8.9E1,1.8E1,3E0,2.39E2,3.3E1,2E1,1.68E2,2E0,1.6E2,1E0,6E0,1.8E2,1.31E2,3E1,2.3E1,2.2E1,8.4E1,8E0,5.3E1,1E1,1E0,1.1E1,3E0,4.1E1,4.8E1,1.4E1,4E0,1.28E2,1.11E2,1.8E1,2E0,3E0,1.65E2,1.2E2,6E1,1E0,1.3E2],"tree_param":{"num_deleted":"0","num_feature":"65","num_nodes":"75","size_leaf_vector":"1"}},{"base_weights":[2.7727766E-4,-6.1889183E-2,3.2644685E-2,-1.0496998E-1,-3.6826145E-2,9.992562E-3,4.1205436E-2,-1.1068215E-2,-6.2577995E-3,-4.6061125E-2,-2.2324124E-2,-4.7147996E-3,1.8779473E-2,3.3280432E-2,4.78306E-2,-5.923539E-2,-3.920546E-2,-3.6530744E-2,-1.8354895E-2,-2.2168605E-2,-1.1744092E-3,1.6101887E-2,3.2344703E-2,2.8653141E-2,3.9374266E-2,4.490867E-2,5.6501728E-2,-6.5178715E-2,-4.8544005E-2,-4.664214E-2,-3.3689488E-2,-3.762271E-2,-1.4162184E-3,-2.1200808E-2,-1.111878E-2,-2.6053187E-2,-1.178744E-3,-4.259032E-3,6.358762E-3,-1.6521215E-3,1.730452E-2,1.6834728E-2,3.6333182E-3,1.5192453E-2,2.961067E-2,3.3797503E-3,4.123015E-3,4.071962E-2,5.2105146E-3,1.4101267E-3,5.677648E-2,-6.6384855E-3,-2.6566496E-3,-5.03405E-3,-2.4281659E-3,-3.760949E-4,-4.7305194E-3,-3.5326988E-3,-2.2510763E-3,-3.8241304E-3,-1.0460288E-3,-2.5247675E-3,-1.8404595E-3,-9.1029034E-4,-1.6532518E-3,-3.0018748E-3,-1.6423574E-3,-9.0771227E-4,2.533473E-4,7.142809E-4,-7.4052514E-4,-9.75139E-4,6.7225E-4,1.3461116E-3,2.1017953E-3,1.3861657E-4,1.8843642E-3,9.2161895E-4,2.1559622E-3,2.6912636E-3,3.285554E-3,1.1441968E-3,4.167283E-3,2.6788996E-3,5.7408214E-3],"categories":[],"categories_nodes":[],"categories_segments":[],"categories_sizes":[],"default_left":[0,0,0,0,0,0,0,0,0,0,0,0,0,0,0,0,0,0,0,0,0,0,0,0,0,0,0,0,0,0,0,0,0,0,0,0,0,0,0,0,0,0,0,0,0,0,0,0,0,0,0,0,0,0,0,0,0,0,0,0,0,0,0,0,0,0,0,0,0,0,0,0,0,0,0,0,0,0,0,0,0,0,0,0,0],"id":17,"left_children":[1,3,5,7,9,11,13,-1,-1,15,17,19,21,23,25,27,29,31,33,35,37,39,41,43,45,47,49,51,53,55,57,59,-1,61,63,65,-1,67,69,71,73,75,-1,77,79,-1,-1,81,-1,-1,83,-1,-1,-1,-1,-1,-1,-1,-1,-1,-1,-1,-1,-1,-1,-1,-1,-1,-1,-1,-1,-1,-1,-1,-1,-1,-1,-1,-1,-1,-1,-1,-1,-1,-1],"loss_changes":[3.332157E0,6.083448E-1,2.1076632E-1,4.344082E-2,4.7185004E-2,3.885823E-2,3.9886713E-2,0E0,0E0,1.7457396E-2,7.3367655E-3,6.956607E-3,6.307736E-3,9.107649E-3,8.306503E-3,1.4745593E-3,4.4586807E-3,1.9994378E-4,2.091322E-3,4.5910198E-4,2.2345965E-3,3.423486E-3,1.2441799E-3,2.2568107E-3,2.0040572E-4,7.675886E-3,4.1094422E-4,2.8555095E-4,8.5256994E-5,1.5280396E-3,8.156225E-4,7.046014E-5,0E0,4.4059753E-4,2.2056233E-4,3.4132972E-6,0E0,2.248426E-3,3.5505986E-4,8.116651E-4,1.8436387E-3,2.2215815E-4,0E0,4.1013234E-4,8.2296133E-4,0E0,0E0,5.3837597E-3,0E0,0E0,4.132986E-4,0E0,0E0,0E0,0E0,0E0,0E0,0E0,0E0,0E0,0E0,0E0,0E0,0E0,0E0,0E0,0E0,0E0,0E0,0E0,0E0,0E0,0E0,0E0,0E0,0E0,0E0,0E0,0E0,0E0,0E0,0E0,0E0,0E0,0E0],"parents":[2147483647,0,0,1,1,2,2,3,3,4,4,5,5,6,6,9,9,10,10,11,11,12,12,13,13,14,14,15,15,16,16,17,17,18,18,19,19,20,20,21,21,22,22,23,23,24,24,25,25,26,26,27,27,28,28,29,29,30,30,31,31,33,33,34,34,35,35,37,37,38,38,39,39,40,40,41,41,43,43,44,44,47,47,50,50],"right_children":[2,4,6,8,10,12,14,-1,-1,16,18,20,22,24,26,28,30,32,34,36,38,40,42,44,46,48,50,52,54,56,58,60,-1,62,64,66,-1,68,70,72,74,76,-1,78,80,-1,-1,82,-1,-1,84,-1,-1,-1,-1,-1,-1,-1,-1,-1,-1,-1,-1,-1,-1,-1,-1,-1,-1,-1,-1,-1,-1,-1,-1,-1,-1,-1,-1,-1,-1,-1,-1,-1,-1],"split_conditions":[3.38E2,8E0,9.512E3,1E0,8.3E1,1.418E3,2.6308E4,-1.1068215E-2,-6.2577995E-3,1E0,1E0,1E0,4.131E3,5E-1,6.877E4,4.4E1,2.5E1,1.0941E4,1.97E2,1.2E1,8.77E2,1E0,8E-1,1.18E2,1.6065E4,5E-1,1E0,7E0,4.3E2,2.2657754E-4,2.1E2,2.420202E1,-1.4162184E-3,4E0,3.6908352E3,7.51E2,-1.178744E-3,6.5E1,3.0355091E1,1.77E2,5.651E3,4.16422E-2,3.6333182E-3,4E0,1.6425E4,3.3797503E-3,4.123015E-3,1E0,5.2105146E-3,1.4101267E-3,1E0,-6.6384855E-3,-2.6566496E-3,-5.03405E-3,-2.4281659E-3,-3.760949E-4,-4.7305194E-3,-3.5326988E-3,-2.2510763E-3,-3.8241304E-3,-1.0460288E-3,-2.5247675E-3,-1.8404595E-3,-9.1029034E-4,-1.6532518E-3,-3.0018748E-3,-1.6423574E-3,-9.0771227E-4,2.533473E-4,7.142809E-4,-7.4052514E-4,-9.75139E-4,6.7225E-4,1.3461116E-3,2.1017953E-3,1.3861657E-4,1.8843642E-3,9.2161895E-4,2.1559622E-3,2.6912636E-3,3.285554E-3,1.1441968E-3,4.167283E-3,2.6788996E-3,5.7408214E-3],"split_indices":[57,57,57,25,57,57,57,0,0,25,25,25,62,5,57,57,57,13,57,3,57,25,5,13,57,5,3,41,3,59,3,58,0,41,54,57,0,3,9,13,57,9,0,3,57,0,0,25,0,0,25,0,0,0,0,0,0,0,0,0,0,0,0,0,0,0,0,0,0,0,0,0,0,0,0,0,0,0,0,0,0,0,0,0,0],"split_type":[0,0,0,0,0,0,0,0,0,0,0,0,0,0,0,0,0,0,0,0,0,0,0,0,0,0,0,0,0,0,0,0,0,0,0,0,0,0,0,0,0,0,0,0,0,0,0,0,0,0,0,0,0,0,0,0,0,0,0,0,0,0,0,0,0,0,0,0,0,0,0,0,0,0,0,0,0,0,0,0,0,0,0,0,0],"sum_hessian":[1.654E3,5.66E2,1.088E3,2.07E2,3.59E2,2.99E2,7.89E2,1.81E2,2.6E1,2.18E2,1.41E2,1.12E2,1.87E2,3.62E2,4.27E2,7.2E1,1.46E2,2.9E1,1.12E2,1.8E1,9.4E1,1.58E2,2.9E1,2.09E2,1.53E2,3.24E2,1.03E2,4.3E1,2.9E1,5.9E1,8.7E1,2.7E1,2E0,7.9E1,3.3E1,1.2E1,6E0,6.7E1,2.7E1,1E1,1.48E2,7E0,2.2E1,1.5E1,1.94E2,4.3E1,1.1E2,2.09E2,1.15E2,1E0,1.02E2,4.1E1,2E0,2.6E1,3E0,1E0,5.8E1,7.4E1,1.3E1,2.6E1,1E0,2.9E1,5E1,2.6E1,7E0,7E0,5E0,3.9E1,2.8E1,2.6E1,1E0,5E0,5E0,7.5E1,7.3E1,1E0,6E0,9E0,6E0,1.11E2,8.3E1,7E0,2.02E2,3E0,9.9E1],"tree_param":{"num_deleted":"0","num_feature":"65","num_nodes":"85","size_leaf_vector":"1"}},{"base_weights":[2.2533469E-4,-5.3837217E-2,2.9763436E-2,-9.588138E-2,-3.310098E-2,1.5985414E-2,3.94046E-2,-1.004259E-2,-5.5373586E-3,-5.4275803E-2,-2.604996E-2,2.0393996E-4,2.1152198E-2,3.614669E-2,4.8952423E-2,-6.341841E-2,-4.1406214E-2,-3.651664E-2,-1.5887909E-2,-1.8148748E-2,3.0109438E-3,6.9700377E-3,2.335496E-2,1.9461345E-2,3.7908785E-2,3.349432E-2,5.092148E-2,-7.3801777E-3,-5.266403E-3,-4.81391E-3,-3.2485188E-3,-4.4332657E-2,-3.0366339E-2,-2.5216088E-2,-1.2749275E-2,-1.9797394E-2,-4.9550337E-4,-3.4090586E-3,7.133763E-3,3.1791956E-3,2.0678233E-2,2.1354862E-2,3.1261418E-2,1.3251759E-2,3.3595213E-3,3.5265125E-2,4.409119E-3,2.7633682E-2,4.6721627E-3,3.0403044E-3,5.1934696E-3,-5.1099095E-3,-3.819681E-3,-3.5750915E-3,-2.4906904E-3,-2.9170203E-3,-1.9202061E-3,-1.6585877E-3,-8.8923535E-4,-2.0851826E-3,-3.5721064E-4,-1.1180242E-3,-1.04293904E-4,-6.4904813E-4,8.222825E-4,-4.2819322E-4,5.6423707E-4,8.678E-4,2.2593543E-3,1.5265298E-3,2.424619E-3,1.8485765E-3,3.2134352E-3,1.4459373E-3,2.7790666E-5,2.167072E-3,3.6031546E-3,1.4191658E-3,3.2051888E-3],"categories":[],"categories_nodes":[],"categories_segments":[],"categories_sizes":[],"default_left":[0,0,0,0,0,0,0,0,0,0,0,0,0,0,0,0,0,0,0,0,0,0,0,0,0,0,0,0,0,0,0,0,0,0,0,0,0,0,0,0,0,0,0,0,0,0,0,0,0,0,0,0,0,0,0,0,0,0,0,0,0,0,0,0,0,0,0,0,0,0,0,0,0,0,0,0,0,0,0],"id":18,"left_children":[1,3,5,7,9,11,13,-1,-1,15,17,19,21,23,25,27,29,31,33,35,37,39,41,43,45,47,49,-1,-1,-1,-1,51,53,55,57,59,-1,61,63,65,67,69,71,73,-1,75,-1,77,-1,-1,-1,-1,-1,-1,-1,-1,-1,-1,-1,-1,-1,-1,-1,-1,-1,-1,-1,-1,-1,-1,-1,-1,-1,-1,-1,-1,-1,-1,-1],"loss_changes":[2.6891937E0,5.155697E-1,1.440286E-1,3.052044E-2,5.8307737E-2,3.6688447E-2,1.8138409E-2,0E0,0E0,9.0225935E-3,3.1541422E-2,5.8244443E-3,1.04275495E-2,1.3404191E-2,3.1645E-3,2.3666322E-3,1.0790229E-3,5.7682544E-3,4.216563E-3,2.2817962E-4,2.6182332E-3,2.3766437E-3,3.965825E-3,3.7675463E-3,5.538523E-3,3.368389E-4,1.3315678E-3,0E0,0E0,0E0,0E0,6.63802E-4,1.6376749E-3,3.4351833E-4,1.5986152E-3,1.4792522E-4,0E0,7.0545403E-4,9.4362884E-4,7.225268E-4,3.377488E-5,3.8027167E-3,4.1648746E-5,5.443408E-4,0E0,2.4386942E-3,0E0,5.547544E-4,0E0,0E0,0E0,0E0,0E0,0E0,0E0,0E0,0E0,0E0,0E0,0E0,0E0,0E0,0E0,0E0,0E0,0E0,0E0,0E0,0E0,0E0,0E0,0E0,0E0,0E0,0E0,0E0,0E0,0E0,0E0],"parents":[2147483647,0,0,1,1,2,2,3,3,4,4,5,5,6,6,9,9,10,10,11,11,12,12,13,13,14,14,15,15,16,16,17,17,18,18,19,19,20,20,21,21,22,22,23,23,24,24,25,25,26,26,31,31,32,32,33,33,34,34,35,35,37,37,38,38,39,39,40,40,41,41,42,42,43,43,45,45,47,47],"right_children":[2,4,6,8,10,12,14,-1,-1,16,18,20,22,24,26,28,30,32,34,36,38,40,42,44,46,48,50,-1,-1,-1,-1,52,54,56,58,60,-1,62,64,66,68,70,72,74,-1,76,-1,78,-1,-1,-1,-1,-1,-1,-1,-1,-1,-1,-1,-1,-1,-1,-1,-1,-1,-1,-1,-1,-1,-1,-1,-1,-1,-1,-1,-1,-1,-1,-1],"split_conditions":[4.19E2,7E0,1.5386E4,1E0,1E0,2.136E3,4.9625E4,-1.004259E-2,-5.5373586E-3,6.2E1,6.7E1,1E0,1E0,1E0,1E0,1E0,1E0,1E0,1E0,2.5E1,7.51E2,3.815E3,5.089E3,5E-1,2.575E4,1.08567E5,1E0,-7.3801777E-3,-5.266403E-3,-4.81391E-3,-3.2485188E-3,2.1E1,2.5E1,1.39E2,1.7E2,7E-1,-4.9550337E-4,1E0,4.1E1,1E0,2.91E2,6.502E3,8E-1,3.8799E4,3.3595213E-3,1E0,4.409119E-3,1E0,4.6721627E-3,3.0403044E-3,5.1934696E-3,-5.1099095E-3,-3.819681E-3,-3.5750915E-3,-2.4906904E-3,-2.9170203E-3,-1.9202061E-3,-1.6585877E-3,-8.8923535E-4,-2.0851826E-3,-3.5721064E-4,-1.1180242E-3,-1.04293904E-4,-6.4904813E-4,8.222825E-4,-4.2819322E-4,5.6423707E-4,8.678E-4,2.2593543E-3,1.5265298E-3,2.424619E-3,1.8485765E-3,3.2134352E-3,1.4459373E-3,2.7790666E-5,2.167072E-3,3.6031546E-3,1.4191658E-3,3.2051888E-3],"split_indices":[57,57,57,17,17,57,57,0,0,57,57,17,17,17,17,25,25,30,30,3,57,62,62,5,62,57,30,0,0,0,0,57,57,57,57,5,0,30,13,30,14,57,5,57,0,30,0,30,0,0,0,0,0,0,0,0,0,0,0,0,0,0,0,0,0,0,0,0,0,0,0,0,0,0,0,0,0,0,0],"split_type":[0,0,0,0,0,0,0,0,0,0,0,0,0,0,0,0,0,0,0,0,0,0,0,0,0,0,0,0,0,0,0,0,0,0,0,0,0,0,0,0,0,0,0,0,0,0,0,0,0,0,0,0,0,0,0,0,0,0,0,0,0,0,0,0,0,0,0,0,0,0,0,0,0,0,0,0,0,0,0],"sum_hessian":[1.682E3,5.94E2,1.088E3,1.95E2,3.99E2,4.49E2,6.39E2,1.74E2,2.1E1,9.8E1,3.01E2,1.11E2,3.38E2,4.8E2,1.59E2,5.5E1,4.3E1,1.47E2,1.54E2,1.4E1,9.7E1,4.6E1,2.92E2,4.7E1,4.33E2,2E1,1.39E2,2.5E1,3E1,2.2E1,2.1E1,6.2E1,8.5E1,3.7E1,1.17E2,1.2E1,2E0,3.8E1,5.9E1,3.7E1,9E0,2.36E2,5.6E1,3.4E1,1.3E1,3.08E2,1.25E2,1.6E1,4E0,8E0,1.31E2,2.6E1,3.6E1,4E1,4.5E1,2E1,1.7E1,5.7E1,6E1,1.1E1,1E0,8E0,3E1,4E0,5.5E1,9E0,2.8E1,2E0,7E0,7.8E1,1.58E2,5E0,5.1E1,3.1E1,3E0,1.8E1,2.9E2,5E0,1.1E1],"tree_param":{"num_deleted":"0","num_feature":"65","num_nodes":"79","size_leaf_vector":"1"}},{"base_weights":[-4.4552973E-4,-5.0678715E-2,2.6681725E-2,-8.6554386E-2,-3.1054199E-2,1.3061262E-2,3.5959687E-2,-9.026585E-3,-4.9383044E-3,-4.2912703E-2,-2.227468E-2,-2.823061E-3,1.801876E-2,3.1989597E-2,4.281305E-2,-5.1126603E-2,-3.373971E-2,-3.1367805E-2,-1.5788045E-2,-1.7780729E-2,1.3060989E-3,3.2447819E-3,1.9504866E-2,1.80938E-2,3.322838E-2,4.034598E-2,5.2278163E-3,-5.9570363E-3,-4.3039876E-3,-3.9261375E-2,-2.794059E-3,-3.9235773E-3,-2.7963823E-2,-2.721648E-2,-1.3726732E-2,-2.4606476E-3,-1.3924203E-2,-1.1941433E-3,2.6655034E-3,-4.203801E-4,1.63947E-2,1.755889E-2,2.8890457E-3,9.031693E-3,2.5726648E-3,2.996197E-2,3.7353016E-2,1.9293379E-2,4.2040244E-2,-4.304367E-3,-2.97029E-3,-2.8474813E-3,-1.2797036E-3,-5.3898396E-4,-2.8129634E-3,-1.7013139E-3,-9.544349E-4,-1.7336085E-3,-9.802276E-4,3.393618E-4,-1.6425869E-3,-6.9378293E-4,5.6615646E-4,6.349961E-4,1.9142603E-3,1.187967E-3,2.0672358E-3,1.7798344E-4,1.168396E-3,1.1249105E-3,3.035209E-3,3.4440998E-3,4.072983E-3,2.2303544E-3,4.6869964E-4,3.9857393E-3,5.1262113E-3],"categories":[],"categories_nodes":[],"categories_segments":[],"categories_sizes":[],"default_left":[0,0,0,0,0,0,0,0,0,0,0,0,0,0,0,0,0,0,0,0,0,0,0,0,0,0,0,0,0,0,0,0,0,0,0,0,0,0,0,0,0,0,0,0,0,0,0,0,0,0,0,0,0,0,0,0,0,0,0,0,0,0,0,0,0,0,0,0,0,0,0,0,0,0,0,0,0],"id":19,"left_children":[1,3,5,7,9,11,13,-1,-1,15,17,19,21,23,25,27,29,31,33,35,37,39,41,43,45,47,-1,-1,-1,49,-1,-1,51,53,55,-1,57,-1,59,61,63,65,-1,67,-1,69,71,73,75,-1,-1,-1,-1,-1,-1,-1,-1,-1,-1,-1,-1,-1,-1,-1,-1,-1,-1,-1,-1,-1,-1,-1,-1,-1,-1,-1,-1],"loss_changes":[2.28113E0,4.1058517E-1,1.368947E-1,2.4100184E-2,3.8710773E-2,3.4856834E-2,1.620704E-2,0E0,0E0,1.04056895E-2,1.2540184E-2,6.5700593E-3,7.3357746E-3,6.5081418E-3,3.3549368E-3,3.1035393E-3,1.4326572E-3,1.3400167E-3,2.7124472E-3,2.6281876E-4,1.5445654E-3,1.5491826E-3,5.0815493E-3,2.257754E-3,3.973514E-3,5.965948E-3,0E0,0E0,0E0,9.52892E-5,0E0,0E0,1.5485659E-4,2.27076E-4,1.3908073E-3,0E0,6.9146976E-5,0E0,1.1260977E-3,1.0698868E-3,7.16591E-5,4.281029E-3,0E0,3.25414E-4,0E0,1.2354106E-3,2.0006299E-4,5.9894565E-4,1.4795959E-3,0E0,0E0,0E0,0E0,0E0,0E0,0E0,0E0,0E0,0E0,0E0,0E0,0E0,0E0,0E0,0E0,0E0,0E0,0E0,0E0,0E0,0E0,0E0,0E0,0E0,0E0,0E0,0E0],"parents":[2147483647,0,0,1,1,2,2,3,3,4,4,5,5,6,6,9,9,10,10,11,11,12,12,13,13,14,14,15,15,16,16,17,17,18,18,19,19,20,20,21,21,22,22,23,23,24,24,25,25,29,29,32,32,33,33,34,34,36,36,38,38,39,39,40,40,41,41,43,43,45,45,46,46,47,47,48,48],"right_children":[2,4,6,8,10,12,14,-1,-1,16,18,20,22,24,26,28,30,32,34,36,38,40,42,44,46,48,-1,-1,-1,50,-1,-1,52,54,56,-1,58,-1,60,62,64,66,-1,68,-1,70,72,74,76,-1,-1,-1,-1,-1,-1,-1,-1,-1,-1,-1,-1,-1,-1,-1,-1,-1,-1,-1,-1,-1,-1,-1,-1,-1,-1,-1,-1],"split_conditions":[3.38E2,7E0,1.4932E4,1E0,1E0,1.418E3,3.9892E4,-9.026585E-3,-4.9383044E-3,5.4E1,5.8E1,1E0,1E0,1E0,9.5109E4,1E0,1E0,1.5E1,1E0,1E0,1E0,5.502E3,4.131E3,9.8515934E-1,1.9729E4,1E0,5.2278163E-3,-5.9570363E-3,-4.3039876E-3,1.21E2,-2.794059E-3,-3.9235773E-3,1.261E3,9E0,1.58E2,-2.4606476E-3,4.86E2,-1.1941433E-3,3.0355091E1,7.956E3,6.502E3,6.172E3,2.8890457E-3,8.8E1,2.5726648E-3,1E0,2.7735E4,8.85E2,4.5506E4,-4.304367E-3,-2.97029E-3,-2.8474813E-3,-1.2797036E-3,-5.3898396E-4,-2.8129634E-3,-1.7013139E-3,-9.544349E-4,-1.7336085E-3,-9.802276E-4,3.393618E-4,-1.6425869E-3,-6.9378293E-4,5.6615646E-4,6.349961E-4,1.9142603E-3,1.187967E-3,2.0672358E-3,1.7798344E-4,1.168396E-3,1.1249105E-3,3.035209E-3,3.4440998E-3,4.072983E-3,2.2303544E-3,4.6869964E-4,3.9857393E-3,5.1262113E-3],"split_indices":[57,57,57,25,30,57,57,0,0,57,57,30,30,30,57,25,25,57,25,25,25,62,62,0,62,30,0,0,0,57,0,0,3,13,57,0,57,0,9,57,57,57,0,13,0,25,57,13,62,0,0,0,0,0,0,0,0,0,0,0,0,0,0,0,0,0,0,0,0,0,0,0,0,0,0,0,0],"split_type":[0,0,0,0,0,0,0,0,0,0,0,0,0,0,0,0,0,0,0,0,0,0,0,0,0,0,0,0,0,0,0,0,0,0,0,0,0,0,0,0,0,0,0,0,0,0,0,0,0,0,0,0,0,0,0,0,0,0,0,0,0,0,0,0,0,0,0,0,0,0,0,0,0,0,0,0,0],"sum_hessian":[1.672E3,5.86E2,1.086E3,2.06E2,3.8E2,4.41E2,6.45E2,1.86E2,2E1,1.6E2,2.2E2,1.05E2,3.36E2,4.12E2,2.33E2,8.2E1,7.8E1,9E1,1.3E2,2.2E1,8.3E1,3.1E1,3.05E2,3.5E1,3.77E2,1.89E2,4.4E1,3.7E1,4.5E1,3.7E1,4.1E1,2.4E1,6.6E1,1.8E1,1.12E2,6E0,1.6E1,7E0,7.6E1,2.5E1,6E0,2.55E2,5E1,1.7E1,1.8E1,2.15E2,1.62E2,1.5E1,1.74E2,2.4E1,1.3E1,6.3E1,3E0,1E0,1.7E1,6.1E1,5.1E1,7E0,9E0,7.4E1,2E0,1.2E1,1.3E1,2E0,4E0,9.2E1,1.63E2,5E0,1.2E1,5E0,2.1E2,9.3E1,6.9E1,1.2E1,3E0,1.45E2,2.9E1],"tree_param":{"num_deleted":"0","num_feature":"65","num_nodes":"77","size_leaf_vector":"1"}},{"base_weights":[8.834766E-4,-4.4627536E-2,2.3618119E-2,-8.131609E-2,-2.880466E-2,1.0875014E-2,3.163338E-2,-8.207689E-3,-2.922371E-3,-4.751021E-2,-2.284482E-2,-2.580432E-4,1.6143534E-2,2.8762072E-2,4.09782E-2,-6.222482E-3,-3.941056E-2,-3.2167226E-2,-1.5362187E-2,-1.5605132E-2,2.8393364E-3,1.5878776E-3,1.7706828E-2,1.535429E-2,3.0204516E-2,3.8227174E-2,4.809761E-2,-4.478739E-3,-2.923121E-2,-3.9658364E-2,-2.6106793E-2,-2.3353769E-2,-1.2209232E-2,-1.9968261E-3,-1.1062307E-2,-1.1158314E-2,3.9487015E-3,-1.5062952E-3,1.4215618E-2,7.233586E-3,1.9040596E-2,1.0091711E-2,2.621451E-3,1.8170225E-2,3.0906696E-2,2.312916E-3,3.952671E-2,1.3462513E-3,4.8626927E-3,-3.0248365E-3,-1.1689286E-3,-4.552796E-3,-3.2662475E-3,-2.9766818E-3,-1.9715573E-3,-2.522812E-3,-1.2636721E-3,-1.6444682E-3,-9.317833E-4,-1.449142E-3,-7.547087E-4,-1.3773441E-3,-4.4460446E-4,-1.0247574E-3,5.0027546E-4,-7.320166E-4,4.4234443E-4,1.542232E-3,4.091054E-4,4.7987915E-4,1.9421721E-3,1.4336039E-3,2.1376477E-3,2.513892E-4,1.2028667E-3,1.235382E-3,2.5380647E-3,2.7239867E-3,3.3026088E-3,2.0818522E-3,4.0219305E-3],"categories":[],"categories_nodes":[],"categories_segments":[],"categories_sizes":[],"default_left":[0,0,0,0,0,0,0,0,0,0,0,0,0,0,0,0,0,0,0,0,0,0,0,0,0,0,0,0,0,0,0,0,0,0,0,0,0,0,0,0,0,0,0,0,0,0,0,0,0,0,0,0,0,0,0,0,0,0,0,0,0,0,0,0,0,0,0,0,0,0,0,0,0,0,0,0,0,0,0,0,0],"id":20,"left_children":[1,3,5,7,9,11,13,-1,-1,15,17,19,21,23,25,-1,27,29,31,33,35,37,39,41,43,45,47,-1,49,51,53,55,57,-1,59,61,63,65,67,69,71,73,-1,75,77,-1,79,-1,-1,-1,-1,-1,-1,-1,-1,-1,-1,-1,-1,-1,-1,-1,-1,-1,-1,-1,-1,-1,-1,-1,-1,-1,-1,-1,-1,-1,-1,-1,-1,-1,-1],"loss_changes":[1.757935E0,3.2623112E-1,1.1537981E-1,4.3387413E-3,4.3173045E-2,2.5753595E-2,1.7469525E-2,0E0,0E0,8.87008E-3,2.0641953E-2,6.794386E-3,6.752804E-3,9.883106E-3,1.3146698E-3,0E0,2.1936968E-3,5.0481856E-3,3.9983727E-3,2.5480706E-4,1.8919527E-3,1.1935853E-3,3.6198944E-3,2.8216997E-3,3.5114586E-3,1.4598519E-3,9.699911E-5,0E0,9.249151E-5,8.946061E-4,1.2143143E-3,6.253142E-4,1.3653208E-3,0E0,5.938916E-5,9.674369E-5,1.7122283E-3,8.942487E-4,1.0210439E-5,8.5641874E-4,2.3089945E-3,5.2752113E-4,0E0,9.026751E-4,2.6285946E-3,0E0,5.879551E-4,0E0,0E0,0E0,0E0,0E0,0E0,0E0,0E0,0E0,0E0,0E0,0E0,0E0,0E0,0E0,0E0,0E0,0E0,0E0,0E0,0E0,0E0,0E0,0E0,0E0,0E0,0E0,0E0,0E0,0E0,0E0,0E0,0E0,0E0],"parents":[2147483647,0,0,1,1,2,2,3,3,4,4,5,5,6,6,9,9,10,10,11,11,12,12,13,13,14,14,16,16,17,17,18,18,19,19,20,20,21,21,22,22,23,23,24,24,25,25,26,26,28,28,29,29,30,30,31,31,32,32,34,34,35,35,36,36,37,37,38,38,39,39,40,40,41,41,43,43,44,44,46,46],"right_children":[2,4,6,8,10,12,14,-1,-1,16,18,20,22,24,26,-1,28,30,32,34,36,38,40,42,44,46,48,-1,50,52,54,56,58,-1,60,62,64,66,68,70,72,74,-1,76,78,-1,80,-1,-1,-1,-1,-1,-1,-1,-1,-1,-1,-1,-1,-1,-1,-1,-1,-1,-1,-1,-1,-1,-1,-1,-1,-1,-1,-1,-1,-1,-1,-1,-1,-1,-1],"split_conditions":[3.38E2,1E0,1.4083E4,1.2E1,1E0,2.136E3,5.1295E4,-8.207689E-3,-2.922371E-3,2.1E1,5.4E1,1E0,1E0,1E0,9.962E4,-6.222482E-3,1E0,1E0,1E0,1E0,1E0,9.0076333E-1,1E0,5E-1,1E0,1E0,1E0,-4.478739E-3,1.8345865E0,1.6E1,2.3E1,1.7E2,1.03E2,-1.9968261E-3,1E0,2.5E1,1E0,7.956E3,9.9995667E-1,1.884E-1,6.172E3,8.8E1,2.621451E-3,1.56E-2,2.306E4,2.312916E-3,1E0,1.3462513E-3,4.8626927E-3,-3.0248365E-3,-1.1689286E-3,-4.552796E-3,-3.2662475E-3,-2.9766818E-3,-1.9715573E-3,-2.522812E-3,-1.2636721E-3,-1.6444682E-3,-9.317833E-4,-1.449142E-3,-7.547087E-4,-1.3773441E-3,-4.4460446E-4,-1.0247574E-3,5.0027546E-4,-7.320166E-4,4.4234443E-4,1.542232E-3,4.091054E-4,4.7987915E-4,1.9421721E-3,1.4336039E-3,2.1376477E-3,2.513892E-4,1.2028667E-3,1.235382E-3,2.5380647E-3,2.7239867E-3,3.3026088E-3,2.0818522E-3,4.0219305E-3],"split_indices":[57,28,57,57,17,57,57,0,0,57,57,30,30,17,57,0,30,30,30,17,17,15,17,5,30,17,25,0,59,57,57,57,57,0,25,3,25,57,0,7,57,13,0,7,57,0,30,0,0,0,0,0,0,0,0,0,0,0,0,0,0,0,0,0,0,0,0,0,0,0,0,0,0,0,0,0,0,0,0,0,0],"split_type":[0,0,0,0,0,0,0,0,0,0,0,0,0,0,0,0,0,0,0,0,0,0,0,0,0,0,0,0,0,0,0,0,0,0,0,0,0,0,0,0,0,0,0,0,0,0,0,0,0,0,0,0,0,0,0,0,0,0,0,0,0,0,0,0,0,0,0,0,0,0,0,0,0,0,0,0,0,0,0,0,0],"sum_hessian":[1.697E3,5.65E2,1.132E3,1.69E2,3.96E2,4.38E2,6.94E2,1.66E2,3E0,9.4E1,3.02E2,1.41E2,2.97E2,5.34E2,1.6E2,3.1E1,6.3E1,1.33E2,1.69E2,2.3E1,1.18E2,2.9E1,2.68E2,5.3E1,4.81E2,1.2E2,4E1,3.9E1,2.4E1,5.7E1,7.6E1,4.6E1,1.23E2,1E1,1.3E1,8E0,1.1E2,2.4E1,5E0,3.1E1,2.37E2,3.7E1,1.6E1,2.8E1,4.53E2,1.1E1,1.09E2,1E0,3.9E1,2.2E1,2E0,2.8E1,2.9E1,4.6E1,3E1,3.8E1,8E0,4.8E1,7.5E1,5E0,8E0,5E0,3E0,7E0,1.03E2,1.2E1,1.2E1,4E0,1E0,2.7E1,4E0,8.1E1,1.56E2,8E0,2.9E1,1.7E1,1.1E1,1.71E2,2.82E2,5E0,1.04E2],"tree_param":{"num_deleted":"0","num_feature":"65","num_nodes":"81","size_leaf_vector":"1"}},{"base_weights":[-2.6051322E-4,-4.441894E-2,1.8820977E-2,-7.378981E-2,-2.880351E-2,2.3124598E-2,-8.126428E-3,-7.4121165E-3,-3.0085593E-3,-4.4466767E-2,-2.305996E-2,1.5172345E-2,2.6641019E-2,-2.6890837E-2,-4.8280666E-3,-4.9904965E-2,-2.9579338E-2,-3.0200297E-2,-1.7842082E-2,5.996108E-3,1.7900232E-2,1.3034757E-2,2.7513023E-2,-3.6221158E-3,-1.88779E-2,-1.04988245E-2,4.4273923E-4,-5.5933867E-2,-3.6988005E-3,-3.379921E-2,-1.5859724E-3,-3.879038E-2,-2.513398E-2,-2.777388E-2,-1.5312745E-2,-7.531593E-3,7.1015507E-3,2.5510788E-4,1.9503174E-2,-6.071329E-5,1.4345822E-2,2.625985E-2,3.6731176E-2,-1.9765334E-2,-3.226906E-4,-2.1599412E-2,-8.627568E-3,-3.585515E-3,8.816488E-3,-5.664154E-3,-1.381351E-3,-3.4705203E-3,-8.74567E-4,-3.996422E-3,-1.9408598E-3,-2.7780018E-3,-1.4109047E-3,-2.8539496E-3,-1.1880588E-3,-1.7643087E-3,-9.797328E-4,9.682179E-5,-1.2023554E-3,-2.253506E-4,8.38645E-4,-7.2097423E-4,2.4356456E-4,1.1116505E-3,2.147781E-3,-4.8689844E-4,2.3586005E-4,3.4457643E-4,1.5804522E-3,2.4506284E-3,3.3628456E-3,3.3860186E-3,4.3562045E-3,-2.428411E-3,-1.1777402E-3,-2.4523756E-3,-7.576138E-4,-1.402742E-3,-4.7880132E-4,-1.4408649E-3,-1.4885249E-4,2.838699E-4,1.6901523E-3],"categories":[],"categories_nodes":[],"categories_segments":[],"categories_sizes":[],"default_left":[0,0,0,0,0,0,0,0,0,0,0,0,0,0,0,0,0,0,0,0,0,0,0,0,0,0,0,0,0,0,0,0,0,0,0,0,0,0,0,0,0,0,0,0,0,0,0,0,0,0,0,0,0,0,0,0,0,0,0,0,0,0,0,0,0,0,0,0,0,0,0,0,0,0,0,0,0,0,0,0,0,0,0,0,0,0,0],"id":21,"left_children":[1,3,5,7,9,11,13,-1,-1,15,17,19,21,23,25,27,29,31,33,35,37,39,41,-1,43,45,47,49,-1,51,-1,53,55,57,59,61,63,65,67,69,71,73,75,77,-1,79,81,83,85,-1,-1,-1,-1,-1,-1,-1,-1,-1,-1,-1,-1,-1,-1,-1,-1,-1,-1,-1,-1,-1,-1,-1,-1,-1,-1,-1,-1,-1,-1,-1,-1,-1,-1,-1,-1,-1,-1],"loss_changes":[1.4130478E0,2.2994584E-1,1.3599056E-1,3.042221E-4,2.884221E-2,2.7838886E-2,9.896641E-3,0E0,0E0,5.6484044E-3,8.589223E-3,7.7025667E-3,7.934779E-3,1.1105388E-3,4.159284E-3,2.8372407E-3,9.692237E-4,3.4640953E-3,3.1921081E-3,1.1451351E-3,6.7832097E-3,7.5630704E-4,6.613493E-3,0E0,1.4455756E-4,1.2053768E-3,2.4940178E-3,4.3967366E-4,0E0,1.2774765E-4,0E0,4.3395907E-5,1.5625991E-3,1.6409904E-6,1.3309252E-3,2.4072628E-4,8.362797E-4,3.5938554E-4,3.40458E-3,6.964757E-5,5.815383E-4,6.6832006E-3,1.5445054E-5,2.1933578E-4,0E0,1.8328475E-4,1.1560852E-3,1.1133525E-3,1.1119567E-3,0E0,0E0,0E0,0E0,0E0,0E0,0E0,0E0,0E0,0E0,0E0,0E0,0E0,0E0,0E0,0E0,0E0,0E0,0E0,0E0,0E0,0E0,0E0,0E0,0E0,0E0,0E0,0E0,0E0,0E0,0E0,0E0,0E0,0E0,0E0,0E0,0E0,0E0],"parents":[2147483647,0,0,1,1,2,2,3,3,4,4,5,5,6,6,9,9,10,10,11,11,12,12,13,13,14,14,15,15,16,16,17,17,18,18,19,19,20,20,21,21,22,22,24,24,25,25,26,26,27,27,29,29,31,31,32,32,33,33,34,34,35,35,36,36,37,37,38,38,39,39,40,40,41,41,42,42,43,43,45,45,46,46,47,47,48,48],"right_children":[2,4,6,8,10,12,14,-1,-1,16,18,20,22,24,26,28,30,32,34,36,38,40,42,-1,44,46,48,50,-1,52,-1,54,56,58,60,62,64,66,68,70,72,74,76,78,-1,80,82,84,86,-1,-1,-1,-1,-1,-1,-1,-1,-1,-1,-1,-1,-1,-1,-1,-1,-1,-1,-1,-1,-1,-1,-1,-1,-1,-1,-1,-1,-1,-1,-1,-1,-1,-1,-1,-1,-1,-1],"split_conditions":[3.5E1,4E0,2E0,3E0,1E0,4.4E1,1E0,-7.4121165E-3,-3.0085593E-3,1.2E1,1E0,2.91E2,1E0,1.6456693E0,3.2941177E0,1E0,7.167095E0,3.0968993E0,1.7857143E0,4.4E1,1E0,5.87E2,3.1661E4,-3.6221158E-3,8.2E0,1E0,1.02E2,5.2318092E1,-3.6988005E-3,1.089441E1,-1.5859724E-3,2.2591757E1,1.5E1,1.6121704E1,1.8E1,1.5286169E-2,1E0,1.142E3,1E0,5.1E1,1E0,7.871E3,4.6218E4,1E0,-3.226906E-4,2.9837399E0,1E0,1E0,6.2916665E0,-5.664154E-3,-1.381351E-3,-3.4705203E-3,-8.74567E-4,-3.996422E-3,-1.9408598E-3,-2.7780018E-3,-1.4109047E-3,-2.8539496E-3,-1.1880588E-3,-1.7643087E-3,-9.797328E-4,9.682179E-5,-1.2023554E-3,-2.253506E-4,8.38645E-4,-7.2097423E-4,2.4356456E-4,1.1116505E-3,2.147781E-3,-4.8689844E-4,2.3586005E-4,3.4457643E-4,1.5804522E-3,2.4506284E-3,3.3628456E-3,3.3860186E-3,4.3562045E-3,-2.428411E-3,-1.1777402E-3,-2.4523756E-3,-7.576138E-4,-1.402742E-3,-4.7880132E-4,-1.4408649E-3,-1.4885249E-4,2.838699E-4,1.6901523E-3],"split_indices":[14,13,63,14,17,3,17,0,0,14,30,14,17,58,58,30,58,58,58,13,25,14,62,0,58,30,14,12,0,59,0,12,14,12,14,8,30,14,17,3,30,14,62,25,0,58,58,25,58,0,0,0,0,0,0,0,0,0,0,0,0,0,0,0,0,0,0,0,0,0,0,0,0,0,0,0,0,0,0,0,0,0,0,0,0,0,0],"split_type":[0,0,0,0,0,0,0,0,0,0,0,0,0,0,0,0,0,0,0,0,0,0,0,0,0,0,0,0,0,0,0,0,0,0,0,0,0,0,0,0,0,0,0,0,0,0,0,0,0,0,0,0,0,0,0,0,0,0,0,0,0,0,0,0,0,0,0,0,0,0,0,0,0,0,0,0,0,0,0,0,0,0,0,0,0,0,0],"sum_hessian":[1.675E3,5.05E2,1.17E3,1.74E2,3.31E2,1.009E3,1.61E2,1.72E2,2E0,8.7E1,2.44E2,3.11E2,6.98E2,2.3E1,1.38E2,6.2E1,2.5E1,1.01E2,1.43E2,7.2E1,2.39E2,4.3E1,6.55E2,9E0,1.4E1,6.6E1,7.2E1,4E1,2.2E1,1.8E1,7E0,3.5E1,6.6E1,2.7E1,1.16E2,5E0,6.7E1,2E1,2.19E2,4E0,3.9E1,5.8E2,7.5E1,1.3E1,1E0,8E0,5.8E1,4.9E1,2.3E1,3.9E1,1E0,1.7E1,1E0,3.2E1,3E0,5.2E1,1.4E1,2.5E1,2E0,8E1,3.6E1,2E0,3E0,8E0,5.9E1,4E0,1.6E1,4.3E1,1.76E2,1E0,3E0,5E0,3.4E1,4.72E2,1.08E2,5.7E1,1.8E1,7E0,6E0,6E0,2E0,2.3E1,3.5E1,7E0,4.2E1,1.4E1,9E0],"tree_param":{"num_deleted":"0","num_feature":"65","num_nodes":"87","size_leaf_vector":"1"}},{"base_weights":[1.2588355E-4,-3.7147645E-2,1.8980607E-2,-6.4964384E-2,-2.408425E-2,9.254424E-3,2.6556563E-2,-6.684995E-3,-3.7966636E-3,-3.809906E-2,-1.9410143E-2,-3.3129535E-3,1.2920361E-2,2.3034351E-2,3.1119207E-2,-4.7994513E-2,-3.1526808E-2,-2.5903638E-2,-1.2459855E-2,-1.6299438E-2,-4.5379414E-4,1.095088E-2,2.0731054E-2,1.3544828E-2,2.4159104E-2,2.0373015E-2,3.2382857E-2,-1.1652708E-3,-4.8699914E-3,-3.8057227E-2,-2.577487E-2,-3.408952E-2,-2.1675797E-2,-1.7453462E-2,-1.0330465E-2,-1.9874513E-2,-9.721624E-3,-9.332742E-3,1.1254345E-3,1.3275277E-3,1.2403935E-2,1.3499047E-2,2.1763131E-2,8.725584E-3,1.8950262E-3,2.152009E-2,2.677846E-3,4.981965E-3,2.184413E-2,3.0973963E-2,4.0239166E-3,-3.8780507E-3,-9.987623E-4,-2.8656349E-3,-1.6882885E-3,-3.9212843E-3,-2.846263E-3,-2.6282344E-3,-1.7504782E-3,-1.8794552E-3,-1.0596862E-3,-1.447951E-3,-8.5648865E-4,-2.3499082E-3,-1.2333434E-3,-1.0980691E-3,-3.5432578E-4,-1.0525774E-3,-1.4497041E-4,1.870589E-4,-1.331386E-3,-3.6595363E-4,3.2781027E-4,7.6106837E-4,1.5374928E-3,7.0537924E-4,1.7095115E-3,2.4144955E-3,1.8258904E-3,1.4594264E-4,1.2503573E-3,5.168597E-4,2.169111E-3,6.3617626E-4,4.2128562E-5,1.2229867E-3,2.446651E-3,2.907124E-3,3.6671085E-3],"categories":[],"categories_nodes":[],"categories_segments":[],"categories_sizes":[],"default_left":[0,0,0,0,0,0,0,0,0,0,0,0,0,0,0,0,0,0,0,0,0,0,0,0,0,0,0,0,0,0,0,0,0,0,0,0,0,0,0,0,0,0,0,0,0,0,0,0,0,0,0,0,0,0,0,0,0,0,0,0,0,0,0,0,0,0,0,0,0,0,0,0,0,0,0,0,0,0,0,0,0,0,0,0,0,0,0,0,0],"id":22,"left_children":[1,3,5,7,9,11,13,-1,-1,15,17,19,21,23,25,27,29,31,33,35,37,39,41,43,45,47,49,-1,-1,51,53,55,57,59,61,63,65,67,69,71,73,75,77,79,-1,81,-1,83,85,87,-1,-1,-1,-1,-1,-1,-1,-1,-1,-1,-1,-1,-1,-1,-1,-1,-1,-1,-1,-1,-1,-1,-1,-1,-1,-1,-1,-1,-1,-1,-1,-1,-1,-1,-1,-1,-1,-1,-1],"loss_changes":[1.1757568E0,2.026555E-1,8.16184E-2,6.574154E-3,2.4415076E-2,2.252556E-2,9.311259E-3,0E0,0E0,4.6652555E-3,1.2765422E-2,4.114081E-3,5.587749E-3,3.472492E-3,2.9931366E-3,3.553927E-4,1.2728348E-3,4.4177696E-3,1.3296325E-3,2.771113E-4,1.3005172E-3,4.234448E-3,2.6601925E-4,8.766521E-4,1.6150028E-3,5.930755E-4,1.3990402E-3,0E0,0E0,1.4052913E-4,4.1297078E-4,2.964884E-4,1.4805458E-3,1.7784536E-4,6.231824E-4,3.817305E-5,3.110338E-5,1.1640659E-4,8.749056E-4,4.1082964E-4,3.6425367E-3,1.5754532E-4,9.3312934E-5,6.1313563E-4,0E0,3.4371018E-4,0E0,2.249115E-5,4.0672068E-4,1.1778176E-3,0E0,0E0,0E0,0E0,0E0,0E0,0E0,0E0,0E0,0E0,0E0,0E0,0E0,0E0,0E0,0E0,0E0,0E0,0E0,0E0,0E0,0E0,0E0,0E0,0E0,0E0,0E0,0E0,0E0,0E0,0E0,0E0,0E0,0E0,0E0,0E0,0E0,0E0,0E0],"parents":[2147483647,0,0,1,1,2,2,3,3,4,4,5,5,6,6,9,9,10,10,11,11,12,12,13,13,14,14,15,15,16,16,17,17,18,18,19,19,20,20,21,21,22,22,23,23,24,24,25,25,26,26,29,29,30,30,31,31,32,32,33,33,34,34,35,35,36,36,37,37,38,38,39,39,40,40,41,41,42,42,43,43,45,45,47,47,48,48,49,49],"right_children":[2,4,6,8,10,12,14,-1,-1,16,18,20,22,24,26,28,30,32,34,36,38,40,42,44,46,48,50,-1,-1,52,54,56,58,60,62,64,66,68,70,72,74,76,78,80,-1,82,-1,84,86,88,-1,-1,-1,-1,-1,-1,-1,-1,-1,-1,-1,-1,-1,-1,-1,-1,-1,-1,-1,-1,-1,-1,-1,-1,-1,-1,-1,-1,-1,-1,-1,-1,-1,-1,-1,-1,-1,-1,-1],"split_conditions":[3.01E2,6E0,1.5916E4,1E0,1E0,1.159E3,3.598E4,-6.684995E-3,-3.7966636E-3,2.9E1,5.8E1,1E0,3.815E3,1E0,1E0,6E0,1E0,1E0,1E0,5.97E2,1E0,1E0,7E-1,9.8515934E-1,8E-1,3.8799E4,9.962E4,-1.1652708E-3,-4.8699914E-3,1E0,1.26E2,1.6E1,1.8E1,1.0389319E1,8.8E1,1E0,9.401736E-5,1.0988372E1,1.1285669E1,6.743E3,6.502E3,6.502E3,1.1645E4,1E0,1.8950262E-3,1E0,2.677846E-3,5.08E2,1E0,7.1788426E-3,4.0239166E-3,-3.8780507E-3,-9.987623E-4,-2.8656349E-3,-1.6882885E-3,-3.9212843E-3,-2.846263E-3,-2.6282344E-3,-1.7504782E-3,-1.8794552E-3,-1.0596862E-3,-1.447951E-3,-8.5648865E-4,-2.3499082E-3,-1.2333434E-3,-1.0980691E-3,-3.5432578E-4,-1.0525774E-3,-1.4497041E-4,1.870589E-4,-1.331386E-3,-3.6595363E-4,3.2781027E-4,7.6106837E-4,1.5374928E-3,7.0537924E-4,1.7095115E-3,2.4144955E-3,1.8258904E-3,1.4594264E-4,1.2503573E-3,5.168597E-4,2.169111E-3,6.3617626E-4,4.2128562E-5,1.2229867E-3,2.446651E-3,2.907124E-3,3.6671085E-3],"split_indices":[57,57,57,17,17,57,57,0,0,57,57,17,62,17,17,54,25,25,30,57,30,17,5,0,5,57,57,0,0,21,57,57,57,59,57,25,4,58,9,57,57,57,57,30,0,25,0,41,25,9,0,0,0,0,0,0,0,0,0,0,0,0,0,0,0,0,0,0,0,0,0,0,0,0,0,0,0,0,0,0,0,0,0,0,0,0,0,0,0],"split_type":[0,0,0,0,0,0,0,0,0,0,0,0,0,0,0,0,0,0,0,0,0,0,0,0,0,0,0,0,0,0,0,0,0,0,0,0,0,0,0,0,0,0,0,0,0,0,0,0,0,0,0,0,0,0,0,0,0,0,0,0,0,0,0,0,0,0,0,0,0,0,0,0,0,0,0,0,0,0,0,0,0,0,0,0,0,0,0,0,0],"sum_hessian":[1.671E3,5.61E2,1.11E3,1.78E2,3.83E2,4.87E2,6.23E2,1.65E2,1.3E1,9.4E1,2.89E2,1.1E2,3.77E2,3.55E2,2.68E2,3.5E1,5.9E1,1.48E2,1.41E2,1.9E1,9.1E1,3.03E2,7.4E1,3.9E1,3.16E2,3E1,2.38E2,1E0,3.4E1,2.5E1,3.4E1,4.8E1,1E2,4E1,1.01E2,1.1E1,8E0,1.3E1,7.8E1,4E1,2.63E2,1.1E1,6.3E1,2.2E1,1.7E1,1.62E2,1.54E2,3E0,2.7E1,2.06E2,3.2E1,2.4E1,1E0,2.4E1,1E1,2.2E1,2.6E1,4.5E1,5.5E1,3.2E1,8E0,2.8E1,7.3E1,6E0,5E0,6E0,2E0,1.1E1,2E0,7.5E1,3E0,1.1E1,2.9E1,1.02E2,1.61E2,5E0,6E0,3.4E1,2.9E1,8E0,1.4E1,2E0,1.6E2,2E0,1E0,7E0,2E1,1.59E2,4.7E1],"tree_param":{"num_deleted":"0","num_feature":"65","num_nodes":"89","size_leaf_vector":"1"}},{"base_weights":[-4.4231548E-4,-3.6212068E-2,1.5131287E-2,-5.979946E-2,-2.3243608E-2,-3.5267759E-3,1.9549364E-2,-6.0206586E-3,-2.6732378E-3,-3.4675457E-2,-1.9169183E-2,-1.8769544E-2,-1.3643424E-3,1.7570559E-2,2.6490526E-2,-3.975639E-2,-2.485899E-2,-2.7163707E-2,-1.5789783E-2,-2.2466362E-2,-1.1968255E-2,-5.624542E-3,4.657437E-3,1.4572516E-2,2.3459958E-2,2.4277208E-2,3.2871445E-3,-4.6596094E-3,-2.9684907E-2,-2.6493562E-2,-1.0733593E-3,-3.0442962E-2,-1.8327082E-2,-2.3208095E-2,-1.3648159E-2,-2.4979647E-2,-8.053273E-4,-1.2457593E-2,-3.2927693E-4,8.229867E-3,-8.394579E-3,-7.854019E-4,7.295688E-3,4.6961843E-3,1.5898222E-2,2.1239903E-2,3.0904517E-2,