{"learner":{"attributes":{"best_iteration":"2","best_score":"0.12159427241344622"},"feature_names":[],"feature_types":[],"gradient_booster":{"model":{"gbtree_model_param":{"num_parallel_tree":"1","num_trees":"13"},"iteration_indptr":[0,1,2,3,4,5,6,7,8,9,10,11,12,13],"tree_info":[0,0,0,0,0,0,0,0,0,0,0,0,0],"trees":[{"base_weights":[-1.008395E-3,4.3145407E-2,-4.014463E-2,5.508154E-2,-2.5295833E-2,-1.3429685E-1,5.548502E-4,6.5616295E-2,-7.193749E-2,-9.35712E-3,-2.0832497E-1,-4.685553E-2,3.0163221E-2,4.682383E-2,1.3140742E-1,-1.9295832E-2,3.2722235E-2,4.6055573E-3,-4.0733316E-3,-3.6937483E-2,-2.765E-1,2.6072938E-2,-1.1392707E-1,4.538486E-3,5.5409748E-2,7.057988E-2,-4.590258E-3,1.3857293E-2,3.7041665E-3,5.204168E-3,-2.9583275E-4,1.7041684E-3,-6.06111E-3,-7.958323E-4,-3.1993054E-2,-5.727777E-3,6.34028E-2,-1.2221427E-2,-2.7958334E-3,1.4928596E-2,-6.49998E-3,2.4822943E-2,9.326669E-3,3.567502E-3,8.914446E-3,-4.9437494E-3,1.5851876E-3,2.2722245E-3,7.806252E-3,1.9266689E-3,2.7222437E-4,-9.437487E-4,-1.9374788E-4,1.1266697E-3,3.5562515E-3],"categories":[],"categories_nodes":[],"categories_segments":[],"categories_sizes":[],"default_left":[0,0,0,0,0,0,0,0,0,0,0,0,0,0,0,0,0,0,0,0,0,0,0,0,0,0,0,0,0,0,0,0,0,0,0,0,0,0,0,0,0,0,0,0,0,0,0,0,0,0,0,0,0,0,0],"id":0,"left_children":[1,3,5,7,-1,9,11,13,15,17,19,21,23,25,27,-1,29,-1,-1,31,33,35,37,39,41,43,45,-1,-1,-1,-1,-1,-1,-1,-1,-1,47,-1,-1,49,51,53,-1,-1,-1,-1,-1,-1,-1,-1,-1,-1,-1,-1,-1],"loss_changes":[1.728054E-1,1.8004699E-1,2.031677E-1,6.627354E-2,0E0,1.4603552E-1,5.4755595E-2,4.701124E-2,5.697806E-2,1.4046472E-2,1.06630236E-1,7.634178E-2,1.5274979E-2,4.307282E-2,9.5264614E-4,0E0,2.221942E-3,0E0,0E0,6.144443E-3,7.909429E-2,2.8523337E-2,2.2826195E-3,1.588017E-3,1.1579923E-2,1.2371637E-2,1.1784954E-2,0E0,0E0,0E0,0E0,0E0,0E0,0E0,0E0,0E0,1.8044375E-3,0E0,0E0,3.1821744E-4,7.5531716E-5,7.640342E-4,0E0,0E0,0E0,0E0,0E0,0E0,0E0,0E0,0E0,0E0,0E0,0E0,0E0],"parents":[2147483647,0,0,1,1,2,2,3,3,5,5,6,6,7,7,8,8,9,9,10,10,11,11,12,12,13,13,14,14,16,16,19,19,20,20,21,21,22,22,23,23,24,24,25,25,26,26,36,36,39,39,40,40,41,41],"right_children":[2,4,6,8,-1,10,12,14,16,18,20,22,24,26,28,-1,30,-1,-1,32,34,36,38,40,42,44,46,-1,-1,-1,-1,-1,-1,-1,-1,-1,48,-1,-1,50,52,54,-1,-1,-1,-1,-1,-1,-1,-1,-1,-1,-1,-1,-1],"split_conditions":[6.72E2,2E0,3.186E3,5.8E3,-2.5295833E-2,4.7513E4,4.13E3,3.9818463E2,1.54E2,1.746E3,1E0,3.716E3,2.5330126E1,3.08E2,1.481E3,-1.9295832E-2,3.07E2,4.6055573E-3,-4.0733316E-3,1.087E3,1.42E2,3.336E3,1.6582E4,4.3317E4,9.896E3,1.4951E4,4.31E2,1.3857293E-2,3.7041665E-3,5.204168E-3,-2.9583275E-4,1.7041684E-3,-6.06111E-3,-7.958323E-4,-3.1993054E-2,-5.727777E-3,3.193E3,-1.2221427E-2,-2.7958334E-3,1.9732943E1,1.9991E4,1.1143162E2,9.326669E-3,3.567502E-3,8.914446E-3,-4.9437494E-3,1.5851876E-3,2.2722245E-3,7.806252E-3,1.9266689E-3,2.7222437E-4,-9.437487E-4,-1.9374788E-4,1.1266697E-3,3.5562515E-3],"split_indices":[21,7,1,22,0,23,22,9,1,21,17,22,9,21,1,0,1,0,0,1,1,22,1,10,10,23,10,0,0,0,0,0,0,0,0,0,1,0,0,9,1,9,0,0,0,0,0,0,0,0,0,0,0,0,0],"split_type":[0,0,0,0,0,0,0,0,0,0,0,0,0,0,0,0,0,0,0,0,0,0,0,0,0,0,0,0,0,0,0,0,0,0,0,0,0,0,0,0,0,0,0,0,0,0,0,0,0,0,0,0,0,0,0],"sum_hessian":[9.8E1,4.6E1,5.2E1,4.5E1,1E0,1.5E1,3.7E1,4.2E1,3E0,6E0,9E0,1.4E1,2.3E1,3.4E1,8E0,1E0,2E0,2E0,4E0,3E0,6E0,7E0,7E0,1.2E1,1.1E1,2.3E1,1.1E1,7E0,1E0,1E0,1E0,1E0,2E0,1E0,5E0,2E0,5E0,6E0,1E0,6E0,6E0,7E0,4E0,9E0,1.4E1,3E0,8E0,2E0,3E0,4E0,2E0,3E0,3E0,4E0,3E0],"tree_param":{"num_deleted":"0","num_feature":"28","num_nodes":"55","size_leaf_vector":"1"}},{"base_weights":[-3.058888E-3,8.0444805E-2,-3.0850967E-2,9.76793E-2,2.4635417E-2,-2.3044271E-2,-1.8833317E-2,5.3484943E-2,1.2768629E-2,-2.5486469E-3,3.723681E-2,-1.2042325E-2,-2.4031041E-2,7.963689E-3,-2.5364578E-2,4.9650394E-3,-1.2415558E-3,-5.5125576E-2,3.266227E-2,-7.560402E-4,-3.0486465E-3,-2.9196179E-2,-3.9572693E-2,-3.434072E-2,5.130529E-2,1.6744812E-4,-1.1533206E-2,1.7869438E-3,-9.101824E-3,7.016179E-3,3.1542645E-3],"categories":[],"categories_nodes":[],"categories_segments":[],"categories_sizes":[],"default_left":[0,0,0,0,0,0,0,0,0,0,0,0,0,0,0,0,0,0,0,0,0,0,0,0,0,0,0,0,0,0,0],"id":1,"left_children":[1,3,5,7,9,-1,11,13,-1,-1,15,17,-1,-1,19,-1,-1,21,23,-1,-1,-1,25,27,29,-1,-1,-1,-1,-1,-1],"loss_changes":[2.2295222E-1,2.0677954E-2,1.683609E-1,1.7041221E-2,5.3702737E-3,0E0,1.00885496E-1,2.0578567E-2,0E0,0E0,4.314621E-3,1.3276984E-1,0E0,0E0,4.3082982E-5,0E0,0E0,1.1736827E-1,4.4232566E-2,0E0,0E0,0E0,1.0643835E-1,2.529958E-2,7.848583E-3,0E0,0E0,0E0,0E0,0E0,0E0],"parents":[2147483647,0,0,1,1,2,2,3,3,4,4,6,6,7,7,10,10,11,11,14,14,17,17,18,18,22,22,23,23,24,24],"right_children":[2,4,6,8,10,-1,12,14,-1,-1,16,18,-1,-1,20,-1,-1,22,24,-1,-1,-1,26,28,30,-1,-1,-1,-1,-1,-1],"split_conditions":[1.571E3,5.212E3,1.732E3,3.24E2,1.59E2,-2.3044271E-2,2E0,9.6E1,1.2768629E-2,-2.5486469E-3,8.3E2,5.827491E-1,-2.4031041E-2,7.963689E-3,1.42E2,4.9650394E-3,-1.2415558E-3,1.7887638E0,3.785E3,-7.560402E-4,-3.0486465E-3,-2.9196179E-2,4.9245867E-1,4.666798E0,4.612E3,1.6744812E-4,-1.1533206E-2,1.7869438E-3,-9.101824E-3,7.016179E-3,3.1542645E-3],"split_indices":[10,22,10,10,10,0,7,1,0,0,10,2,0,0,1,0,0,24,22,0,0,0,2,24,22,0,0,0,0,0,0],"split_type":[0,0,0,0,0,0,0,0,0,0,0,0,0,0,0,0,0,0,0,0,0,0,0,0,0,0,0,0,0,0,0],"sum_hessian":[9.4E1,2.3E1,7.1E1,1.7E1,6E0,3E0,6.8E1,8E0,9E0,1E0,5E0,6.7E1,1E0,6E0,2E0,4E0,1E0,3.4E1,3.3E1,1E0,1E0,1E0,3.3E1,7E0,2.6E1,2.2E1,1.1E1,4E0,3E0,1.2E1,1.4E1],"tree_param":{"num_deleted":"0","num_feature":"28","num_nodes":"31","size_leaf_vector":"1"}},{"base_weights":[6.1044685E-4,9.522765E-3,-1.9561316E-1,2.027729E-2,-1.17819205E-1,-7.59084E-3,-2.7736371E-2,8.729933E-3,1.129692E-2,5.5461526E-3,-2.8415507E-2,5.299894E-2,-7.526615E-3,4.6957075E-3,-1.6545847E-2,6.988118E-3,6.7870006E-2,-6.520789E-2,1.7809495E-2,-2.8941335E-4,-2.0131709E-3,3.8368066E-3,-1.8293873E-3,8.877574E-3,3.1295505E-3,-1.631058E-3,-9.780495E-3,-1.2560863E-3,4.443937E-3],"categories":[],"categories_nodes":[],"categories_segments":[],"categories_sizes":[],"default_left":[0,0,0,0,0,0,0,0,0,0,0,0,0,0,0,0,0,0,0,0,0,0,0,0,0,0,0,0,0],"id":2,"left_children":[1,3,5,7,9,-1,-1,11,-1,13,-1,15,17,-1,19,21,23,25,27,-1,-1,-1,-1,-1,-1,-1,-1,-1,-1],"loss_changes":[1.6100423E-1,1.2290527E-1,1.8089488E-2,8.67822E-2,1.4521654E-1,0E0,0E0,5.3653836E-2,0E0,5.351195E-3,0E0,1.32103115E-2,8.153938E-2,0E0,1.3754866E-4,5.4619857E-3,8.690968E-3,2.5501192E-2,3.2099783E-2,0E0,0E0,0E0,0E0,0E0,0E0,0E0,0E0,0E0,0E0],"parents":[2147483647,0,0,1,1,2,2,3,3,4,4,7,7,9,9,11,11,12,12,14,14,15,15,16,16,17,17,18,18],"right_children":[2,4,6,8,10,-1,-1,12,-1,14,-1,16,18,-1,20,22,24,26,28,-1,-1,-1,-1,-1,-1,-1,-1,-1,-1],"split_conditions":[5.6471E4,6.04E3,1.03220575E-1,3.9818463E2,6.1556E4,-7.59084E-3,-2.7736371E-2,3.08E2,1.129692E-2,6.137E3,-2.8415507E-2,1.522E3,6.2771E4,4.6957075E-3,3.836705E-1,8.571429E-2,4.612E3,3.7472117E-1,2.544E3,-2.8941335E-4,-2.0131709E-3,3.8368066E-3,-1.8293873E-3,8.877574E-3,3.1295505E-3,-1.631058E-3,-9.780495E-3,-1.2560863E-3,4.443937E-3],"split_indices":[11,22,2,9,23,0,0,21,0,22,0,11,23,0,2,2,22,2,21,0,0,0,0,0,0,0,0,0,0],"split_type":[0,0,0,0,0,0,0,0,0,0,0,0,0,0,0,0,0,0,0,0,0,0,0,0,0,0,0,0,0],"sum_hessian":[9E1,8.7E1,3E0,8.1E1,6E0,2E0,1E0,7.3E1,8E0,4E0,2E0,1.9E1,5.4E1,1E0,3E0,5E0,1.4E1,1.6E1,3.8E1,1E0,2E0,2E0,3E0,8E0,6E0,7E0,9E0,1.8E1,2E1],"tree_param":{"num_deleted":"0","num_feature":"28","num_nodes":"29","size_leaf_vector":"1"}},{"base_weights":[-9.6204495E-3,4.4343207E-2,-2.9909125E-2,6.0509585E-2,-2.5018444E-2,-1.90246E-1,-1.5533322E-2,6.937666E-2,1.0468066E-3,5.3011836E-3,-7.728654E-2,-1.4720857E-3,-2.2240686E-1,-2.0116538E-2,-4.04754E-3,4.9461722E-2,1.0760123E-2,3.698203E-3,-2.3258945E-2,-9.544692E-3,-1.1402697E-3,-7.825435E-3,-2.9242376E-2,1.3599015E-2,-4.2509157E-2,5.848584E-2,1.9716322E-2,-6.5543357E-4,-2.833408E-3,-3.0482192E-2,4.3025583E-2,-8.771789E-3,-2.4200944E-2,6.5198042E-3,1.8853942E-3,-3.698054E-3,4.313567E-3,1.7411773E-4,-1.0058968E-2,8.662128E-3,1.3993462E-3,-3.628552E-3,3.359528E-3],"categories":[],"categories_nodes":[],"categories_segments":[],"categories_sizes":[],"default_left":[0,0,0,0,0,0,0,0,0,0,0,0,0,0,0,0,0,0,0,0,0,0,0,0,0,0,0,0,0,0,0,0,0,0,0,0,0,0,0,0,0,0,0],"id":3,"left_children":[1,3,5,7,9,11,13,15,17,-1,19,-1,21,-1,23,25,-1,-1,27,-1,-1,-1,-1,29,31,33,35,-1,-1,37,39,41,-1,-1,-1,-1,-1,-1,-1,-1,-1,-1,-1],"loss_changes":[1.11906216E-1,3.2911E-2,1.6761273E-1,1.2054376E-2,2.8568067E-2,3.0596226E-2,1.4630267E-1,9.902649E-3,4.353893E-3,0E0,3.6975518E-3,0E0,2.7582094E-2,0E0,4.537328E-2,2.8732643E-3,0E0,0E0,6.8623456E-5,0E0,0E0,0E0,0E0,6.0980808E-2,1.3922006E-1,1.6969517E-3,8.234199E-3,0E0,0E0,4.309804E-2,3.4226775E-2,2.3366868E-2,0E0,0E0,0E0,0E0,0E0,0E0,0E0,0E0,0E0,0E0,0E0],"parents":[2147483647,0,0,1,1,2,2,3,3,4,4,5,5,6,6,7,7,8,8,10,10,12,12,14,14,15,15,18,18,23,23,24,24,25,25,26,26,29,29,30,30,31,31],"right_children":[2,4,6,8,10,12,14,16,18,-1,20,-1,22,-1,24,26,-1,-1,28,-1,-1,-1,-1,30,32,34,36,-1,-1,38,40,42,-1,-1,-1,-1,-1,-1,-1,-1,-1,-1,-1],"split_conditions":[1.571E3,5.8E3,1.6453506E0,4.355502E2,6.543779E-1,3.413E3,1.732E3,1.00001686E2,3.6E1,5.3011836E-3,1.54E2,-1.4720857E-3,1E0,-2.0116538E-2,1.1144437E1,6.8301888E0,1.0760123E-2,3.698203E-3,1.42E2,-9.544692E-3,-1.1402697E-3,-7.825435E-3,-2.9242376E-2,4.095E3,7.032E3,5.212E3,2.27E2,-6.5543357E-4,-2.833408E-3,2.7829E4,3.6954346E0,2.0041533E1,-2.4200944E-2,6.5198042E-3,1.8853942E-3,-3.698054E-3,4.313567E-3,1.7411773E-4,-1.0058968E-2,8.662128E-3,1.3993462E-3,-3.628552E-3,3.359528E-3],"split_indices":[10,22,25,25,2,1,10,25,1,0,1,0,15,0,25,24,0,0,1,0,0,0,0,22,10,22,1,0,0,10,24,25,0,0,0,0,0,0,0,0,0,0,0],"split_type":[0,0,0,0,0,0,0,0,0,0,0,0,0,0,0,0,0,0,0,0,0,0,0,0,0,0,0,0,0,0,0,0,0,0,0,0,0,0,0,0,0,0,0],"sum_hessian":[1E2,2.7E1,7.3E1,2.2E1,5E0,5E0,6.8E1,1.9E1,3E0,2E0,3E0,1E0,4E0,3E0,6.5E1,1.4E1,5E0,1E0,2E0,2E0,1E0,2E0,2E0,4.5E1,2E1,1E1,4E0,1E0,1E0,1.8E1,2.7E1,1.8E1,2E0,8E0,2E0,1E0,3E0,1.3E1,5E0,1E1,1.7E1,1.1E1,7E0],"tree_param":{"num_deleted":"0","num_feature":"28","num_nodes":"43","size_leaf_vector":"1"}},{"base_weights":[-9.923157E-3,-3.1328895E-3,-1.7380394E-1,1.3569188E-3,-2.1932214E-2,-2.5139505E-2,-6.4141895E-3,4.5624543E-2,-1.3821814E-2,2.7159734E-2,8.146729E-2,-6.025271E-2,1.9973062E-2,4.9926672E-2,-7.5397715E-3,8.971354E-3,1.1871785E-3,-2.3892052E-2,-1.1583275E-1,-6.670789E-2,3.0573875E-2,6.601181E-3,-1.4970958E-3,-2.5419584E-3,3.073311E-3,-2.394411E-4,-2.1617362E-2,-2.1617431E-3,-1.6023824E-2,-6.226629E-4,-8.027154E-3,-2.5138245E-3,4.354647E-3],"categories":[],"categories_nodes":[],"categories_segments":[],"categories_sizes":[],"default_left":[0,0,0,0,0,0,0,0,0,0,0,0,0,0,0,0,0,0,0,0,0,0,0,0,0,0,0,0,0,0,0,0,0],"id":4,"left_children":[1,3,5,7,-1,-1,-1,9,11,13,15,17,19,21,23,-1,-1,25,27,29,31,-1,-1,-1,-1,-1,-1,-1,-1,-1,-1,-1,-1],"loss_changes":[1.1184773E-1,9.5421135E-2,1.7910242E-2,6.580748E-2,0E0,0E0,0E0,1.433311E-2,1.15749665E-1,1.459646E-2,3.5261512E-3,5.9881248E-2,4.1551724E-2,1.247102E-2,6.255718E-3,0E0,0E0,8.2154386E-2,4.6740174E-2,3.6019143E-3,2.928118E-2,0E0,0E0,0E0,0E0,0E0,0E0,0E0,0E0,0E0,0E0,0E0,0E0],"parents":[2147483647,0,0,1,1,2,2,3,3,7,7,8,8,9,9,10,10,11,11,12,12,13,13,14,14,17,17,18,18,19,19,20,20],"right_children":[2,4,6,8,-1,-1,-1,10,12,14,16,18,20,22,24,-1,-1,26,28,30,32,-1,-1,-1,-1,-1,-1,-1,-1,-1,-1,-1,-1],"split_conditions":[5.6471E4,2E0,3.186E3,5.779E3,-2.1932214E-2,-2.5139505E-2,-6.4141895E-3,4.448E3,5.827491E-1,3.336E3,4.151E3,5.0315154E-1,2.08E2,1E0,3.4210075E1,8.971354E-3,1.1871785E-3,5.8E3,1E0,1.42E2,1.8407772E1,6.601181E-3,-1.4970958E-3,-2.5419584E-3,3.073311E-3,-2.394411E-4,-2.1617362E-2,-2.1617431E-3,-1.6023824E-2,-6.226629E-4,-8.027154E-3,-2.5138245E-3,4.354647E-3],"split_indices":[11,7,1,11,0,0,0,22,2,22,1,2,1,15,25,0,0,22,15,1,9,0,0,0,0,0,0,0,0,0,0,0,0],"split_type":[0,0,0,0,0,0,0,0,0,0,0,0,0,0,0,0,0,0,0,0,0,0,0,0,0,0,0,0,0,0,0,0,0],"sum_hessian":[1E2,9.7E1,3E0,9.6E1,1E0,1E0,2E0,2.4E1,7.2E1,1.7E1,7E0,3E1,4.2E1,1E1,7E0,6E0,1E0,1.9E1,1.1E1,4E0,3.8E1,8E0,2E0,5E0,2E0,1.8E1,1E0,4E0,7E0,1E0,3E0,7E0,3.1E1],"tree_param":{"num_deleted":"0","num_feature":"28","num_nodes":"33","size_leaf_vector":"1"}},{"base_weights":[-1.715904E-3,2.3526861E-3,-2.0835606E-2,3.5264328E-2,-2.5311599E-2,4.394656E-2,-1.8205917E-2,-1.1073877E-1,-1.0847741E-2,5.10041E-2,-4.290864E-2,4.4235587E-3,-1.807209E-2,-3.777388E-2,1.4424377E-2,3.642149E-2,1.0204715E-2,-8.373239E-3,3.9781304E-3,-1.2616774E-3,2.777228E-3,-1.1731811E-2,-8.839155E-3,4.1016605E-2,-4.759304E-3,5.283752E-3,5.5429835E-5,-4.1173263E-3,2.653648E-3,3.3751727E-4,6.204383E-3,1.537381E-3,-1.8376553E-3],"categories":[],"categories_nodes":[],"categories_segments":[],"categories_sizes":[],"default_left":[0,0,0,0,0,0,0,0,0,0,0,0,0,0,0,0,0,0,0,0,0,0,0,0,0,0,0,0,0,0,0,0,0],"id":5,"left_children":[1,3,-1,5,7,9,-1,11,13,15,17,19,-1,21,23,25,-1,-1,-1,-1,-1,27,-1,29,31,-1,-1,-1,-1,-1,-1,-1,-1],"loss_changes":[8.7085806E-2,9.376126E-2,0E0,9.6682966E-2,6.7992695E-2,3.0385792E-2,0E0,6.527386E-2,3.388841E-2,2.8289951E-2,1.6833836E-2,1.9418761E-3,0E0,3.0599535E-2,1.3458768E-2,2.0578608E-2,0E0,0E0,0E0,0E0,0E0,2.0246053E-2,0E0,8.497035E-3,4.6690395E-3,0E0,0E0,0E0,0E0,0E0,0E0,0E0,0E0],"parents":[2147483647,0,0,1,1,3,3,4,4,5,5,7,7,8,8,9,9,10,10,11,11,13,13,14,14,15,15,21,21,23,23,24,24],"right_children":[2,4,-1,6,8,10,-1,12,14,16,18,20,-1,22,24,26,-1,-1,-1,-1,-1,28,-1,30,32,-1,-1,-1,-1,-1,-1,-1,-1],"split_conditions":[2E0,6.72E2,-2.0835606E-2,1.6031E4,3.054E3,5.8E3,-1.8205917E-2,4.27E2,4.13E3,3.9818463E2,1.54E2,4.12E2,-1.807209E-2,2.7829E4,4.319E3,3.08E2,1.0204715E-2,-8.373239E-3,3.9781304E-3,-1.2616774E-3,2.777228E-3,4.3123684E1,-8.839155E-3,1.1523E4,1.746E3,5.283752E-3,5.5429835E-5,-4.1173263E-3,2.653648E-3,3.3751727E-4,6.204383E-3,1.537381E-3,-1.8376553E-3],"split_indices":[7,21,0,1,10,22,0,1,22,9,1,1,0,10,22,21,0,0,0,0,0,9,0,1,21,0,0,0,0,0,0,0,0],"split_type":[0,0,0,0,0,0,0,0,0,0,0,0,0,0,0,0,0,0,0,0,0,0,0,0,0,0,0,0,0,0,0,0,0],"sum_hessian":[1.02E2,1.01E2,1E0,4.6E1,5.5E1,4.5E1,1E0,7E0,4.8E1,4.2E1,3E0,3E0,4E0,2.3E1,2.5E1,3.4E1,8E0,2E0,1E0,2E0,1E0,1.6E1,7E0,1E1,1.5E1,2.3E1,1.1E1,9E0,7E0,4E0,6E0,6E0,9E0],"tree_param":{"num_deleted":"0","num_feature":"28","num_nodes":"33","size_leaf_vector":"1"}},{"base_weights":[5.852385E-3,9.9516595E-3,-1.9793827E-2,4.5311086E-2,-8.697142E-3,5.8930468E-2,-4.5467436E-2,-2.5388235E-2,7.2679203E-3,1.9672632E-2,7.481846E-2,-6.702487E-2,2.0381154E-3,-7.7170692E-3,-6.969043E-2,-3.5055876E-2,2.6363498E-2,4.52845E-3,-1.4996136E-2,9.047461E-3,2.0599008E-2,-7.815021E-3,-1.6824425E-3,7.580355E-3,-3.405504E-2,-6.6591203E-3,-1.0009623E-2,-6.5722056E-3,1.4887954E-3,3.2308385E-2,-5.5184453E-3,4.1218402E-4,-2.0806089E-3,5.885467E-4,3.3350724E-3,-3.6315562E-3,2.5238625E-3,-4.2261514E-3,-1.9037556E-3,2.6383668E-3,-2.646794E-3,4.3822685E-3,5.241238E-4],"categories":[],"categories_nodes":[],"categories_segments":[],"categories_sizes":[],"default_left":[0,0,0,0,0,0,0,0,0,0,0,0,0,0,0,0,0,0,0,0,0,0,0,0,0,0,0,0,0,0,0,0,0,0,0,0,0,0,0,0,0,0,0],"id":6,"left_children":[1,3,-1,5,7,9,11,13,15,17,19,21,-1,23,25,27,29,-1,31,-1,33,-1,-1,35,37,39,-1,-1,-1,41,-1,-1,-1,-1,-1,-1,-1,-1,-1,-1,-1,-1,-1],"loss_changes":[8.467381E-2,6.501634E-2,0E0,4.471524E-2,1.7505351E-2,1.7239958E-2,8.463679E-3,2.4514081E-2,2.8402906E-2,9.558411E-3,1.5962526E-2,9.191558E-4,0E0,9.927823E-3,1.6582102E-2,1.782592E-2,1.3417961E-2,0E0,6.41132E-4,0E0,9.2945294E-4,0E0,0E0,1.33185685E-2,3.0460954E-4,3.3164758E-3,0E0,0E0,0E0,6.938476E-3,0E0,0E0,0E0,0E0,0E0,0E0,0E0,0E0,0E0,0E0,0E0,0E0,0E0],"parents":[2147483647,0,0,1,1,3,3,4,4,5,5,6,6,7,7,8,8,9,9,10,10,11,11,13,13,14,14,15,15,16,16,18,18,20,20,23,23,24,24,25,25,29,29],"right_children":[2,4,-1,6,8,10,12,14,16,18,20,22,-1,24,26,28,30,-1,32,-1,34,-1,-1,36,38,40,-1,-1,-1,42,-1,-1,-1,-1,-1,-1,-1,-1,-1,-1,-1,-1,-1],"split_conditions":[2E0,2.91E2,-1.9793827E-2,5.596E3,3.446E3,1.4951E4,4.11E2,1E0,4.07E3,1.7E2,6.176E3,1.54E2,2.0381154E-3,4.978E3,4.7513E4,2.544E3,2.7552E4,4.52845E-3,1E0,9.047461E-3,9.369E3,-7.815021E-3,-1.6824425E-3,4.31E2,2.84E3,4.27E2,-1.0009623E-2,-6.5722056E-3,1.4887954E-3,1.31844E5,-5.5184453E-3,4.1218402E-4,-2.0806089E-3,5.885467E-4,3.3350724E-3,-3.6315562E-3,2.5238625E-3,-4.2261514E-3,-1.9037556E-3,2.6383668E-3,-2.646794E-3,4.3822685E-3,5.241238E-4],"split_indices":[7,21,0,22,1,23,1,15,22,1,1,1,0,10,23,21,1,0,16,0,1,0,0,10,1,1,0,0,0,23,0,0,0,0,0,0,0,0,0,0,0,0,0],"split_type":[0,0,0,0,0,0,0,0,0,0,0,0,0,0,0,0,0,0,0,0,0,0,0,0,0,0,0,0,0,0,0,0,0,0,0,0,0,0,0,0,0,0,0],"sum_hessian":[9.8E1,9.7E1,1E0,3.3E1,6.4E1,2.9E1,4E0,3.1E1,3.3E1,9E0,2E1,3E0,1E0,2.3E1,8E0,1E1,2.3E1,5E0,4E0,1.5E1,5E0,2E0,1E0,1.5E1,8E0,3E0,5E0,6E0,4E0,2.2E1,1E0,1E0,3E0,3E0,2E0,4E0,1.1E1,4E0,4E0,1E0,2E0,1.5E1,7E0],"tree_param":{"num_deleted":"0","num_feature":"28","num_nodes":"43","size_leaf_vector":"1"}},{"base_weights":[1.3542578E-3,8.306142E-3,-1.5192577E-1,1.3948559E-2,-5.8977332E-2,-4.7299922E-3,-2.3290165E-2,-4.0995397E-2,1.9623267E-2,5.029024E-3,-1.5350058E-2,3.0406117E-3,-1.7462373E-2,5.9694335E-2,5.9219766E-3,8.493334E-4,-1.4837862E-3,7.115734E-2,-2.516083E-3,-2.0217447E-2,2.1731569E-2,-1.4328748E-3,7.739577E-3,4.1841776E-3,-3.221847E-3,-2.0864392E-3,2.7708076E-3],"categories":[],"categories_nodes":[],"categories_segments":[],"categories_sizes":[],"default_left":[0,0,0,0,0,0,0,0,0,0,0,0,0,0,0,0,0,0,0,0,0,0,0,0,0,0,0],"id":7,"left_children":[1,3,5,7,9,-1,-1,11,13,-1,-1,15,-1,17,19,-1,-1,21,-1,23,25,-1,-1,-1,-1,-1,-1],"loss_changes":[9.823016E-2,3.4231093E-2,2.2872448E-2,2.6371313E-2,8.001786E-2,0E0,0E0,4.7606625E-2,4.082339E-2,0E0,0E0,8.0842734E-4,0E0,2.02716E-2,2.399481E-2,0E0,0E0,1.0175057E-2,0E0,1.773311E-2,9.742815E-3,0E0,0E0,0E0,0E0,0E0,0E0],"parents":[2147483647,0,0,1,1,2,2,3,3,4,4,7,7,8,8,11,11,13,13,14,14,17,17,19,19,20,20],"right_children":[2,4,6,8,10,-1,-1,12,14,-1,-1,16,-1,18,20,-1,-1,22,-1,24,26,-1,-1,-1,-1,-1,-1],"split_conditions":[5.6471E4,6.04E3,1.03220575E-1,5.0543195E-1,6.1556E4,-4.7299922E-3,-2.3290165E-2,6.8748813E0,2.91E2,5.029024E-3,-1.5350058E-2,6.021611E-1,-1.7462373E-2,8.405512E-1,7.2447E4,8.493334E-4,-1.4837862E-3,1.522E3,-2.516083E-3,2.4166E4,3.88E2,-1.4328748E-3,7.739577E-3,4.1841776E-3,-3.221847E-3,-2.0864392E-3,2.7708076E-3],"split_indices":[11,22,2,25,23,0,0,9,21,0,0,2,0,2,23,0,0,11,0,23,21,0,0,0,0,0,0],"split_type":[0,0,0,0,0,0,0,0,0,0,0,0,0,0,0,0,0,0,0,0,0,0,0,0,0,0,0],"sum_hessian":[9E1,8.7E1,3E0,8.1E1,6E0,2E0,1E0,7E0,7.4E1,3E0,3E0,6E0,1E0,1.8E1,5.6E1,5E0,1E0,1.6E1,2E0,2.1E1,3.5E1,1E0,1.5E1,3E0,1.8E1,4E0,3.1E1],"tree_param":{"num_deleted":"0","num_feature":"28","num_nodes":"27","size_leaf_vector":"1"}},{"base_weights":[-4.8679886E-3,-9.2054746E-4,-1.9191116E-2,2.2257345E-2,-3.3926032E-2,3.3331204E-2,-1.3280407E-2,-1.9050878E-2,-1.3424194E-1,2.2062982E-2,8.722088E-3,-1.1037656E-3,-4.410325E-2,-1.8348763E-2,3.1370402E-3,8.393588E-3,5.2707765E-2,-3.1407814E-2,4.6158507E-3,-8.8707806E-4,-4.5986227E-3,1.8901316E-3,-1.766432E-3,9.841211E-3,2.4584818E-3,-6.125039E-4,-7.5691803E-3],"categories":[],"categories_nodes":[],"categories_segments":[],"categories_sizes":[],"default_left":[0,0,0,0,0,0,0,0,0,0,0,0,0,0,0,0,0,0,0,0,0,0,0,0,0,0,0],"id":8,"left_children":[1,3,-1,5,7,9,-1,11,13,15,-1,17,19,-1,-1,21,23,25,-1,-1,-1,-1,-1,-1,-1,-1,-1],"loss_changes":[7.14425E-2,7.419486E-2,0E0,1.0230282E-1,5.7131156E-2,3.0866649E-2,0E0,1.6137559E-2,4.6534546E-2,1.8826792E-2,0E0,3.2958977E-2,5.871989E-4,0E0,0E0,9.369588E-3,1.5575327E-2,1.5211091E-2,0E0,0E0,0E0,0E0,0E0,0E0,0E0,0E0,0E0],"parents":[2147483647,0,0,1,1,3,3,4,4,5,5,7,7,8,8,9,9,11,11,12,12,15,15,16,16,17,17],"right_children":[2,4,-1,6,8,10,-1,12,14,16,-1,18,20,-1,-1,22,24,26,-1,-1,-1,-1,-1,-1,-1,-1,-1],"split_conditions":[2E0,1.416E3,-1.9191116E-2,1.6031E4,1.4816634E1,3.8937338E2,-1.3280407E-2,5.454969E0,3.832991E1,7.032E3,8.722088E-3,4.2410545E0,7.6E2,-1.8348763E-2,3.1370402E-3,4.896E3,4.151E3,1.08452E5,4.6158507E-3,-8.8707806E-4,-4.5986227E-3,1.8901316E-3,-1.766432E-3,9.841211E-3,2.4584818E-3,-6.125039E-4,-7.5691803E-3],"split_indices":[7,21,0,1,25,9,0,25,9,10,0,25,1,0,0,10,1,23,0,0,0,0,0,0,0,0,0],"split_type":[0,0,0,0,0,0,0,0,0,0,0,0,0,0,0,0,0,0,0,0,0,0,0,0,0,0,0],"sum_hessian":[9.6E1,9.5E1,1E0,5.6E1,3.9E1,5.3E1,3E0,3.5E1,4E0,4.5E1,8E0,2.1E1,1.4E1,3E0,1E0,3.2E1,1.3E1,1.3E1,8E0,1E0,1.3E1,2.3E1,9E0,4E0,9E0,9E0,4E0],"tree_param":{"num_deleted":"0","num_feature":"28","num_nodes":"27","size_leaf_vector":"1"}},{"base_weights":[1.735687E-3,5.3275195E-3,-1.8231561E-2,-9.62199E-3,3.1850226E-2,-2.6572948E-2,7.11341E-3,-3.1045089E-2,4.5024965E-2,-1.28678335E-2,-7.56394E-3,3.267824E-2,-3.1741936E-2,-6.1367573E-3,2.9840746E-3,7.387542E-2,2.9864533E-2,-2.4857704E-2,1.8715322E-2,6.1918736E-2,1.36352265E-2,-7.329769E-2,8.587085E-3,3.0028864E-3,8.837696E-3,4.0697277E-2,-5.8056614E-3,3.364569E-4,-4.8254523E-3,2.7551497E-3,2.991274E-4,1.4828772E-3,6.6527477E-3,3.1660974E-4,3.1846443E-3,-1.9489744E-3,-9.092291E-3,5.0266595E-3,-4.5480728E-4,4.737358E-3,2.0561784E-3,-1.2632937E-3,5.232593E-4],"categories":[],"categories_nodes":[],"categories_segments":[],"categories_sizes":[],"default_left":[0,0,0,0,0,0,0,0,0,0,0,0,0,0,0,0,0,0,0,0,0,0,0,0,0,0,0,0,0,0,0,0,0,0,0,0,0,0,0,0,0,0,0],"id":9,"left_children":[1,3,-1,5,7,9,11,13,15,17,-1,19,21,-1,-1,23,25,27,29,31,33,35,37,-1,-1,39,41,-1,-1,-1,-1,-1,-1,-1,-1,-1,-1,-1,-1,-1,-1,-1,-1],"loss_changes":[6.906268E-2,4.074961E-2,0E0,1.8911975E-2,3.20571E-2,2.1217909E-2,3.4810502E-2,1.4754722E-2,1.1352688E-2,1.0689525E-2,0E0,1.0849096E-2,2.4092048E-2,0E0,0E0,3.7045665E-3,8.737208E-3,1.3368587E-2,1.0291096E-3,7.49683E-4,2.5683485E-3,4.866574E-3,4.6083513E-3,0E0,0E0,1.311237E-3,5.182702E-4,0E0,0E0,0E0,0E0,0E0,0E0,0E0,0E0,0E0,0E0,0E0,0E0,0E0,0E0,0E0,0E0],"parents":[2147483647,0,0,1,1,3,3,4,4,5,5,6,6,7,7,8,8,9,9,11,11,12,12,15,15,16,16,17,17,18,18,19,19,20,20,21,21,22,22,25,25,26,26],"right_children":[2,4,-1,6,8,10,12,14,16,18,-1,20,22,-1,-1,24,26,28,30,32,34,36,38,-1,-1,40,42,-1,-1,-1,-1,-1,-1,-1,-1,-1,-1,-1,-1,-1,-1,-1,-1],"split_conditions":[2E0,1.1143162E2,-1.8231561E-2,4.13E3,3.24E2,3.3868E4,9.514349E0,4.6897058E2,4.569E3,7.1616E4,-7.56394E-3,2.724E3,5.827491E-1,-6.1367573E-3,2.9840746E-3,2.316584E2,8.5381E4,4.896E3,3.9479506E-1,4.582E3,6.414223E-1,3.7472117E-1,1.828E3,3.0028864E-3,8.837696E-3,5.5381517E0,4.361446E-1,3.364569E-4,-4.8254523E-3,2.7551497E-3,2.991274E-4,1.4828772E-3,6.6527477E-3,3.1660974E-4,3.1846443E-3,-1.9489744E-3,-9.092291E-3,5.0266595E-3,-4.5480728E-4,4.737358E-3,2.0561784E-3,-1.2632937E-3,5.232593E-4],"split_indices":[7,9,0,22,10,11,25,9,22,23,0,21,2,0,0,9,23,10,2,10,2,2,11,0,0,24,2,0,0,0,0,0,0,0,0,0,0,0,0,0,0,0,0],"split_type":[0,0,0,0,0,0,0,0,0,0,0,0,0,0,0,0,0,0,0,0,0,0,0,0,0,0,0,0,0,0,0,0,0,0,0,0,0,0,0,0,0,0,0],"sum_hessian":[1.02E2,1.01E2,1E0,6.5E1,3.6E1,3.2E1,3.3E1,6E0,3E1,2.6E1,6E0,2E1,1.3E1,4E0,2E0,9E0,2.1E1,1.9E1,7E0,7E0,1.3E1,6E0,7E0,3E0,6E0,1.6E1,5E0,9E0,1E1,4E0,3E0,1E0,6E0,9E0,4E0,2E0,4E0,1E0,6E0,1.1E1,5E0,3E0,2E0],"tree_param":{"num_deleted":"0","num_feature":"28","num_nodes":"43","size_leaf_vector":"1"}},{"base_weights":[-8.080643E-3,-2.7726984E-3,-1.8762654E-2,5.961934E-4,-1.7319983E-2,-1.3369872E-2,1.7223928E-2,1.5480958E-2,-5.86612E-2,1.9114183E-3,6.1726127E-2,-1.3698871E-2,3.130082E-2,-2.3026627E-2,-1.7521343E-1,-7.51986E-2,8.659026E-3,2.7671128E-3,7.000323E-3,2.7596753E-3,-4.295823E-3,6.0287504E-3,1.9899658E-3,1.7746633E-4,-5.4250075E-3,-6.443038E-3,-2.27592E-2,-2.0424693E-3,-9.237321E-3,-5.4406496E-3,1.4300824E-3],"categories":[],"categories_nodes":[],"categories_segments":[],"categories_sizes":[],"default_left":[0,0,0,0,0,0,0,0,0,0,0,0,0,0,0,0,0,0,0,0,0,0,0,0,0,0,0,0,0,0,0],"id":10,"left_children":[1,3,-1,5,-1,7,9,11,13,15,17,19,21,23,25,27,29,-1,-1,-1,-1,-1,-1,-1,-1,-1,-1,-1,-1,-1,-1],"loss_changes":[9.954683E-2,5.924077E-2,0E0,2.3917133E-2,0E0,7.40829E-2,3.190971E-2,1.6585514E-2,8.733777E-2,1.9382238E-2,1.4454499E-3,1.6893193E-2,6.4013842E-3,1.4035147E-2,1.4349461E-2,9.354651E-4,1.2875357E-2,0E0,0E0,0E0,0E0,0E0,0E0,0E0,0E0,0E0,0E0,0E0,0E0,0E0,0E0],"parents":[2147483647,0,0,1,1,3,3,5,5,6,6,7,7,8,8,9,9,10,10,11,11,12,12,13,13,14,14,15,15,16,16],"right_children":[2,4,-1,6,-1,8,10,12,14,16,18,20,22,24,26,28,30,-1,-1,-1,-1,-1,-1,-1,-1,-1,-1,-1,-1,-1,-1],"split_conditions":[5.6471E4,2E0,-1.8762654E-2,4.875523E0,-1.7319983E-2,2.9676797E0,3.9818463E2,1.8996447E1,4.745E3,3.382E3,5.300348E0,1E0,2.998E3,3.3445E4,1.54E2,3.193E3,1.6453506E0,2.7671128E-3,7.000323E-3,2.7596753E-3,-4.295823E-3,6.0287504E-3,1.9899658E-3,1.7746633E-4,-5.4250075E-3,-6.443038E-3,-2.27592E-2,-2.0424693E-3,-9.237321E-3,-5.4406496E-3,1.4300824E-3],"split_indices":[11,7,0,24,0,24,9,9,22,22,24,14,1,11,1,1,25,0,0,0,0,0,0,0,0,0,0,0,0,0,0],"split_type":[0,0,0,0,0,0,0,0,0,0,0,0,0,0,0,0,0,0,0,0,0,0,0,0,0,0,0,0,0,0,0],"sum_hessian":[1.04E2,1.02E2,2E0,1.01E2,1E0,5.5E1,4.6E1,3.4E1,2.1E1,3.5E1,1.1E1,1.2E1,2.2E1,1.7E1,4E0,2E0,3.3E1,3E0,8E0,5E0,7E0,5E0,1.7E1,1E1,7E0,2E0,2E0,1E0,1E0,2E0,3.1E1],"tree_param":{"num_deleted":"0","num_feature":"28","num_nodes":"31","size_leaf_vector":"1"}},{"base_weights":[-1.993606E-3,1.5234486E-3,-1.6453985E-2,-9.775337E-3,4.325278E-2,3.8907256E-2,-2.0788139E-2,2.7636481E-2,6.830641E-3,8.339809E-3,-4.885629E-3,-4.6244793E-2,1.7719237E-2,3.2531276E-2,-1.1548599E-3,1.5840745E-2,-2.957219E-3,7.6039615E-3,-7.239635E-2,4.0595196E-2,-1.5086096E-2,3.5271507E-3,1.2553413E-3,-6.2868E-4,4.5545102E-4,2.574744E-3,6.5380336E-5,2.5386962E-3,-6.013503E-3,-5.832705E-3,-2.050298E-2,-2.2080212E-3,4.664917E-3,-7.0855455E-3,2.690432E-3],"categories":[],"categories_nodes":[],"categories_segments":[],"categories_sizes":[],"default_left":[0,0,0,0,0,0,0,0,0,0,0,0,0,0,0,0,0,0,0,0,0,0,0,0,0,0,0,0,0,0,0,0,0,0,0],"id":11,"left_children":[1,3,-1,5,7,9,11,13,-1,-1,15,17,19,21,23,25,-1,27,29,31,33,-1,-1,-1,-1,-1,-1,-1,-1,-1,-1,-1,-1,-1,-1],"loss_changes":[5.3988967E-2,4.4271454E-2,0E0,4.048256E-2,5.937148E-3,2.7684797E-2,6.061583E-2,2.0105578E-3,0E0,0E0,4.5617484E-3,5.2654974E-2,1.937376E-2,2.1414924E-4,1.1653372E-4,7.3542807E-4,0E0,1.7186478E-2,3.469272E-2,6.7215543E-3,2.7665883E-2,0E0,0E0,0E0,0E0,0E0,0E0,0E0,0E0,0E0,0E0,0E0,0E0,0E0,0E0],"parents":[2147483647,0,0,1,1,3,3,4,4,5,5,6,6,7,7,10,10,11,11,12,12,13,13,14,14,15,15,17,17,18,18,19,19,20,20],"right_children":[2,4,-1,6,8,10,12,14,-1,-1,16,18,20,22,24,26,-1,28,30,32,34,-1,-1,-1,-1,-1,-1,-1,-1,-1,-1,-1,-1,-1,-1],"split_conditions":[2E0,7.170953E-1,-1.6453985E-2,2.9043478E-1,9.2233E4,3.3706405E0,8.6415E4,9.451155E0,6.830641E-3,8.339809E-3,3.6E1,1.476E3,1.12115E5,8.405512E-1,1.42E2,3.61E2,-2.957219E-3,6.4563E4,8.5645E4,2.08E2,6.362343E1,3.5271507E-3,1.2553413E-3,-6.2868E-4,4.5545102E-4,2.574744E-3,6.5380336E-5,2.5386962E-3,-6.013503E-3,-5.832705E-3,-2.050298E-2,-2.2080212E-3,4.664917E-3,-7.0855455E-3,2.690432E-3],"split_indices":[7,2,0,2,23,25,23,24,0,0,1,10,23,2,1,10,0,23,23,1,9,0,0,0,0,0,0,0,0,0,0,0,0,0,0],"split_type":[0,0,0,0,0,0,0,0,0,0,0,0,0,0,0,0,0,0,0,0,0,0,0,0,0,0,0,0,0,0,0,0,0,0,0],"sum_hessian":[9.3E1,9.2E1,1E0,7.3E1,1.9E1,1.3E1,6E1,1.3E1,6E0,6E0,7E0,3.6E1,2.4E1,1.1E1,2E0,4E0,3E0,1.2E1,2.4E1,1.4E1,1E1,9E0,2E0,1E0,1E0,2E0,2E0,1E1,2E0,2.3E1,1E0,1E0,1.3E1,4E0,6E0],"tree_param":{"num_deleted":"0","num_feature":"28","num_nodes":"35","size_leaf_vector":"1"}},{"base_weights":[-1.3083145E-2,-2.9324068E-2,1.652432E-2,-2.142407E-2,-1.40493E-1,4.527402E-3,6.386522E-3,-5.726767E-3,-9.082781E-2,2.2651912E-3,-2.0242529E-2,2.3870079E-2,-2.1115128E-2,-1.6531014E-3,-1.0266818E-2,-3.0956367E-2,-2.401662E-2,3.561222E-2,-3.5925508E-3,-1.1704594E-2,-6.7020776E-3,-2.6369318E-2,1.6301854E-2,-6.9116405E-3,-1.0179728E-2,-6.4469577E-4,4.002187E-2,-2.0976216E-3,4.0794254E-4,-1.9082377E-3,-3.7086947E-4,-1.208528E-3,-1.5602506E-2,4.003703E-3,3.6191716E-4,-1.3232534E-3,4.0685534E-4,2.364096E-3,4.9732467E-3],"categories":[],"categories_nodes":[],"categories_segments":[],"categories_sizes":[],"default_left":[0,0,0,0,0,0,0,0,0,0,0,0,0,0,0,0,0,0,0,0,0,0,0,0,0,0,0,0,0,0,0,0,0,0,0,0,0,0,0],"id":12,"left_children":[1,3,5,7,9,11,-1,13,15,-1,-1,17,19,21,-1,23,-1,25,27,29,-1,31,33,-1,35,-1,37,-1,-1,-1,-1,-1,-1,-1,-1,-1,-1,-1,-1],"loss_changes":[4.7127258E-2,5.231883E-2,1.9588929E-2,6.484694E-2,4.5001067E-2,1.4887879E-2,0E0,1.9575622E-2,9.09175E-2,0E0,0E0,5.6099314E-3,4.8315055E-3,2.2175018E-2,0E0,6.4319493E-3,0E0,2.4836129E-3,8.857733E-4,6.371334E-4,0E0,3.700655E-2,8.584844E-3,0E0,3.5831798E-4,0E0,5.7403E-4,0E0,0E0,0E0,0E0,0E0,0E0,0E0,0E0,0E0,0E0,0E0,0E0],"parents":[2147483647,0,0,1,1,2,2,3,3,4,4,5,5,7,7,8,8,11,11,12,12,13,13,15,15,17,17,18,18,19,19,21,21,22,22,24,24,26,26],"right_children":[2,4,6,8,10,12,-1,14,16,-1,-1,18,20,22,-1,24,-1,26,28,30,-1,32,34,-1,36,-1,38,-1,-1,-1,-1,-1,-1,-1,-1,-1,-1,-1,-1],"split_conditions":[9.2233E4,8.331111E2,3.9818463E2,2.42E3,3.836705E-1,1.31844E5,6.386522E-3,1.6031E4,2.5330126E1,2.2651912E-3,-2.0242529E-2,8.133303E0,1.1942E4,9.69E2,-1.0266818E-2,2.673E3,-2.401662E-2,1.351E3,2.08E2,5.418E3,-6.7020776E-3,8.92E2,4.741E4,-6.9116405E-3,1.4796E4,-6.4469577E-4,2.544E3,-2.0976216E-3,4.0794254E-4,-1.9082377E-3,-3.7086947E-4,-1.208528E-3,-1.5602506E-2,4.003703E-3,3.6191716E-4,-1.3232534E-3,4.0685534E-4,2.364096E-3,4.9732467E-3],"split_indices":[23,9,9,21,2,23,0,1,9,0,0,24,21,1,0,1,0,21,1,1,0,1,23,0,1,0,21,0,0,0,0,0,0,0,0,0,0,0,0],"split_type":[0,0,0,0,0,0,0,0,0,0,0,0,0,0,0,0,0,0,0,0,0,0,0,0,0,0,0,0,0,0,0,0,0,0,0,0,0,0,0],"sum_hessian":[9.6E1,6.2E1,3.4E1,5.9E1,3E0,2.8E1,6E0,4.9E1,1E1,1E0,2E0,1.6E1,1.2E1,4.8E1,1E0,8E0,2E0,1.1E1,5E0,1.1E1,1E0,2E1,2.8E1,2E0,6E0,1E0,1E1,1E0,4E0,5E0,6E0,1.9E1,1E0,9E0,1.9E1,5E0,1E0,5E0,5E0],"tree_param":{"num_deleted":"0","num_feature":"28","num_nodes":"39","size_leaf_vector":"1"}}]},"name":"gbtree"},"learner_model_param":{"base_score":"7.0591664E-1","boost_from_average":"1","num_class":"0","num_feature":"28","num_target":"1"},"objective":{"name":"reg:squarederror","reg_loss_param":{"scale_pos_weight":"1"}}},"version":[2,1,4]}